2481 100
looking -0.19224015 0.123914495 0.09870198 0.055278037 -0.22038876 -0.2197856 0.26116717 0.028733866 -0.1766032 -0.22319664 0.48149964 -0.1143086 -0.449381 0.2607092 -0.13556701 -0.09519035 -0.0047063716 -0.115863934 -0.1485195 -0.28214055 0.18116483 -0.010522161 0.557258 -0.058987513 0.13929223 -0.19010189 0.009839817 0.08110525 -0.25323328 -0.3233453 0.050853647 -0.20883709 0.2921391 -0.14462931 0.227046 0.02052039 0.28854957 -0.19915067 0.27054945 -0.047929022 0.07245912 -0.22697528 -0.40048507 0.13828412 0.1271119 -0.15841824 -0.32416573 0.2275193 -0.078084245 0.5370378 -0.11076318 -0.31047887 0.1527204 -0.030223839 0.37377042 -0.32118526 0.33402908 0.22590597 -0.23397104 0.0030368606 -0.092288464 -0.5258323 0.01809959 0.2856786 -0.28852096 0.17498071 -0.22963893 -0.027368318 -0.07554273 0.23687695 -0.014559157 0.11898085 -0.008226832 -0.20273758 -0.14962499 0.21338336 0.058498774 0.09708001 0.2531364 -0.19503176 -0.38042152 0.034649678 0.27435037 0.27866238 -0.19305423 -0.13649121 0.26436815 0.11809416 0.3943306 0.3440784 -0.005591339 -0.054703794 -0.008063616 -0.019607302 0.14308205 0.5013753 -0.17181125 -0.15392205 0.12573044 0.05404212
wanted -0.30586755 0.106578216 0.18340768 0.10358702 -0.12030552 -0.40041775 0.30075154 -0.060162414 0.058498118 -0.23625302 0.13235088 -0.103119195 -0.46148407 0.2124745 -0.14265554 0.09121312 0.06524397 -0.27827072 -0.0559208 -0.14054851 0.24411605 -0.022610595 0.49867493 -0.33199242 0.084146604 -0.20288214 -0.18543881 -0.0401277 -0.1263981 -0.3957921 0.23690818 0.045422398 -0.025628507 -0.25704312 0.23237841 0.2173695 0.14442939 -0.13041946 0.14670092 0.068954006 0.3812597 -0.33119443 -0.3161005 0.18513842 0.045366038 -0.045971613 -0.026553705 -0.17089744 0.015568408 0.24457148 0.092557274 -0.23301463 0.66695064 -0.03147642 0.06321352 -0.4895897 0.15947817 -0.07921294 -0.30810812 0.18679135 -0.13000238 -0.23023792 -0.20716695 -0.0483054 -0.47349888 0.01366254 -0.22745436 -0.17113203 -0.04304884 0.31271917 -0.34525436 0.031461738 0.101292245 -0.034999333 -0.018789915 0.17309055 0.28480473 0.22830498 0.23676334 -0.055554934 -0.48765606 -0.16525489 0.39283326 0.059726983 0.051108275 0.1716595 0.4069538 0.021730402 -0.048656914 0.024167506 0.15388411 -0.08719915 0.0582298 0.14616287 0.034412786 0.06628104 0.14815128 0.18559061 0.032425195 0.112693146
work -0.3424438 0.3408094 -0.031161528 0.054715984 0.15238932 0.14529444 0.2883403 0.0966151 -0.3045388 -0.18375278 0.28047723 -0.1533031 -0.27605644 0.17011729 0.48883626 -0.082629964 0.29750428 -0.07633125 -0.45767486 -0.2312355 -0.097204305 0.033868164 0.36180905 0.09011259 -0.030912613 0.100250535 0.19266474 0.269179 -0.32298127 -0.16503942 0.1550467 -0.20033497 -0.45807046 -0.3353669 -0.088156365 -0.26832658 0.053076886 0.15041238 -0.05080737 0.00818682 0.016648678 -0.18725432 -0.3126358 -0.038058084 0.40566856 0.008121712 -0.2138982 -0.003952125 -0.17742224 0.33950254 -0.039459694 -0.13995695 -0.47528964 -0.18195838 -0.16841033 -0.42957908 0.07535679 -0.09312086 -0.022870515 -0.15769528 0.017630523 -0.522472 -0.10368695 -0.086666755 -0.05483356 0.21930929 0.030804178 0.21521027 -0.15892431 0.3265785 0.16077195 -0.11891351 0.1857519 -0.08595745 -0.2687389 0.43258083 0.2936379 0.329354 -0.28364593 -0.05093083 -0.27554202 -0.08789946 0.31140193 0.2921473 -0.5450516 -0.1482652 0.016727274 0.19681704 0.49111506 0.12734435 0.10110576 0.36936432 -0.01886927 -0.037415836 0.4383311 0.24501501 -0.18348807 -0.19211341 -0.039285343 -0.2789436
job -0.40568978 0.20513111 0.122121215 0.13758971 0.093466096 0.055170253 0.34428754 0.26888075 -0.15358302 -0.2982881 0.4474154 -0.01161946 -0.19079001 -0.01805157 0.20675947 -0.4524736 0.2974727 -0.010902348 -0.3757446 -0.031622287 -0.18151268 -0.13525699 0.382798 0.26359653 -0.27550036 0.04912302 0.2960712 0.54476297 -0.39196008 -0.1128091 0.111916475 -0.2507843 -0.07029205 -0.04648452 -0.027582673 0.03391965 0.47484392 0.18505058 -0.24384555 0.18839577 0.38982657 -0.13355906 -0.24145305 -0.2055144 0.3423899 0.016539814 -0.1739688 0.11264718 -0.29189762 0.36683378 -0.05172069 -0.2177482 -0.3578224 -0.08084324 0.05016286 -0.096580975 0.22364184 0.04145392 -0.010431338 -0.28117096 -0.13325441 -0.19599782 0.11767445 -0.04439512 -0.08133948 0.1844153 -0.07866068 0.183608 -0.048166227 0.23835626 0.0011665983 -0.31161067 0.3104944 0.13697156 0.040027715 0.451538 -0.1555372 0.35424942 -0.21691398 -0.30460322 -0.104677804 -0.0051147873 0.34719875 0.39023182 -0.44275463 -0.23299098 -0.01079634 0.46189547 0.4760758 0.13387085 -0.045986556 0.27929136 0.14152527 0.19116192 0.4722916 0.34102193 -0.0025944216 -0.5629448 0.28144926 -0.14557229
required -0.13885406 0.15693505 0.23280932 0.14525512 -0.057786386 -0.1528778 0.2947021 0.04371314 0.079917125 -0.24140362 0.03335533 -0.18083857 -0.30919507 0.06087802 -0.39019713 0.04027395 0.18958847 -0.352037 -0.07482467 -0.19942474 0.17885199 -0.06073529 0.3935386 -0.21898681 0.12829672 -0.09474299 -0.28874677 -0.025691869 -0.35908797 -0.48488218 0.22439578 0.24325691 -0.0091499295 -0.15537386 0.072303034 0.19419244 0.07603499 -0.19514853 0.09965765 -0.06962751 0.44593838 -0.49505213 -0.19276763 0.24099198 -0.0637038 0.012361417 -0.056855805 -0.34205323 -0.001483754 0.36306494 0.22338904 -0.2070138 0.77343994 0.017015092 -0.077500895 -0.47581214 0.20640074 -0.2315309 -0.121110454 0.27624524 -0.33150238 -0.37900203 -0.14283384 -0.023420397 -0.51435083 0.2239533 -0.17799327 -0.18793921 -0.17272733 0.27022588 -0.4502725 -0.064692795 0.21171111 -0.14176099 0.09139037 0.05238937 0.31101528 0.35703745 0.24140115 -0.121346615 -0.3263441 -0.21638286 0.29796633 -0.17314059 0.06742271 0.030701991 0.17775021 0.14950238 0.058162156 0.062150426 0.21952395 0.0261504 0.16691266 -0.048505466 0.16470012 0.01718793 0.33171195 0.38362983 0.016905602 0.2842534
driver -0.09852164 0.5308733 -0.25507662 -0.3234131 -0.14268109 -0.016389027 0.16702847 0.3455728 -0.5029969 -0.18222754 -0.5468345 -0.3730242 0.06344931 -0.47084785 -0.15509371 -0.52121806 0.024244508 -0.88939434 -0.19632237 -0.30247375 -0.12720226 -0.027453672 0.13025369 0.48472273 -0.13645495 -0.23626523 -0.2856706 -0.38970852 0.42036653 0.0039204783 0.0495414 -0.6466462 -0.26205817 -0.091410704 0.2707658 1.1473883 -0.21350078 0.1401592 0.14880063 0.11858305 0.14005964 -0.18917823 -0.14881347 -0.14375292 0.14425454 -0.14510521 -0.41204152 0.031066677 0.0050566583 -0.23360957 -0.20906657 -0.34703296 0.44003734 0.47855908 -0.4541585 0.04323692 0.6051008 -0.7145529 -0.3198487 -0.13288328 0.43345615 -0.36273542 0.6113409 -0.25593078 -0.17765976 0.42495278 -0.04930299 -0.20870203 -0.21979621 -0.3087831 0.054451734 -0.24637915 0.50111985 0.51779556 0.029174598 0.38846394 0.11070773 0.12612423 -0.21973474 0.09673324 0.11717603 -0.3865587 0.32989946 -0.31059906 0.39757702 -0.34815395 -0.2354625 0.9067447 0.30615753 0.4449509 0.35921615 0.8235593 -0.26523063 -0.09025481 0.5995797 0.23256923 0.07539954 -0.18303405 0.3219074 -0.18302882
needed -0.21200617 0.21965821 0.37376082 0.2882329 -0.43666562 -0.3784953 0.41978595 0.19082639 -0.13322128 -0.3490594 0.4289977 0.12071077 -0.5691784 0.014620856 -0.5267732 0.03907446 0.2376374 -0.45560187 0.3085942 -0.38690555 0.10825847 0.08985665 0.5594844 -0.33232918 -0.10164795 -0.16824074 -0.32974315 -0.08640659 -0.16067408 -0.6441144 0.23515695 0.15947722 0.007191479 -0.17501236 0.03728131 0.19438605 0.39478928 -0.16333538 0.33726868 -0.20382684 0.57234 -0.4262398 -0.13458523 0.13135892 0.05765291 0.023951108 -0.11306512 -0.3639133 -0.019289194 0.06346431 0.050211944 -0.5118667 0.87916595 -0.035122603 -0.15489778 -0.5446089 0.3872131 -0.07554431 -0.35322532 -0.005005833 -0.3703166 -0.29322532 -0.1703249 0.06593166 -0.587592 0.068923585 -0.28838354 -0.19968735 0.07716341 0.097993314 -0.39418492 -0.023455922 0.035294116 -0.31710917 0.012725323 0.23421417 0.2164046 0.41665298 0.14595416 -0.11577796 -0.4001267 -0.13235588 0.17044628 0.009073276 0.14267346 -0.07603005 0.29692507 -0.3238699 -0.34754476 -0.15855941 0.34787527 -0.11375638 -0.049100082 -0.009869928 0.09385854 0.316235 0.44648388 0.23291 -0.26468188 0.2765662
experienced -0.078110754 -0.17908286 0.03244979 0.094791286 -0.22047424 -0.073065095 0.31483755 0.39877012 -0.0022705698 -0.22422704 0.13558604 -0.22170158 -0.17449303 -0.20985691 0.07311192 0.13973624 0.36306605 0.027631981 0.09964317 -0.8056181 0.033751752 -0.14314437 0.20531881 -0.17669795 0.11753671 0.07981862 -0.055110615 0.34404022 -0.43327883 0.45664293 -0.0084067965 -0.30446216 -0.23620303 -0.0949992 -0.043636758 -0.09920967 0.12885465 0.10407529 -0.22643681 -0.11331366 0.4553696 -0.33638558 0.08663723 0.07326222 0.043481983 0.16973697 -0.10329584 -0.04880211 0.17462389 0.026700731 -0.18379316 -0.10534114 0.375713 -0.29246584 0.2597141 0.07662977 -0.024091491 0.09659985 -0.13211721 0.33998063 -0.062617466 -0.07132529 -0.13123727 0.3549464 -0.15677665 0.18636067 -0.2506053 -0.35627714 0.093441695 0.41354406 -0.29099485 -0.4142439 -0.007977773 0.30919644 0.096099414 0.15906239 0.48599115 0.030340951 0.2692433 -0.2038884 -0.051655266 -0.053574003 -0.0047064032 0.038015 0.009112615 0.06508867 0.13046806 0.15315571 0.24811605 0.65954196 -0.1421619 0.27366704 0.5721239 0.20816243 0.054269295 0.060072318 -0.031704504 0.021047419 0.47112995 -0.020391095
chef -0.5509974 0.11558679 0.40553573 -0.0153057305 0.30693594 0.27893147 0.1740587 0.40034708 -0.32226962 -0.047547705 -0.31925058 -1.0066773 0.77933896 0.3171299 0.31628704 0.30347165 -0.09002115 -0.417326 -0.0917867 -0.8802747 0.04105298 0.78057843 0.5978288 0.14872843 -0.04424112 0.102675796 0.16171561 -0.710994 -0.37564382 -0.4490968 -0.050864212 -0.5447457 0.17040996 -0.039182577 -0.6524142 0.37201846 0.19265941 0.38533917 0.2548321 -0.55379087 -0.19423278 0.58056885 -0.17025214 0.33319125 0.07046635 -0.29498762 -0.547993 0.19392924 0.2475325 0.09477533 -0.0009862183 -0.20593703 0.056261145 -0.08028567 -0.2512456 -0.007951729 0.5823973 -0.2854675 -0.08656658 0.24779592 -0.21577525 0.1904911 0.86294115 -0.33100882 -0.65389085 0.4994772 -0.48347798 0.34944633 -0.49552116 0.21512538 -0.1053324 0.2211746 0.56006056 0.005665171 -0.02309974 -0.34414724 -0.3234341 0.2247522 -0.19078155 -0.22660586 -0.14885065 -0.9205351 0.37794992 0.6177356 0.016380016 0.3983 -0.044863254 0.09285419 -0.049919702 0.16665755 -0.4497978 0.2912884 0.10872451 0.30080277 0.088270545 0.2803608 -0.16069947 -0.018935544 0.1727499 -0.06657613
time -0.060880546 0.1281882 -0.35660687 0.033782847 -0.09930293 -0.5171303 -0.16288637 0.34496436 -0.25458688 -0.05942336 -0.30560622 -0.025066689 -0.23919511 0.12666059 0.23781347 0.28353968 0.25921917 -0.23031677 -0.32940376 -0.42248085 0.19956818 0.23245929 -0.05901822 0.41182813 -0.32941684 -0.53139055 0.4581781 0.31841996 -0.0867841 -0.04012901 0.03428036 -0.24781176 0.12582855 0.112024024 -0.26319984 0.28498173 0.14170998 0.08744487 0.1629638 -0.621173 0.36293787 0.06680951 -0.34451994 -0.023490371 0.19244085 -0.15393092 -0.39380673 0.26274124 -0.1887093 0.48196602 0.11450158 -0.0716593 0.42939675 -0.386785 0.18247122 -0.44393867 -0.011421321 0.57818353 0.067765266 -0.2740229 -0.4860983 0.23626035 0.45964304 -0.46353346 -0.3686897 0.18728654 -0.14457378 -0.44144678 -0.054557968 -0.16663492 -0.08289782 0.2520565 -0.12614721 -0.102636464 0.7958817 0.8161851 0.6337987 0.30249724 0.28074798 0.060271278 -0.71560895 -0.12037717 -0.026494537 0.13287787 -0.0016497937 0.033559155 0.22089848 0.38523793 -0.01350297 0.27613124 -0.39430586 0.6845739 0.51786524 0.44316632 0.31902298 -0.2765072 -0.19747646 -0.22728233 0.48474473 0.2758158
casual 0.0034243967 0.076322675 -0.3083357 0.064377785 -0.23551796 -0.39717853 0.1293731 0.26999027 -0.19526741 -0.28851998 0.09370126 -0.28025326 -0.1434201 -0.02518076 0.07665578 -0.22298266 0.3982684 -0.009510714 -0.1398055 -0.20744847 -0.25085366 0.0128711965 0.30831218 -0.28202316 -0.0055813896 -0.25089484 -0.24082479 0.14493114 -0.2052789 -0.18321781 0.28839886 -0.120913334 -0.38031158 -0.08583432 -0.15798488 0.24437101 0.01234623 0.27337396 -0.06921179 -0.06304389 -0.02973541 -0.090162314 -0.22784467 0.32098702 -0.15108043 -0.5007028 -0.06614601 0.14843002 0.36079326 -0.07382217 0.35220027 -0.30358547 -0.0023825904 -0.086789005 -0.075259015 -0.16500115 -0.27556592 0.0008586124 -0.028071674 0.20825009 -0.116601236 -0.24981694 -0.10044838 0.028545223 -0.494721 0.3448169 -0.19545501 -0.3821281 0.2129348 0.045469396 0.06407488 0.49806434 0.02032533 -0.039855048 0.12320918 0.42263007 0.30783984 -0.07248071 0.5823348 0.4307049 0.08740227 -0.40988412 0.2500617 0.28120458 -0.33783334 -0.21506922 0.049891286 0.15465286 0.28889433 0.20751923 0.5812826 0.3881675 0.18917455 0.5249398 0.04897401 -0.020611404 0.44720656 -0.264848 0.04107568 0.35314074
labourer 0.44894263 0.7351916 -0.050192576 -0.035953257 0.15679118 -0.17684339 0.44935232 0.13097322 0.36367628 -0.068310276 -0.32082295 0.09837783 -0.57574165 -0.1554874 0.30429903 -0.0836157 -0.4075621 -0.6589048 -0.6872904 -0.6300284 -0.51966494 -0.08582997 0.54013485 -0.56893086 -0.52496856 -0.4088426 -0.21854818 -0.017967524 -0.26106772 0.32635227 -0.28715393 -0.46840078 -0.2263947 0.15337878 -0.4113413 -0.03591205 0.31960517 0.09137977 -0.16876863 -0.4478031 -0.4775067 -0.32660607 0.091717266 0.24912255 0.39536938 0.069170974 -1.0155442 -0.48289284 0.15709534 0.4040212 -0.58330554 -0.38763565 0.008183223 0.6347494 -0.11012724 -0.57400566 -0.16383523 0.17836061 -0.42621186 0.6777268 -0.1539277 -0.4785881 -0.13854335 0.40205014 0.097624995 0.4678298 0.42768806 0.55123556 -0.65428776 0.2783086 -0.31859645 -0.2394771 0.6759815 0.21593279 0.17138602 -0.004887663 -0.24662721 0.220192 -0.22452143 -0.031804904 -0.2954101 0.5623235 -0.5644867 0.17952019 0.2642301 -0.85182476 -0.25121906 -0.13623002 0.7314495 0.5948126 0.4351455 0.32611808 -0.5509364 0.3118684 -0.035941325 -0.6931246 0.03459853 -0.3697039 -0.5581865 -0.15278175
available 0.3480536 0.13953514 0.0779002 -0.2059032 -0.08116152 -0.04847449 0.5682336 0.054663066 0.12814574 -0.17155668 0.21521327 -0.27499884 -0.915487 0.11431902 -0.027035749 -0.3359266 0.10145794 -0.024296911 0.26211572 -0.5808058 -0.36989626 0.060951505 0.15410109 -0.13168691 0.55631447 0.27073783 -0.17991546 0.4321818 -0.27954352 0.050924152 0.026029767 -0.46807295 -0.28588834 0.20997982 0.0030760965 0.18711367 -0.34663832 -0.5184169 0.4245718 -0.027060514 0.2608618 -0.09801358 -0.27641353 -0.036024563 0.04192639 -0.02499908 0.002111135 -0.034360714 -0.0075479704 0.2682142 0.5430928 -0.63857913 0.009429264 0.4624062 0.4950052 -0.66652226 0.33108377 -0.19926003 -0.030129751 0.40866774 -0.5642927 -0.46965367 0.3930507 0.049089354 -0.6953709 -0.17144004 0.018147327 -0.0628698 -0.5021666 0.20665836 -0.39878583 0.36024463 -0.039714362 0.34501883 0.22420283 0.19621745 -0.018203827 0.06826428 0.07317565 -0.008750663 -0.6570518 -0.22727764 -0.06610721 -0.109353386 -0.29054046 -0.21580759 0.5010262 -0.16426785 0.24318577 0.5266537 -0.10146986 0.21254362 0.29467353 0.040548805 -0.056787305 0.57831323 0.34002036 0.051189683 0.18570648 -0.07486531
staff -0.7063468 1.0724757 -0.050537154 0.25823748 -0.08601056 -0.21764357 0.06482349 0.18487403 -0.4977849 -0.12339865 -0.103606425 -0.7760853 0.097519025 -0.355972 0.3543889 0.22057036 -0.052259248 0.41291097 -0.5801166 -0.50192225 0.286215 0.15087962 0.26196784 -0.24729437 0.20785289 0.661972 -0.1236569 -0.4337495 -0.24089845 -0.26781 0.49151158 -0.019311002 0.62511164 0.02683933 -0.075738475 -0.0627432 -0.13734806 0.76609254 -0.3106482 -0.2855433 0.48637763 0.049177814 0.17496622 0.42965496 -0.3465385 -0.5021195 -0.5560681 -0.54839027 0.16058199 -0.38517106 -0.18473145 -0.20584907 0.096079715 -0.025329193 0.008535832 0.17784163 0.67848074 -0.18758094 0.023037078 0.45105505 -0.050032817 0.15310009 0.4113776 0.20748505 0.030280309 -0.18735997 0.033858802 -0.069662966 -0.089442424 0.31834233 0.20809515 -0.03440286 0.15293804 -0.31166166 0.6859785 0.42043102 0.015068931 0.64866793 -0.20590578 -0.3340093 -0.60115707 0.039470877 0.19291139 0.5089076 -0.47675276 0.05669313 0.19713047 0.6457051 -0.039442345 -0.18038955 0.064673506 0.71931845 0.046075113 0.120828435 -0.089505546 0.017304298 0.4435925 -0.45731187 0.26023567 0.34614825
start 0.56526005 0.76333636 0.06490607 0.1764603 -0.13869111 -0.43730816 -0.09204295 0.56949085 -0.0076728603 -0.47531545 0.21087943 -0.23890533 -0.4249099 -0.22725971 -0.200334 -0.14775433 -0.10666411 -0.5755463 0.3582066 -0.13562189 -0.056457948 0.09840946 0.06419602 -0.42916375 -0.2168335 0.007787323 0.10062736 0.10127671 0.33751953 -0.07493877 0.03151723 0.0010151046 -0.41687503 -0.42620966 -0.52646077 -0.31624708 0.6375876 0.015903339 0.014308561 -0.35015112 0.7366207 -0.3445351 0.3618584 0.32983088 0.08717755 -0.09225204 -0.4231257 0.014350012 0.25353184 0.33984658 0.25646847 0.2645666 0.004163082 -0.11833186 -0.45814037 -0.5914632 0.09341858 -0.09204636 -0.28708088 0.29650632 -0.50949746 -0.35630664 0.1933521 -0.2832191 0.51814544 0.51548475 -0.5660587 -0.3100803 -0.1996321 0.41394365 -0.1674748 -0.25320485 0.23114513 0.32000232 0.37412205 0.00015432444 0.42250475 -0.19213724 -0.43046996 0.4154986 -0.34149274 0.21921393 -0.031688917 -0.17914982 -0.46028736 -0.0809886 0.32240933 0.4416833 0.1614442 0.049244992 0.40018192 0.2821812 0.2152912 0.3828243 0.14580406 -0.09413403 -0.20523703 0.15351681 0.13650288 0.28477192
hand -0.4543066 0.44889793 -0.45608166 0.0695258 -0.065886356 -0.765842 0.16094339 0.44270357 -0.37706468 -0.19747259 -0.29386103 -0.8349892 0.02050412 0.35999095 -0.000409698 -0.29723644 -0.2081387 0.083017655 0.3199013 0.22710334 0.17816505 0.17055774 0.33625972 -0.24180683 -0.56628525 0.15908018 0.12810907 0.78785557 -0.3949146 0.037954975 -0.055276737 -0.50958794 0.2648255 0.039823234 -0.19977705 0.33218017 -0.059344202 -0.17821287 0.18147029 -0.1327357 0.30639496 -0.29497957 -0.36520088 0.21917957 0.021931935 0.12607805 -1.3141228 -0.06720076 0.4413115 -0.14170456 0.04182865 -0.3849061 0.18789054 0.030716315 -0.50654095 -0.022131402 -0.039490446 0.2858885 0.47441274 0.5730173 -0.14001334 -0.103030585 0.46751696 -0.016895613 0.60814303 -0.07554609 0.07839201 0.1939143 -0.40483105 0.5276023 -0.42341217 -0.07801897 0.5739125 -0.23964874 0.70909315 0.7437293 -0.13596837 0.10934283 0.010377111 -0.13860925 -0.32391828 -0.041294 0.02543672 0.75684166 0.025012193 0.029622296 -0.08443712 -0.038953114 0.6925395 0.3079515 0.2935389 0.39284062 0.10615724 -0.3806089 -0.10901193 0.32096922 0.0903922 0.3770774 0.05362111 0.15597318
cook -0.31460258 -0.066195354 0.020176137 0.38244203 0.31188646 -0.1339247 0.14030881 0.9460881 -0.02892187 -0.15213184 -0.13453351 -0.5614587 0.36491245 0.41297165 -0.033441354 -0.27775192 -0.0130184265 -0.32238907 0.23326322 -0.9352389 0.089057095 0.6847028 -0.013288093 0.22224188 -0.55447835 0.46042997 -0.0009613398 -0.5684455 -0.60177356 -0.73002857 0.39143515 -0.46175393 0.71912 0.3038299 -0.60962343 0.49105814 0.030661501 0.5904122 0.14678273 -0.47824484 0.33396032 0.3754684 0.008424399 0.2794933 0.37173262 -0.13383389 -0.17020082 -0.25156236 0.38470262 0.15443815 0.18100248 -0.28054464 0.24694294 -0.21124293 -0.4419378 0.32198456 0.43120715 -0.18413995 0.2866232 0.5104489 0.008280671 -0.5966859 0.9375175 -0.23025826 -0.4100769 0.054522745 -0.2439775 0.19038151 -0.5526996 -0.06496989 0.23003162 0.5877588 0.4785852 -0.13450533 0.37809706 -0.5425816 -0.71323025 0.27613008 -0.590845 -0.12222896 -0.17792062 -0.85129035 0.24341673 0.2251473 -0.102583915 0.59921825 -0.2743434 -0.24931583 -0.42109624 0.4416479 0.4458687 0.3721168 0.17157829 -0.0017156551 0.4211675 0.21095346 0.024146294 -0.42583662 0.51707256 0.042115085
truck 0.028256098 0.23527181 -0.10621753 -0.23698048 0.17411503 0.10017024 0.55107313 -0.15776086 -0.31211117 -0.36788782 0.07462829 -0.5004754 0.6155279 -0.32173198 0.33085215 -1.024196 0.0631276 -0.33774453 0.25909212 -0.14900036 0.32586357 -0.15103446 0.002886721 -0.008897848 -0.27276757 -0.4943247 -0.103815265 -0.8448655 0.17159328 0.6650703 -0.0026480462 -0.77642494 -0.7768098 -0.34855148 0.5124216 1.1337019 0.041307326 0.024723401 0.36673197 -0.44091982 0.55323035 -0.56666315 -0.23667213 0.223102 0.25774935 -0.1782357 -0.26034003 -0.11670234 0.13873203 -0.23472182 0.10135172 0.1607365 0.26398942 0.123929866 0.2956711 -0.55877364 0.40521058 0.0845212 -0.4193663 -0.4700634 -0.3325815 -0.65683866 0.4073346 -0.24849407 -0.46929786 0.46024093 -0.00023994256 0.2640043 -0.14456767 -0.0355864 0.21789737 -0.4193837 0.26959032 0.23078029 0.82769513 0.24802558 0.010172141 0.5394227 -0.13334183 0.18478183 0.15261814 0.10916908 0.052387908 -0.18263617 0.58042127 -0.119604215 0.26265168 0.45963508 0.7014092 0.21105938 0.44192815 0.5136627 -0.14270397 -0.663762 0.52691275 0.5470387 -0.3635227 -0.3362251 0.24866492 -0.18507355
kitchen -0.525746 -0.20296156 -0.1300306 -0.15168898 0.22500646 0.040087905 0.542573 0.8375371 -0.6040051 0.013747499 -0.15807222 -0.44869477 0.06474177 0.31184536 0.56834275 -0.08747976 0.07203552 -0.39689758 0.22649527 -0.03775459 0.22816633 -0.04441114 0.32783508 -0.05401204 0.12980954 0.716822 -0.25411385 0.2974152 -0.32723078 -0.24322723 0.030761633 -0.30231792 0.634505 0.08682364 -0.13731433 0.3488233 0.054157358 0.27751914 0.8008437 -0.37366685 0.47835037 0.15094769 -0.050932907 0.5615272 0.10835916 0.2922484 -0.9370594 0.0058233007 1.0503544 0.007444132 0.41984594 -0.94711226 0.25512913 -0.6832921 0.13447003 -0.060844425 -0.019522352 0.2482239 0.6019163 0.38719594 -0.017966347 0.35071957 0.80590063 -0.06597424 0.07166754 0.053022835 0.15029939 0.49694958 -0.48364913 0.271811 -0.10183536 0.13341121 0.6288071 -0.40040836 0.8405357 0.13982534 -0.23841104 0.23322882 0.15154104 -0.76681274 -0.034540623 0.31259578 -0.40860507 0.7424716 0.12882131 0.30299106 -0.2218075 0.35513857 0.39523953 0.12714022 0.17757595 -0.370923 0.21172121 0.16592583 0.26733306 -0.13101035 0.19348286 -0.3619668 0.4498945 0.09697366
cleaner 0.050167125 0.24545242 0.25472948 1.0441438 -0.096227765 -0.7020669 0.76751834 0.12795436 -0.57321477 -0.65749985 -0.15548909 -0.05697073 0.5211466 -0.59651995 0.17992054 -0.42235076 0.53040123 0.46301007 -0.099200994 -0.9532011 -0.101563275 -0.062184285 -0.29393515 -0.6026098 -0.17910391 0.2036306 0.03068438 -0.18520254 -0.25380406 -0.2781778 0.0055937287 0.05218716 -0.29139268 0.083168715 -0.5697212 0.3524963 -0.60598594 -0.4258595 0.14293015 -0.8680109 0.3285931 0.21780494 0.20081235 0.1453134 -0.074449934 0.092350654 -0.52919304 -0.0038165932 0.0759457 0.43901822 -0.58961535 -0.27297923 -0.20304488 -0.782805 0.034376327 0.19654794 0.5926201 -0.07561806 0.33321 0.45435733 -0.21317974 -0.37738335 0.733729 -0.48600858 0.021639023 0.022223402 -0.12664348 0.19693021 0.011387905 -0.065597504 -0.14236216 0.286796 0.7863308 0.14976136 -0.46684584 0.4133851 0.18338366 0.3461193 0.19272687 -0.66444284 0.21763201 0.08480775 0.06354396 0.3544284 0.22398944 -0.087230705 -0.36793426 0.4119545 0.48551825 -0.29637647 0.022826703 -0.13937163 -0.39688203 0.80436575 0.010631228 -0.09100504 -0.31996825 -0.15777743 0.28665802 0.14017133
full 0.17278701 0.49154708 -0.19082023 -0.015857643 -0.14402676 -0.33370245 -0.16886014 0.30783048 -0.21783322 -0.10048069 -0.16669145 0.30289242 -0.19738218 0.09388982 0.11457952 0.26986486 -0.050992727 0.10826677 0.033844575 -0.3343373 0.047983315 -0.0024741907 -0.29130197 0.6246976 -0.753854 -0.68594694 0.44946992 0.15516692 -0.3422313 0.26044 -0.17740142 -0.3548705 0.1335958 -0.283724 -0.1445546 0.40267465 -0.062579356 0.04741387 0.3009846 -0.8686235 0.387433 -0.27944723 -0.4100514 0.012174262 0.46377376 -0.34432092 -0.55935484 0.08308044 0.17322843 0.5135167 0.37381458 0.049518432 0.3288598 -0.5396139 -0.062480282 -0.22218011 0.17295557 0.6512537 0.045561403 -0.43730223 -0.39343247 0.17157926 0.5227758 -0.64772123 -0.69257975 0.40683314 -0.20781164 -0.5829144 0.2633822 -0.21519339 -0.18913841 -0.054884065 0.064572185 -0.21866788 0.9643057 0.84913623 0.40462503 0.30619818 0.26913536 -0.05607744 -0.45356175 0.13663857 -0.118587665 0.11554107 -0.19376269 0.45362794 0.406471 0.33800125 -0.016955463 0.28276187 -0.5404673 0.8021263 0.53016233 0.49588227 0.37196526 -0.23833205 -0.06863953 0.2526173 0.74584305 0.6935395
assistant -0.47758308 0.6815405 0.10616759 0.7782237 -0.5495289 -0.4114597 -0.3124254 0.43755022 -0.14739619 0.2766916 -0.051532432 -0.35317382 0.034486882 -0.2860279 -0.06050087 -0.6985989 0.15749702 -0.36176527 -0.11757303 -0.28374878 -0.26880428 -0.007814103 0.0068301237 0.42127782 0.04552238 0.046963766 0.007874917 -0.5508543 0.07266518 0.09488382 -0.17054895 0.10331556 0.6454763 -0.27993998 -0.2938679 -0.55911964 -0.027053531 -0.26670077 -0.38017282 0.2789896 -0.23189223 -0.1508787 -0.6897301 -0.27087379 0.019079851 -0.87029815 -0.41451657 0.022501236 0.10227992 -0.1095028 0.060161773 0.27339873 -0.12504941 0.5491014 -0.1701037 -0.29558432 -0.09958342 0.042026244 -0.45740274 0.45471603 -0.37235117 0.19390668 0.26088902 -0.3327521 -0.4974763 -0.07575616 -0.33603635 0.6149185 0.052277688 0.14639719 0.13847846 0.30044696 0.51035845 -0.70223176 -0.015975093 -0.29146776 0.450952 0.3378615 0.25166494 0.6094995 -0.7708102 -0.505899 -0.1990076 0.91458243 0.19526492 -0.27515033 -0.010988205 0.46754736 0.037934866 0.7242267 1.0467895 -0.28703636 0.83874846 -0.113755524 -0.16826536 0.21651919 0.0762995 0.5331339 0.56860745 0.33212
position -0.105794 -0.32321867 -0.017272342 0.5363706 -0.056056682 0.3629183 0.051556 0.6264208 -0.29519987 -0.53821284 -0.096757725 -0.23129247 -0.42555356 -0.19909982 0.35318515 -0.1044295 -0.08604653 -0.28496966 -0.3635618 -0.31994876 -0.25982818 0.24154173 0.041924775 0.4015492 0.5415901 0.36803365 -0.37345794 0.8753892 -0.48761135 -0.4833436 0.28592324 0.025358675 0.0060699545 -0.65331244 -0.06716277 0.44827116 0.5996653 -0.18817787 -0.87837553 0.052601222 0.2263338 -0.23661962 -0.13485816 0.35866347 0.104874656 -0.42454723 -0.14416084 -0.36438173 -0.030729977 0.27934596 0.31737334 -0.44698656 0.07703244 0.69001615 0.265079 -0.19725764 0.12176026 -0.36954594 0.0014121056 -0.59037715 -0.3125964 -0.20627786 0.17166357 -0.35125297 -0.25835115 -0.6109663 -0.29982054 -0.27508807 -0.46826848 0.53190535 -0.61711895 0.55235195 0.37983292 -0.31615087 -0.15472744 0.24892175 0.34124565 0.09855133 -0.11739477 0.1752639 -0.25229678 -0.30193275 0.18213896 -0.32146707 0.37391105 0.25923422 0.31346023 0.14524886 0.8322251 0.37112385 -0.023208309 0.61087686 0.36478668 0.17109187 0.29983425 -0.16444747 0.6930226 -0.40025297 0.2345644 0.5750645
cafe -0.44657862 0.5117192 0.28807315 -0.32157448 -0.4480472 -0.16934873 0.08408511 0.41587967 -0.2905378 -0.39833444 -0.06596365 -0.6074442 0.5245299 -0.009979115 0.4996783 0.4678634 0.75320584 -0.31226453 0.49975884 -0.47289708 -0.37199575 0.901078 0.06459426 -0.70478374 -0.7910286 0.7600737 -0.95263726 -0.7089092 0.033398647 -0.30998793 0.78944844 -0.5127891 -0.3151013 0.038876597 -0.50692666 0.14104703 0.2278874 0.8492777 -0.140231 -0.38769144 0.44742626 0.65353 0.1288676 0.2139668 0.12324459 -0.35597843 -1.1150715 0.076544106 0.23138496 0.61670893 -0.3670059 -0.77055085 0.33992904 0.09379804 0.036611382 0.3269042 0.16481812 0.33571193 0.8404073 0.5871324 -0.4099416 -0.089722715 -0.19298744 0.091874465 -0.76677835 -0.25712198 -0.55960655 0.066078305 -0.45398656 0.11714594 0.26009944 0.062604144 0.02742677 -0.5324862 0.7336044 -0.39523068 0.29487923 0.17431696 -0.15816906 -0.6274826 -0.5100282 -0.19701965 -0.029994665 0.54412764 -0.049279775 -0.07609594 0.058610223 0.30573803 -0.23371305 0.46169934 -0.17128496 -0.0024293142 -0.22050127 0.042065427 0.5586053 0.05843262 -0.035535913 -0.1261484 0.570946 -0.1768601
sales -1.2578707 0.44955057 0.8476904 0.0634809 -0.56427836 -1.2624203 0.08534608 0.838616 -0.45714036 -0.9341784 0.15690173 0.1954745 -0.52115643 -0.63244504 -0.118760794 0.009309079 0.010351741 0.44232094 -0.6237267 -0.34320113 0.051092062 0.28060597 -0.39019758 0.27499542 -0.30873704 -0.22155866 -0.003559069 -0.23919383 -0.42809945 -0.74274886 0.34971333 -0.06330821 -0.23759031 0.50636554 0.45882505 -0.19265144 0.056128953 0.04199937 0.4729159 0.25218198 -0.4870546 -0.066368155 0.5275131 -0.6056409 0.10856887 -0.31972945 -0.10738938 -0.2578902 0.1686495 0.23448446 0.62624294 0.9960607 -0.29086694 0.26233292 0.576313 -0.029984824 0.3779258 0.60083663 0.32011366 -0.04090034 -0.067939684 -0.032644298 -0.48696184 0.18208061 -0.24421813 -0.13298987 -0.6518061 -0.6389936 -1.0764086 0.38085377 -0.44127387 -0.3939639 0.5795071 -0.26495337 0.3552641 0.03385611 -0.2045084 0.5778277 0.22808768 -0.12521276 -0.09415938 0.15083158 -0.26827744 0.405418 0.4064549 0.27700457 -0.87726265 1.1280047 0.45368516 -0.4485262 0.63203895 -0.21469589 0.17583616 0.2850552 0.3267617 0.01678261 0.16403958 -0.588122 0.11204594 -0.3336163
immediate 1.113414 0.1561198 -0.265489 0.45682523 -0.120570995 -0.31325027 -0.37270936 0.86883897 -0.056290288 -0.6808463 0.05675013 0.4727941 -0.12852117 -0.5422451 -0.3495585 -0.23954773 -0.50230277 -0.077206515 -0.013231563 -0.76075387 0.23675875 0.17085536 -0.38565403 -0.7735497 -0.1550862 -0.15663612 -0.008583255 0.0866032 0.09253099 -0.25150985 0.10778171 0.3768613 -0.5275745 -0.5986903 -0.4216239 -0.013051612 0.7491973 0.22165526 -0.17447591 -0.70815647 0.6272247 -0.28837115 0.45420337 -0.06281137 -0.080947354 -0.18608522 -0.6210883 -0.05121802 0.26358163 0.06632856 0.28732163 -0.37417695 0.22426577 0.26677847 0.20104793 -0.8210038 -0.03465554 -0.4297212 -0.55830204 0.24932662 -0.16950098 -0.42809436 0.54126936 -0.090489134 0.54746044 0.3522298 -0.018917127 -0.4962361 -0.13864478 0.69224143 -0.38418663 -0.39771318 -0.034576535 0.22485253 0.58357596 -0.1527174 -0.05424674 -0.41205674 -0.52039295 0.34854892 -0.37601766 0.2894352 0.41764307 0.21720129 -0.85988355 0.24169287 0.30835164 0.97076786 0.32426018 0.006916508 0.43724066 0.024348142 0.501965 -0.14345023 0.24740084 -0.058752306 -0.24352169 0.5000055 0.12867066 0.3569338
delivery -0.7893756 0.6454715 -0.399479 -0.07663588 -0.17606494 -0.90901333 0.7341923 1.2074927 -0.35182735 0.44470704 -0.13174678 0.26078278 0.43972006 -1.0597658 -0.38250563 0.3468211 0.53037584 -0.3777055 -0.15183419 -0.90339726 -0.301032 0.11356783 0.48201004 -0.23761617 -0.22797967 -0.06155431 -0.11211014 0.5035158 0.4614182 -0.03152567 0.30659172 -0.6843433 -0.07418719 0.54409957 0.5703383 0.5606488 -0.25797123 0.12213814 0.35179818 -0.38390365 0.98133767 0.11907722 0.14431156 -0.03173669 0.2206541 -0.3687768 -0.38050514 -0.28207335 0.652335 -0.30266225 -0.4863373 -0.17178869 0.754216 -0.11929729 -0.39766148 0.44378775 0.53448004 -1.0273701 -0.28953132 -0.14897557 0.3369374 -0.37478772 0.58760685 0.017280115 0.11680875 0.34554008 -0.54766506 0.21525188 -0.6230795 -0.2028703 -0.023026029 0.39197385 -0.044877697 0.76065296 0.7600054 -0.065219626 0.6223711 0.14715779 -0.081621684 0.16902924 -0.32660335 0.4901665 0.012820962 0.09810804 0.41000503 -0.500237 -0.8104914 0.74346054 0.65112567 0.33856305 0.6797758 0.01688482 -0.84741634 -0.1304579 0.38461453 -0.341712 -0.27577853 -0.55801237 0.45318818 0.25098264
barista 0.09407159 -0.16736762 -0.67352194 0.36461806 -0.20331316 -0.69065475 -0.032225512 0.64316046 -0.39127645 0.016138343 -0.33020127 -1.0454959 0.122767456 -0.098922 0.4022781 0.43718612 0.5797337 0.12035133 0.4340268 -0.45644495 0.09382929 0.8472205 -0.033491656 -0.24695237 -0.42709193 0.40885013 -1.0384719 0.17049028 -0.29800817 0.17817596 0.9449307 -1.1342399 -0.10938448 -0.31130567 0.010607418 -0.1298914 0.2053433 0.48706084 0.4665293 -1.0136682 0.005680424 0.016941449 0.04224499 -0.17939278 -0.46526796 -0.5791893 -0.5272056 -0.5271471 0.12677045 0.8823994 -0.29832602 -0.686883 0.12293511 -0.03359222 -0.13324912 0.31926474 0.42434114 0.1362347 0.32854527 0.43399218 0.116617694 0.37618825 0.9670183 0.16784629 0.0747279 0.20498867 -0.3866678 -0.43272564 -0.07808702 -0.0054139644 -0.32244217 0.09867917 0.32399303 -0.6778945 0.2692037 -0.09795627 -0.19769828 -0.08384355 -0.14190708 -0.77735925 -0.29124662 -0.7749077 0.02783383 0.45353314 0.30017763 -0.46183148 -0.20815332 0.12652616 -0.15689863 0.1567316 -0.005463769 0.48531398 0.040721353 0.20756376 0.58195746 0.9905614 -0.28826135 -0.72737145 0.36192524 -0.15069342
year 0.16131769 0.33670107 -0.11350879 0.38007256 -0.5983253 0.09321346 0.3807461 -0.19659124 -0.08201884 0.02936591 0.5807132 0.21772648 -0.2934236 0.71340907 -0.05889901 0.28615046 0.7707924 -0.79317844 -0.17912206 -0.46927413 0.65602493 -0.080224246 0.59620446 0.028160019 -0.2697082 -0.6278169 0.47811314 0.52611315 -0.031109458 -0.33227995 0.26450756 0.19552228 0.41269487 -0.29119626 0.076594956 0.5283613 -0.30457738 0.14269717 -0.34766123 -0.40677276 -0.15664932 0.6186259 -0.33361232 -0.048722915 0.56858915 0.0047415216 -0.8069982 -0.3062989 0.24583429 0.34462452 -0.43628982 0.26348725 -0.31513306 0.31279385 1.1379507 -0.08442331 -0.27574643 0.19409025 -0.7530103 0.8138007 0.0699 -0.6369 -0.35800132 0.2955955 -0.7817344 -0.022329692 -0.5054822 0.086884566 -0.42898434 0.38316876 0.41894764 -0.32856604 0.7760704 -0.23687468 0.16344905 -0.32501814 0.14553489 -0.056068853 -0.5681557 0.7577971 -0.34513342 -0.22577332 -0.53482336 0.54805225 -0.7654142 -0.43995845 0.2124181 -0.079591155 0.697494 0.4938736 -0.1504611 1.0533553 -0.4153518 0.056743596 0.16728154 0.3505347 -0.14426908 -0.54793006 0.3587112 -0.29936916
seeking -0.45536175 0.5568983 0.26723436 0.27861902 -0.42398274 -0.5972707 0.70249146 -0.04711498 0.011135714 -0.22600818 0.3957026 -0.31657952 -0.11157173 0.4023965 -0.54612744 -0.18549088 -0.3187038 -0.7261956 0.29306993 -0.6403754 0.42652583 0.24797861 0.5134601 -0.31386048 0.44278675 -0.25878635 -0.097175896 -0.0014687235 0.004641881 -0.69906497 0.21184465 0.14507653 0.27733392 -0.5586061 0.108295634 -0.23417291 -0.24931942 -0.3016901 0.10523327 0.11309918 -0.03429716 -0.3603761 -0.29478303 0.35019273 0.315124 -0.15681604 -0.5075599 0.61557233 -0.2663817 0.40244967 -0.26835987 -0.2421547 0.4244608 -0.15751152 0.71569675 -0.6311893 0.33485803 -0.16324428 -0.0032692465 -0.18624964 -0.38048315 -0.80256945 0.2120637 0.5776798 -0.08767463 -0.1884926 -0.7418433 -0.30280665 -0.32937792 0.04791995 0.023412501 0.40539783 -0.38474643 -0.57140833 -0.47983715 0.46128848 0.28147253 -0.17293668 0.20975412 -0.37401292 -0.7198911 0.28612787 0.011399342 0.3995375 -0.85662735 0.24013805 0.484022 0.5752294 0.6463834 0.25009468 0.24081151 -0.14625126 -0.03479797 -0.22189005 -0.013845184 0.3668487 0.1691957 -0.0039540124 -0.27969724 0.28435957
manager -0.35583946 0.03583214 0.9778908 0.82245165 -0.323708 -0.2974243 -0.5436676 0.74090147 0.239475 0.070316106 -0.41841865 -0.5586504 0.07910806 -1.1041617 0.07498713 -0.92338854 -0.14495312 0.1550049 0.53859377 -0.44488758 0.060548723 -0.7465158 -0.1271178 -0.0058175847 0.048808977 -0.39478827 -0.16960312 -0.25251362 -0.7337872 -0.11709515 0.95933914 -0.76483554 0.42669547 -0.3231577 -0.21990612 0.25214782 -0.05674635 0.21957232 -0.23196037 0.4285661 0.062393 -0.4280096 0.24941136 0.28251904 -0.34675506 -0.5387048 -0.055950064 0.053125586 -0.14735864 -0.07948761 0.5943874 0.13061556 0.40943795 0.5244179 -0.37557194 -0.05229545 0.15400599 0.14932425 -0.5321962 0.7116949 -0.51724887 0.22390823 0.3015935 -0.29076523 -1.1358986 -0.37828538 -0.36327967 0.12918341 -0.095243886 0.0075105876 -0.49772573 0.0007475155 0.38788804 -0.06886984 0.054366708 -0.0767071 0.044370137 0.7756473 -0.3373742 -0.67036957 -0.11614273 -0.23412298 0.2590363 0.15549569 -0.5286659 0.032847874 -0.2373599 0.20187886 1.054072 -0.33765596 -0.2868186 0.6771803 0.4474238 0.4460737 0.22470021 0.32599282 -0.22496797 -0.40401322 -0.6577414 0.5695752
asap 0.23314382 -0.026721573 0.10509693 0.39547375 -0.029239057 -0.8679772 0.47025245 0.3783172 0.08345458 -0.7555219 0.15231258 -0.23296991 -0.4095015 -0.23057638 0.20110686 -0.4372125 0.2062967 -0.11801463 -0.27012175 -0.63735825 0.27147126 0.041810334 0.9779595 -0.15268025 -0.38256994 -0.5197446 -0.35444567 0.0737549 -0.27043724 0.14196524 -0.15308478 0.06225692 0.029937152 -0.48071668 -0.52859104 0.43020085 0.19462906 -0.19331811 0.31457803 0.19598134 0.42455366 -0.5755623 0.020011114 -0.30395716 0.7097709 0.6181077 -0.9498851 -0.060252845 0.25772572 0.055569768 0.12683655 0.12931043 -0.028981086 -0.40104017 -0.2761506 0.30199692 -0.6496233 -0.35003304 -0.121778905 0.10604997 0.38409278 -0.09398459 -0.6563028 -0.24286924 0.23693171 0.6299242 0.21957809 -0.37039414 -0.33378288 0.1499448 -0.18489718 0.06185895 -0.33509627 0.008968372 -0.17651574 -0.08317735 -0.7249695 0.40184936 0.3001959 0.29844713 0.3093356 0.07126839 -0.39294517 0.5069193 -0.7664288 0.009566757 0.8009729 0.73465544 -0.18323319 0.42539558 0.10131766 0.28891057 0.22238909 0.07501213 0.30220428 -0.15899202 -0.5891072 -0.2764196 -0.36874565 -0.19381186
need 0.10100731 -0.18282613 -0.14635542 0.08900208 -0.4305355 0.29871455 0.7433978 0.7336232 0.076266564 -0.4330455 0.35238227 -0.18412974 -0.7340495 -0.43671948 -0.380874 -0.10574587 -0.5640053 0.0093288245 0.3691274 -0.3522862 -0.17893143 -0.33030465 0.7014836 0.33645943 -0.06185926 0.19956237 -0.0927897 -0.1645594 -0.13161294 0.34269932 -0.18972473 0.85652876 1.1101345 -0.4076096 0.80838615 0.14096893 0.12288176 -0.8819296 1.1696177 -0.17343894 0.5733101 -0.6777224 -0.6690196 -0.57539696 0.25487763 0.46548164 -0.10022046 -0.06267801 -0.013907733 1.2303699 -0.51651955 -0.15615378 0.36466885 -0.19929737 0.12065517 -0.611325 0.66373986 -0.036530636 -0.24114461 0.29057065 -0.13478072 -0.0804027 -0.44503555 0.17124505 -0.17639557 0.47292298 0.004217307 0.18298562 -0.04860003 0.23705229 -0.021641714 0.2621252 0.07670912 0.08655197 0.63808537 0.24649589 0.01429475 0.40332016 0.20599349 -0.22281909 -0.033528153 0.38872242 0.2104223 0.7229317 -0.1780646 -0.021634739 -0.34306088 0.2037899 -0.0006376316 0.12687095 -0.21087736 -0.05047439 -0.47710484 0.08051281 0.21598697 0.43923378 0.32285288 0.08985576 -0.00061083294 0.1829526
experience 0.43568984 -0.042392887 0.15779349 -0.13499872 -0.29825252 -0.30613253 0.39027143 1.1028829 -0.95840985 0.48184755 0.08042959 -0.07031947 -0.47353426 0.10922222 -0.34396845 -0.45795977 0.10197945 -0.62236255 0.16475038 -0.3869475 -0.22360404 -0.20678319 -0.19927762 0.42531517 0.5530554 0.38014397 0.033073466 0.5427915 -0.3001266 0.37890902 -0.008026256 -0.45480743 -0.5062253 -0.7483268 -0.16941229 0.2574809 0.09930211 0.11285528 -0.19771507 0.09314558 -0.080405675 0.08536333 -0.64951354 0.16634667 0.9586198 -0.65027606 -0.2398268 -0.389879 0.14284347 0.1416799 0.25956997 0.25047594 0.27065048 -0.6380674 -0.07192652 0.8811069 -0.15608597 0.030429829 0.13578348 0.5548722 -0.5095056 -0.52277446 -0.46226206 0.50647837 0.477619 0.28082305 -0.41050178 0.36548468 -0.027399529 0.18693544 -0.25582996 0.30959707 0.04294205 0.02242457 0.42691272 -0.3035509 0.8880094 0.12153864 -0.25174993 -0.14871515 0.41828516 0.10767891 0.7449512 0.39721176 0.44055527 0.22330274 0.44841293 0.7036616 0.616956 0.7811085 0.05403672 -0.03904517 0.55011094 0.018194012 -0.36966306 0.45388588 -0.14662986 -0.13855524 0.47501585 -0.010389529
qualified 0.6174882 -0.44878674 0.6367845 0.32786274 -0.4722102 -0.029511826 -0.18538591 0.71319515 0.2757743 -0.2337598 -0.48447704 -0.95880777 0.84887826 0.89731085 0.542844 0.28529045 -0.08577749 -0.52256095 -0.42101762 -0.40057167 0.88230956 -0.21497373 -0.080431014 -0.13427535 0.06516775 -0.10884097 -0.09702523 -0.39006123 -0.0059233108 -0.8660419 -0.40265068 -0.53678346 -0.18934868 -0.6594666 -0.38761085 0.37257114 -0.48978516 -0.05961342 0.03729551 0.10626636 -0.19991077 0.0009734774 0.52052164 -0.29610932 0.901829 0.5122528 0.5074328 -0.5249753 0.30107686 0.4089661 -0.6895329 0.10790817 -0.60611874 -0.6115525 -0.31664956 -0.33501592 0.47026253 -0.19004388 -0.489541 -0.4264252 -0.6572693 -0.34014413 -0.5486839 0.21685395 -1.4844872 0.19736089 -0.050339554 0.5649809 0.2989469 0.3267522 -0.09160977 0.09216515 0.31881806 -0.08480756 0.6953086 0.55595046 -0.22958845 -0.5964369 -0.013535836 0.7611734 -1.1043762 0.13916075 -0.09622298 -0.22814356 0.25461873 0.018331379 0.42686963 0.47429395 0.34105515 0.38738024 0.025264127 0.029254813 1.017632 0.8944172 -0.3203327 0.58934385 -0.39371958 -0.66424686 -0.020617018 0.3623461
apprentice -0.27474344 -0.6341025 0.2884528 -0.022682417 -1.5899528 -0.07003353 -0.5449711 0.34789893 0.43203858 -0.922171 0.020803949 0.19899711 0.344798 0.27177176 -0.03159118 0.55140454 0.21353592 -0.36988854 -0.28564623 0.071352184 0.5936481 0.9298648 1.1610888 -0.2919878 -0.14910278 0.215694 0.040612232 0.32844543 -0.3156115 0.027907148 -0.38340887 -0.6253342 0.25693834 -0.40955806 -0.19774096 0.18937965 0.2721678 -0.4678222 -0.73969805 -0.42456 -0.4259815 0.099589154 -0.59452003 0.08641777 0.75761205 0.22333464 -0.09680349 0.056941118 0.80806977 0.48535615 -0.20907065 0.574338 -0.44369638 -0.0027889528 0.24428697 -0.2718936 -0.4365842 -0.4144835 -0.8839448 0.88908845 -0.27785495 0.0015761863 0.74009454 -0.4783508 -1.0282626 0.71515644 0.0062062237 -0.32879084 -0.08407074 0.5578502 0.31433302 -0.12252874 1.0352775 0.3264597 0.18273737 0.22506584 0.80081475 0.033170186 -0.6150831 0.02242591 -0.79652435 -0.33785966 0.0118694315 0.48688644 0.5425505 -0.40449733 0.124640085 1.0954174 0.6887927 -0.33020854 0.019073306 1.1450609 0.3393853 0.9928585 0.12572704 0.5289781 -0.010547484 0.86053395 0.15028849 0.41310328
part 0.2268003 0.20956072 -0.4145746 -0.11464578 0.1638927 -0.34109515 -0.10069228 0.9459396 -0.49079305 0.033271603 -0.59940666 0.024098208 -0.46870777 0.17327783 0.25757736 0.5962922 0.31880912 -0.32380292 -0.40520343 -0.63830054 0.10354056 0.32818985 -0.0981349 0.5703533 -0.34422985 -0.40407714 0.9031407 0.2105322 -0.3888724 -0.47126785 0.28441185 0.07451346 0.4953915 -0.17345324 -0.6095218 0.22629653 0.4206102 -0.07846234 -0.2199176 -0.31667686 -0.023439107 0.08729258 -0.019470682 0.05525372 0.17807147 -1.1428711 -0.6522833 0.6332395 -0.18490633 -0.10948691 0.03437448 -0.30159122 0.036012437 -0.82803214 0.20524263 -0.44656765 0.30721188 0.87963307 0.25936487 0.040821508 -0.15239269 0.68322486 0.186953 -0.7252199 -0.12552322 -0.17911112 -0.2892115 -0.19424188 -0.021492396 -0.31025356 -0.2680784 0.86464477 0.14118631 0.17115279 0.69706845 0.81951714 0.40595952 0.45266762 0.5846508 -0.27733132 -1.0167956 0.010015167 -0.091048725 -0.23339441 0.12005771 -0.5376873 0.1639958 0.22834413 0.42699334 0.40904748 -0.67533445 0.20484644 0.7241839 0.50181913 0.20685816 0.18958262 0.24154198 -0.62865436 0.20145047 0.2026422
restaurant -0.63182604 0.0045086895 0.69519544 0.47755894 0.05207984 -0.11301492 0.866254 1.386775 -0.34597358 -0.46214134 -0.2627985 -0.9428411 0.28931367 -0.29362673 0.72582096 0.65312785 0.2976082 0.48378244 0.32944074 -0.74246806 0.5535136 0.102173395 0.17025629 -0.52559185 -0.09809427 0.78899914 -0.15866369 -0.8859664 -0.435478 0.29037616 0.8883265 -0.34398317 0.6316694 -0.012525398 -0.5243031 0.22197409 0.1370842 0.11174453 -0.377231 -0.4222283 0.49885786 0.35673523 -0.82313275 0.9903593 -0.12298837 -0.44567683 -0.10142228 0.12072418 0.44974175 0.2055444 -0.35684925 -0.5702122 0.22989658 -0.73905975 -0.6077282 -0.025329098 -0.22143081 0.6743463 0.5920596 0.5378591 -0.017203307 -0.25016704 0.5087063 0.23145989 0.04530844 0.5876376 -0.60363764 -0.4056613 -0.5773713 -0.1788704 -0.31172502 -0.17105551 0.1999253 0.022746533 0.90744346 -0.63125277 -0.7381268 0.82071537 -0.8443694 -0.1490552 0.24481836 -0.12450157 0.423023 0.94052756 -0.13501494 -0.624228 -0.2634344 0.41794547 0.28113082 -0.08342155 -0.46018845 0.59859467 0.03670661 -0.06335557 0.91602457 -0.0029472192 1.0583074 0.031935714 0.1342487 0.22885667
worker -0.11515246 -0.02202371 -0.78198004 0.3870146 -0.17896959 -0.1688563 0.43680227 -0.0016545348 -0.09241202 0.08544352 0.7669964 -0.9964199 -0.91482323 0.14055414 -0.3690876 -0.5533205 -0.13776813 0.5459449 -0.63761026 -0.5409285 -0.4566675 0.15629776 0.048066255 0.33763435 -0.5601573 0.1908504 0.21404526 -0.42485234 -0.33955082 0.78479785 0.06445097 -0.32184693 0.21871287 0.5612191 -0.945156 -0.2397998 -0.15820248 0.66125226 0.20318 -0.36938995 0.41600066 -0.2870577 0.65483934 -0.17933208 -0.22686294 0.08886307 -0.24471125 0.0038232727 0.19475669 -0.33688778 0.35440287 -0.42234373 0.26618055 0.31099468 -0.20313762 0.12911062 -0.25254774 0.6244647 -0.5123442 0.46827886 -0.4524723 -0.33456737 0.33830738 -0.3799264 0.06923903 0.014388439 0.44220406 -0.31691498 -0.8598335 0.67128766 -0.038745847 -0.052641045 0.49763516 -0.437142 -0.49847612 1.5812244 -0.11584148 0.5062791 -0.35910383 0.56248397 -0.1289015 -0.44289503 0.41280398 0.25455707 -0.08111382 0.16066574 0.56095415 0.6563347 1.1277659 0.5605661 0.41693643 0.13712229 -0.9085684 0.61786336 -0.12538616 1.0402663 -0.30989152 -0.28030404 0.16703218 0.52639985
drivers -0.3516896 0.32067204 -0.67660666 -1.0599525 -1.0977963 0.012537483 0.37323904 0.13476744 -1.3149189 -0.4808194 0.036175862 -0.5956399 -0.5759732 -0.56158894 0.12256757 0.11599017 -0.044014666 -1.246074 -0.054500047 -0.25874403 0.24247982 -0.1033525 0.4741706 0.2485404 -0.49956617 -0.21838392 -0.1381589 -1.1652412 0.63205594 -0.011724381 0.13931423 -0.1990056 -0.039422758 -0.45395505 -0.33455697 1.367148 0.105225906 0.81948245 0.47259456 -0.68300134 0.23502177 -0.16978003 -0.3817238 -0.045622956 -0.50926363 -0.32894138 -0.44391635 -0.52626514 -0.21769586 -0.097334735 -0.24757831 0.11375441 0.16956069 0.50978214 -0.04467888 -0.48983493 -0.19007672 -0.88048387 -0.49127388 0.10516623 0.4853764 0.046471864 0.23805436 -0.29566684 -0.3519203 0.5334837 -0.39197913 -0.1851559 -0.84427446 -0.4435485 0.28262806 -0.25399366 0.51677406 0.59934586 0.4008336 0.6469733 -0.1547302 0.47769448 -0.0096459575 0.0989863 -0.05233528 -0.33936712 0.53403115 -0.3378309 0.34617323 -0.08604609 -0.2947937 0.87889653 0.11133584 0.08190399 0.57019305 0.43540603 -0.39643115 -0.3496476 1.0619657 -0.11401645 -0.8834452 -0.24349363 0.3631216 -0.552358
service -0.5174066 0.34414664 0.2895196 -0.73171026 -0.45220038 -0.85348874 0.17981717 0.30094725 -0.053727467 -0.40736115 0.11437431 -0.20387484 -0.71690744 0.29089 -0.08953096 -0.7505272 -0.7678982 0.35340703 0.19205359 -0.047014453 -0.07960414 -0.5421431 0.20507525 -0.2723451 0.34533814 -0.1925152 0.5484827 0.3496887 -0.8980699 0.62466985 0.8177918 -0.20830378 0.053184077 -0.3580147 -0.48412055 0.23743314 -0.41905466 1.0200709 0.084989175 0.3845613 0.29799375 0.18986706 -0.15197587 0.05638574 -0.5656987 -0.34524545 -0.8173424 0.06998132 0.64773864 -0.5604267 0.24529764 -0.8799678 0.35897216 -0.45832843 0.6551945 0.046665877 0.24588315 0.12425146 0.03573794 -0.61415136 -0.45069906 -0.0097046895 -0.61438453 -0.53388757 -0.17420256 0.107138686 -0.47671196 0.16853201 0.37931463 0.66644835 -0.1315656 0.45476913 0.15272586 0.2856988 -0.075789206 -0.4809146 -0.44860867 0.057550974 -0.35253948 0.1047737 -0.9934338 0.59461784 -0.13232271 0.20699845 0.77567744 -0.23378642 -0.42802238 0.9145689 -0.3570171 0.0723918 1.4844862 0.8787285 0.21263412 0.13976027 0.5423997 0.5097218 -0.24873036 -0.49610668 0.043741778 -0.5238579
cleaning -0.11978808 0.24823363 0.27537104 0.4098487 0.3193737 -0.31269923 0.4135651 0.43434024 -1.3584988 -0.37940004 0.652905 -0.14105564 -0.32266313 0.15824494 0.13528265 -0.6143495 -0.48861843 -0.42580658 -0.63388574 -0.7078863 -0.22291157 -0.23603265 -0.058980506 -0.24243277 -0.08056846 0.42039654 0.43466967 -0.00041892604 -0.20677708 0.027907023 0.0026090818 -0.3901441 -0.117256135 -0.0013409414 -0.92534965 0.8842516 -0.14418972 -0.5265061 0.13406292 -0.4551491 0.00096827204 -0.14073907 -0.15009566 0.21990734 -1.572833 -0.08412369 -0.44127545 -0.3196845 -0.21953027 0.66249853 -1.0699669 0.22130774 -0.6079186 -0.104657866 0.104245916 0.06535476 0.4866704 -0.027882064 0.255572 0.24444315 0.74750066 -0.2730617 0.30760837 0.038542654 -0.5514864 -0.33337 -0.32163727 0.32162067 -0.74944234 0.16548328 -0.41049588 0.35153353 0.53910094 0.45507625 0.77179134 0.09855281 0.052509237 -0.004419633 0.04580003 -0.242225 -0.45371214 0.901533 0.12461887 0.47467944 -0.09810387 -0.07652418 -0.32295007 0.46957445 -0.15140705 0.15864645 0.7194796 -0.22928418 -0.31163257 0.90260315 -0.23454262 -0.77627754 -0.59838015 0.32316443 1.0958301 -0.67433774
farm 0.29907683 0.101545855 -0.310991 0.3405883 0.09204388 -0.48118782 0.12220972 0.2777745 -0.1907693 -0.0155744245 0.7592846 -0.07236613 -0.48813218 -0.28338557 0.7721165 0.03087154 0.25295323 -0.5175686 -0.016198196 -0.179419 -0.09942665 -0.7923819 0.6443967 -0.18003064 0.38297486 -0.37100458 0.25652522 -0.29342228 -0.77734447 -0.29816878 1.302247 -1.1667676 -0.65748686 -0.018829953 0.49936423 -0.17389654 -0.18484436 -0.27237222 -0.4309055 -0.93295646 0.1126077 -0.57774365 0.06732316 0.33617866 0.14668411 0.09519814 -0.18958637 -0.20432365 0.14467183 0.4480645 0.10715701 0.060100112 -0.034209345 -0.21786456 0.19523929 0.7008957 0.2486227 0.97380817 -0.36939245 -0.30414355 0.051060088 -0.803795 0.7669644 0.09594739 0.7461122 0.017930405 -0.2119454 0.34255728 -1.3447523 0.7658133 0.12835678 1.0125828 0.15416627 0.6055491 0.21890451 0.361717 -0.6243624 0.50340337 -0.009753737 0.26715365 -0.85895497 -0.20766129 -1.077463 0.38310918 0.47382358 -0.07732188 0.15316336 0.24434009 0.022919474 0.06107471 -0.304803 -0.2473546 -0.6562206 0.824909 0.6230864 0.65264064 0.015811708 -0.5872874 0.07705356 -0.0946464
tutor -0.5919443 -0.17422016 -0.8213906 -0.27126282 -0.28450257 -1.2702365 -0.5711401 0.33216605 0.2525851 0.23200658 0.16758963 -0.71999377 0.16822977 -0.047424085 0.1787118 0.7052286 -0.011304749 0.11948951 0.37694535 -0.4102429 0.04767362 -0.4655924 0.4630389 -0.5738584 -0.07785585 -0.176423 0.37426308 -0.3320978 -0.26528832 -0.29800275 -0.11759265 0.31268123 -0.32988194 -0.28258747 -0.5133205 -0.5397362 -0.15185478 -1.1441008 -0.48101735 -0.25052243 0.09423434 0.70593387 -0.6184258 0.27390906 -0.36230683 -0.54302174 0.37100053 -0.6078523 -0.81072456 0.10862997 -0.20558272 -0.45475674 0.24910086 -0.20297569 -0.3822113 0.10568361 0.14091997 0.19992015 -0.08022778 1.1776344 -0.24929257 0.09939632 -0.20703426 -0.027124649 -1.1239648 0.70767784 -0.4469734 -0.0863517 -0.26109996 0.5151838 0.92259866 -0.47887176 1.0154201 0.19570899 -0.18657587 0.6283002 -0.2534456 -0.53858125 -1.2907869 -0.75853056 -0.12264321 0.4668544 -0.60949045 1.1302251 1.070894 1.0601054 0.6151877 0.6259925 0.79875624 1.1226959 0.5647522 0.56015384 -0.4100538 0.08437137 1.3741491 0.93531865 -0.09422706 -0.33207732 0.29661897 -0.105396226
nanny -0.6922388 1.2111653 -0.1077874 1.1872203 -0.45938683 -0.88387316 1.1650316 0.4068952 -0.6538884 0.013607145 0.5056879 -0.4990386 0.4377764 -0.31322205 -0.22331859 0.2524002 -0.16493252 -0.38229364 0.85702163 -0.90931666 -0.35046387 0.43219286 -0.24254988 -0.18746953 0.5689452 0.3700136 0.30965525 0.06253609 -0.5652278 -0.3496719 -0.29842266 0.28591812 -0.7787813 -0.15368281 -0.16035564 1.0086482 -0.22306317 -0.427103 0.74518293 -1.3609412 -0.060329895 -0.14130454 -0.11392281 0.17065085 0.22810878 -0.35057533 0.090191506 -0.2161281 -0.47823906 -0.4237483 -0.48875102 -0.87943614 -0.79711276 0.34604397 -0.4629427 0.46463442 0.067713864 -0.59661067 0.38813704 0.09526885 0.18033569 0.13547483 0.4400787 0.324995 -0.23376149 -0.09058784 -0.41776332 0.12458451 0.1992509 0.3389014 0.7564289 0.34098172 1.1007543 -0.3059371 0.33411807 0.8232692 -0.85037136 -0.14613323 -0.17509206 -0.04332706 0.49493635 -1.0927098 -0.6534718 0.87369174 0.1497621 -0.5458864 0.7075827 0.032430403 -0.015619198 0.45237195 0.54063433 1.244914 -0.08044671 0.7411685 1.1644155 0.5098341 -0.4005855 0.34796205 -0.050688937 -0.099585645
carpenter 0.63930136 0.15982088 0.32516634 0.7031938 -0.7157189 -0.82663566 -0.11828274 0.80932033 -0.31242844 0.2492751 0.08940504 -0.15810661 0.45177394 0.21609215 1.0534617 -0.124192744 0.57477707 -0.17695647 -0.25020507 -0.4375956 -0.75976485 0.84889406 0.9524179 -0.582529 -0.11578035 0.052927773 -0.49580958 0.26643214 0.020469228 -0.2636692 -0.093918726 -1.1814407 -0.2199607 -0.28441787 -0.2751186 0.4985075 -0.81288004 -0.192494 0.08773465 -0.64815384 -0.8314792 -0.0897846 0.3994358 -0.7094797 0.28795877 0.047850925 -1.1913089 -0.20561066 0.3084445 0.51062685 -0.96855193 0.055373095 0.13776496 -0.46995276 0.18189201 -0.38050994 0.11081738 0.009934918 -0.13642459 0.6885129 -0.02807936 -0.529316 0.13033447 -0.27017552 -0.76636416 0.40011477 0.76018643 0.45700034 -0.10267232 0.885382 0.14423749 0.21385594 0.31367826 -0.889189 -0.010578285 0.084165305 -0.14648345 0.46746784 -0.94389015 -0.3947476 -0.73224545 -0.15813984 -0.44313532 0.56204957 0.49646294 1.1931652 0.4619121 0.03669603 0.69070446 -0.79532784 0.58898926 0.40954033 -0.55489945 0.006729136 0.19232352 -0.23282267 -0.30412605 0.093631506 0.6244185 -0.35927397
operator -0.8070069 0.5068194 -0.6073378 0.13931735 0.7408953 0.65312696 0.053950366 1.5511127 -1.1084493 0.29214394 -0.6453332 -0.8144063 0.15415604 -0.2111058 1.3381392 -0.23093362 0.6137637 -0.5355392 -0.13727583 0.70295686 -0.5716091 0.13359798 0.72380495 0.47864115 -0.70901966 -0.9426892 -1.20456 -0.32587323 -1.067117 0.16355531 0.7804573 -0.20933113 0.1660433 -0.7063705 0.30855408 0.37469247 -0.56253874 -0.28021264 0.21229179 -0.35422942 -0.13072115 -0.17485365 -0.19851004 0.32311842 0.27946976 0.45288432 -0.354031 -0.024309581 0.21192308 0.013467916 -0.0019577474 -0.26387736 0.5150215 0.8725636 0.78330785 -0.17008318 0.016835352 -0.13377717 -1.0646855 -0.28875837 -0.6507803 0.35326985 -0.8098342 -0.07941301 0.623361 -0.17849922 0.4909753 -0.5442139 -0.41658106 -0.5079533 -0.03477542 0.18329479 1.7356095 -0.006780929 -0.4454703 0.10082477 -0.57544404 -0.017743114 0.12002063 0.14177933 -0.6026191 0.23483041 0.28350407 -0.9445409 -0.61455333 -0.2625764 -0.33169055 0.6713836 0.8600664 0.8363661 0.7399206 0.3754173 0.09520905 0.7264929 0.07061956 0.7068721 -0.40731674 0.54031664 1.0030037 -0.110697865
sydney -0.065638535 0.19862856 -0.095285244 0.012825065 -0.18243755 0.098868236 0.04876699 -0.31898984 -0.65666777 -0.28632984 -0.42144722 -0.41799566 -0.15952437 -0.120495506 -0.6407335 0.51023215 0.20768861 0.43741116 0.38150126 -0.24543019 -0.20244072 0.06381515 0.069989115 -0.8114499 0.38010153 0.06845501 0.3405782 0.37335262 -0.22281893 -0.33826375 -0.255615 -0.054405507 -0.6046134 0.17137447 -1.2147894 0.0082380595 -0.38299653 0.120545916 -0.17003293 0.37654623 -0.03318102 -0.5511221 -0.07270092 0.07558121 0.26360998 -0.013154016 -0.13415585 -0.004672215 -0.1283478 0.5469041 0.5957035 -0.037214015 0.10919339 0.54861754 0.5999817 -0.10303243 0.698133 0.7011491 -0.13671646 0.054188333 0.95958894 -1.1022054 -0.9906205 -0.5600088 -0.7078406 0.7899541 1.0613261 -0.31987387 -0.39490983 0.16174021 -0.72844654 0.15895158 0.57769865 -0.2903182 1.9120715 -0.11682013 -0.2360736 -0.28537852 0.6827515 -0.078732416 0.46418512 -0.4882492 0.22223844 0.12198811 -0.43408224 -0.17125148 1.058364 0.73994154 0.12723243 -0.43685615 -0.07134161 0.15560399 0.3055676 -0.2769815 0.7759256 0.77260214 0.12371915 -0.42152292 0.09711535 0.049145095
german 0.017681884 0.21394365 0.21604486 0.33409244 -0.11941813 -0.75107485 -0.45881236 -0.165057 -0.79371864 -0.29767784 0.11741118 0.20337829 -0.079900034 0.09134575 -0.12189159 0.20585674 0.56464267 -0.85625577 -0.5246512 -1.0948936 0.06807763 -0.964668 0.31429532 0.24254112 -0.23035453 -0.25422487 0.057021197 1.1344993 -0.33613473 -0.60463226 0.86859417 -0.19541952 0.52288145 -0.5879354 -0.17087042 -0.06389325 -0.0433861 -0.18721165 -0.10795026 -0.6039463 0.19269302 -0.0436222 -0.41041303 0.087653056 0.1121026 0.47583026 -0.4694895 0.2551477 -0.52204657 1.1882815 -0.5092675 0.057867896 -0.2932139 -0.3742118 0.30556223 0.5782598 0.008018137 0.4634181 -1.0405625 -0.45348278 -0.38108245 -0.17796612 0.49283588 0.5281524 -0.049883284 0.73598063 -0.1115506 0.21070457 -0.554654 1.2391238 -0.78721595 0.046647586 -0.09143994 0.9219207 0.42505658 0.6767168 -0.91561663 -0.4935341 -0.17259115 0.051656965 0.43225747 -0.87902313 -0.22869742 1.003676 -0.58938694 -0.04985417 0.016528511 0.47594044 0.12283196 0.91755706 0.7593982 0.18118516 -0.3799989 0.24183442 0.31814554 1.5418673 -0.5736122 -0.1742432 0.092859335 -1.2609919
hr -0.065274745 0.14585578 -0.32999107 0.18084523 -0.14161263 0.070878915 0.85693693 0.39558175 -0.40314087 0.1220027 -0.65187573 -0.37895054 -0.18919154 -1.1989563 0.92988145 -0.21658523 0.16589393 -0.8971991 0.05766109 -0.6913009 0.40053028 0.5206182 -0.41774803 -0.4664515 0.15547986 0.2659623 0.047294192 -1.5821825 0.1794618 0.4747694 0.029307086 -0.027056947 -0.543936 -0.29002008 -0.11318623 0.9824324 -0.219688 0.21150954 0.49561477 0.43946844 -0.51626617 -0.2568086 0.025451254 -0.37137133 0.3964559 -0.8298097 -0.63293844 0.6090055 -0.31390753 0.50643796 0.9251503 0.21722578 0.46405405 -0.59298444 0.04192648 0.16350284 0.8156134 0.19123575 -0.4939403 -0.37276167 0.029217174 -0.5507772 1.1606555 0.03097159 0.7111015 -0.015465705 -0.34974486 0.069738254 -0.87878376 0.73882014 0.014381214 -0.5009609 0.291402 0.10662506 -0.21486929 0.40526682 -0.16171521 0.5091912 -0.030656721 0.18450414 -0.14378275 1.0961862 -0.05595809 0.034729548 0.34234104 -0.059296433 0.71295166 0.5193148 0.16394381 0.64766246 0.18158503 0.58623064 -0.31258157 -0.73439884 1.2655903 0.39462498 -0.10080763 0.0015109166 0.71131253 0.26036093
house -0.35126266 -0.61541873 0.09621111 0.41140455 -0.808853 -1.0916969 0.3131748 1.2884178 -1.1291527 0.02912862 0.15251154 0.38039264 -0.3182962 0.47295037 -0.434629 0.20678397 0.278567 -0.33687136 -0.74732363 -0.19340964 0.84013736 -0.044837408 -0.98405504 0.20414421 0.32582697 -0.108661324 -0.14755012 -0.46303824 -0.11553798 -0.31627396 0.7205228 -0.18056844 0.3640606 -0.65898603 -0.63102734 -0.05716636 -0.23627561 0.43198925 0.6851951 -0.66128933 0.739572 0.5329202 0.062448047 0.4672454 -0.18257631 -0.3744225 0.09301104 -0.069819584 -0.39556083 0.07547344 -0.3589568 -1.2801292 0.5019306 -0.4524723 0.10992454 0.25898117 0.5741286 0.32911152 0.67211056 -0.115126096 0.38101438 -0.9201665 0.47504765 -0.35444605 -0.5619118 -1.2957366 0.32230183 0.5850761 0.21449809 0.36504486 -0.42801538 -0.11621731 0.48212463 0.4570173 0.24946535 0.1982694 0.058396924 0.050843637 -0.06957034 -0.35271206 0.5331803 0.21149369 -0.8203599 -0.1391405 -0.6436478 0.13592173 0.15875961 0.572177 0.9302119 -0.12603283 0.7886641 0.48322868 0.41325626 0.4996046 0.10906741 -0.09919804 0.2437855 0.78340477 0.7736145 -0.20541467
2 0.22291572 0.20978862 0.20868304 -0.4257847 -0.27469608 -0.72046703 -0.30922255 0.8892049 -1.0607901 -0.21884647 0.6365534 -0.1671864 -0.53323764 0.15861282 -0.04434047 0.87468076 0.6376568 -0.55290514 -0.70900464 -0.3200734 0.6946386 -0.8175671 0.87812215 -0.47901085 0.5082673 -0.10698952 -0.04965558 -0.6061096 0.1615907 0.5477598 -0.5219664 -0.66563773 -0.4205576 0.1365532 0.40923053 -0.0019174649 -0.82184076 0.5889935 0.4716866 -0.307099 1.109962 -0.39289114 0.5006784 0.45376647 0.13183126 -0.6180592 -0.4848956 -0.47243553 0.023971634 0.5581806 0.30937457 0.03616287 -0.5799027 0.7602739 0.063021824 0.0701821 0.3909175 -0.24861771 -0.11947724 -0.08381479 -0.6321653 0.37327442 -0.47337493 -0.4206987 -0.22834788 0.54359955 -0.12811735 0.47079897 0.15386273 0.84138715 -0.018680422 0.0014285774 0.4433412 0.24820535 -0.8692899 0.42235935 -0.25014406 0.4970177 0.3839364 0.36315408 0.14602534 0.4547031 -0.50289595 0.8502924 -0.40561172 0.0736073 0.07951627 0.05454208 0.1363325 0.24814005 -0.22231747 -0.58209497 0.5036119 -0.10097941 0.9906823 0.3929104 0.5296612 -0.10167168 -0.26286608 -0.38907996
painter 1.1071732 1.001482 -0.7387992 0.27246583 -0.28547424 0.11084571 0.32667413 0.49590793 -0.5568004 0.04203903 -0.11934856 -1.0125453 0.3792653 -0.31905445 -0.49876186 -0.4677499 -0.96504104 0.01164219 -0.6154082 -0.7323863 0.099195056 0.75414854 1.0517642 0.30065647 0.43788558 -0.2918897 -0.70480305 0.47391525 -0.9211079 0.29747465 0.30248415 -0.5471623 0.63363487 -0.3419694 -0.048380863 0.30513912 0.22579363 -0.8967715 0.38622338 -0.75437164 -0.86538684 0.12577303 0.2719313 -0.41800004 0.66839606 0.095661215 -1.2259184 -0.29544085 0.3685452 -0.16971466 0.24387838 -0.037774023 -0.6726604 -0.45173967 -0.10914088 -0.18405576 0.60305005 -0.036590308 0.5719997 -0.4590412 0.1605171 -1.1058341 -0.38335794 0.0034708988 -0.80372745 0.4687038 0.2278164 0.3764477 -0.8406209 0.46812785 -0.9021433 -0.7788007 0.5300719 0.67182225 -0.1377167 0.49505633 0.59822637 -0.27373338 0.063444816 0.35872814 -0.08973228 -0.37651476 -0.8163425 -0.32161942 0.7387361 -0.10505315 -0.71913874 0.023878422 0.013749479 0.012115034 0.06671054 -0.28729945 -0.3616227 0.9880284 0.5206601 0.5167147 0.15388621 -0.61342335 0.54794073 -0.8935197
rounder -0.49855188 0.64385265 -0.03902086 0.1295315 0.68951637 -0.28939167 -0.11881606 -0.057282876 -0.33396485 0.07674677 -0.23332088 -1.1426567 -0.50180405 0.37163958 -0.24509616 0.0028141048 -0.45300558 -0.54001987 -0.78740317 -0.12346532 -0.39519015 -0.0936789 -0.32799172 -0.29791933 -0.5418543 0.66577154 -0.73891956 -0.22673595 -0.6631788 -0.033033248 0.8861479 -0.0052144406 1.0012584 -0.56343967 -0.36858547 0.58255255 0.7442509 1.416158 0.049205255 -0.2201039 -0.46474147 -0.43918797 0.5697773 -0.60148025 0.62770396 -0.79866505 -0.9527537 0.4770439 0.35114238 0.2185448 -1.2249634 -0.7850578 0.8997805 0.7213203 -0.113615684 0.2253447 -0.47508705 -0.43998367 0.47235194 0.31380787 -0.33897898 -0.18361077 0.034611087 -0.2827516 -0.22067085 0.046536766 -0.09716553 -0.06248421 -0.4644551 0.9616125 -0.17908034 -0.18191049 0.9017088 0.24535565 0.24883607 0.060989868 0.5973698 -0.034013737 -0.3518159 -0.20905045 -0.55523276 0.78079116 0.1106557 1.0750934 0.21400288 -0.4419836 -0.1856899 0.8359124 -0.23903567 0.72702676 -0.4559732 -0.05171779 0.4151121 0.7436732 0.77325916 -0.041243404 -1.0522434 0.6514416 0.7718795 -0.3527255
pizza -0.2568726 -0.48700106 -0.0116223795 0.22112806 0.41911936 0.043334477 0.5556527 0.9250255 -0.7591082 -0.33582434 -0.85696125 -0.27987948 0.60148996 -0.16333935 0.34744477 0.5053616 0.8247105 -0.94445854 -0.024738885 -0.36980927 -0.2582961 0.6225218 0.97875434 -0.500088 -0.7577975 -0.3448471 -0.48486394 -0.055904865 -0.10916534 0.2519431 0.12261702 -0.32228687 0.7479443 -0.19037548 0.069554135 0.024231005 -0.6019192 0.18667635 0.25313294 -0.3689878 0.7635624 0.06310443 -1.1003225 -0.17178674 0.017196598 -0.21125399 -0.06430908 -1.0523177 0.8627311 0.040883724 0.03997211 -0.20759921 -0.28204256 -0.007020496 -0.07194684 0.61355287 0.32874176 -0.28145388 0.33957705 0.3704712 -0.44079444 0.5362767 0.5043075 -0.17311177 0.39141375 0.48486617 -1.4035175 0.2788494 -1.1320026 -0.41703337 -0.4686829 0.61028796 0.66787803 -0.07721445 1.6984898 0.18491393 0.062165566 0.055906523 -0.6846109 -0.11437357 -0.9233677 -0.6291821 0.09458695 0.61804396 0.0834537 -0.69411296 -0.44741192 0.82285666 0.61061764 -0.0052405093 1.158448 -0.7120307 0.6026277 -0.28752917 0.6915153 -0.08568788 -0.24124824 -0.53820205 -0.3582561 0.776765
bar 0.45422515 1.3284329 0.57166713 0.9920042 0.30867133 -0.2173428 0.7711591 0.6443309 -0.54603916 -0.50162786 -0.26775092 -1.1146151 -0.11820067 0.40584967 0.39736348 0.24709028 -0.24825627 -0.054594275 -0.08000824 -0.644682 0.23923402 -0.34706932 0.67233413 0.084175125 -0.3221242 0.9456005 -0.97154695 -0.26145232 -0.8647058 -0.74485946 0.7381688 -0.17853877 0.86669135 0.30203953 0.18032274 -0.63846576 0.1024345 0.65646887 -0.7384587 -0.6400171 -0.08156984 0.21464895 0.28002355 -0.22933425 -1.2799907 -0.6798422 -0.20114999 -0.37606 1.0336375 -0.029704142 -0.07015389 -0.1980672 0.7439366 -0.046841763 0.3852814 -0.3137042 -0.23666282 0.10728446 0.35967594 0.5211912 0.61739516 -0.07974526 0.13103805 0.2839526 0.16218677 0.19136453 -0.15575558 -0.27808267 -0.26735356 -0.43033993 -0.73828405 0.128688 0.5686938 -0.20662598 0.5800686 0.630566 -0.48522782 0.3338301 0.09498674 -0.65615255 0.10566289 -0.08621832 -1.024706 0.07807663 0.49304804 0.6430613 0.421361 1.2775303 0.6322616 0.7045594 -0.09443023 0.6798888 -0.14494124 -0.707292 0.28979602 0.14561053 0.1440063 -0.34762347 0.06986375 -0.067919
hc 0.13588779 0.7932176 0.033422995 0.21498889 -0.3262005 0.35965812 0.9234237 0.66192806 -0.6608346 -0.9456241 0.12656476 -0.79952466 0.2944023 -0.18888849 0.6517324 -0.14386693 -0.74688655 -0.38386804 -0.08991082 -0.48529452 0.4798762 0.10480014 0.17708506 -0.4453159 0.4754325 -0.24866815 0.19860458 -1.3594344 0.1769404 0.17608008 -0.19787456 -0.810475 -0.4575137 -0.12013344 -0.18177512 0.6245398 -0.5375913 -0.46772963 0.23172759 -0.2628811 0.08063655 -0.40316254 -0.41289476 -0.019789495 0.69693315 -0.26324835 -0.6797823 -0.2586199 -0.16026507 0.16624248 0.2934856 0.82485104 0.44608483 -0.1886405 -0.33967018 -0.9920794 0.44179308 0.06003862 -0.580154 0.58629966 0.5680493 -0.13048594 0.67874146 -0.9854087 0.41533473 -0.73950803 -0.029521162 -0.6506748 -0.7910945 0.48388702 0.45099473 -0.19912685 0.10550726 0.8688745 0.030580498 0.56916124 0.09362378 0.027523419 -0.3490208 0.18401025 0.022464482 0.82991505 0.04223844 0.13146156 0.011175808 -0.20384325 -0.16784248 0.57388675 0.9897823 0.03200407 0.046191443 1.1152685 -0.46648723 -0.09606112 1.2606311 0.63422054 -0.630376 -0.18668902 -0.55500567 -0.78649324
construction -0.5543929 0.5207036 1.6774901 0.25232267 -0.3889573 -0.01189194 -0.13817263 0.23311108 -0.032611966 -0.17773058 0.6872072 -0.4424945 -0.08939064 0.018031614 0.936843 0.55535907 -0.51961523 -0.636885 -1.3057965 -0.14985 -0.520372 -0.15689208 0.42105317 -0.09746628 -0.34901926 -0.049905967 0.2563397 -0.45916387 -0.09243848 0.55387306 -0.48057014 -0.7729658 0.87200046 -0.44304466 0.7163013 0.14811061 -0.858301 -0.9308213 -0.27756926 -0.28351337 0.44640803 -0.6252844 -0.40772358 0.3689751 -0.048736516 -0.49777183 -1.4132814 0.30912608 -0.70013875 0.014551714 -0.86546665 0.18698643 -0.094302766 -0.84890425 0.64711255 -0.18869081 -0.2401596 0.744521 -0.5829701 -0.08402513 -0.780079 -0.06860551 -0.12242482 -0.028774455 0.6085618 0.791201 1.5493922 0.7219873 -0.902148 0.7391189 -0.7503115 0.5465356 0.6549883 -0.39116633 0.58855647 0.28088406 -0.25266352 0.4305274 -0.046262905 0.39403298 0.7587726 0.44072628 -0.18114452 0.92097354 -0.56071824 0.2788908 0.7835827 -0.17927553 -0.7415595 0.45380053 0.82951117 -0.04799236 -0.058247942 0.294714 0.60286915 -0.18771799 0.6089543 -0.80820394 0.4525345 -0.03142183
shop -0.09814015 0.27304918 -0.99382305 0.3869501 0.052431133 -0.20317309 0.6338026 0.2552257 -0.18245761 -0.6020501 -0.56103206 -0.24125808 0.5704753 -0.4319647 -0.20048378 0.049601015 -0.7203562 0.03322011 -0.58829534 -0.33059493 0.38893086 -0.1060735 0.38728335 -0.5853162 0.3134619 0.5126513 -1.1171141 0.36372328 -0.360996 -0.15248804 0.38813487 -0.31876484 0.3847193 -0.65079033 -0.11617891 -0.29989406 -0.38484624 0.12005794 -0.061364975 0.2452053 0.6372847 -0.39711043 -0.29191554 -0.98721224 -0.07094209 0.10318962 -0.88691694 0.8183006 0.36001998 -0.5212429 0.9227085 0.03682115 0.6264434 -0.96461964 -0.5046856 0.8805135 0.035376403 1.154555 0.024498044 -0.44268748 0.7237379 -0.045519687 -0.71229964 0.27838492 -1.1469815 -0.24202648 -1.3008006 0.35278127 -0.46090442 -0.21235707 -0.5169517 -0.24950717 0.9091028 -0.4818102 0.73212457 -0.800433 -0.100431986 0.65916526 -1.0376102 0.11195487 -0.43895358 -0.3076769 -0.16352381 1.335347 0.10232999 -0.6091555 0.56877965 -0.05731034 1.2383802 0.85535216 0.8627997 0.036153622 0.8442191 0.021025708 0.33970928 -0.22421917 -0.030543698 0.61557525 0.9430858 0.36198416
labourers 0.3323872 -0.44446707 -0.16600984 -0.24814153 0.12476989 0.4290396 0.05895522 0.75616324 -0.27175903 0.06303833 0.17704685 -0.88365096 -0.41798937 -0.32997194 0.43792698 0.02689426 -0.7960398 -0.5972873 -0.3946976 -1.539957 -0.2585571 -0.08176678 0.6068375 -0.5277195 -0.7008469 -0.3746001 0.20230244 -0.88331413 0.4761394 -0.8028858 -0.5853802 -0.81224823 -0.39806798 -0.9729873 -1.0982332 0.05328279 0.44851938 0.23221305 0.24432808 -0.47703785 0.3762013 -0.9692065 0.6004581 0.7572319 1.1929033 -0.06718659 -1.0374428 -1.490485 -0.2690834 -0.034050837 -0.121845245 0.2897868 0.5865899 -0.651977 -0.0021644454 -0.9734924 -0.87304264 0.89499706 -0.9204147 0.5042026 0.19713604 0.22860083 -0.048792157 0.19505773 -0.2103074 0.32176936 1.2981467 0.30545485 -0.42569813 0.015162332 -1.1642756 -0.59591246 0.45732164 -0.20646118 0.22260772 0.082214385 0.21963923 0.46742865 0.020215219 0.20012258 -0.6632718 0.50714463 -0.63899636 0.88921374 -1.0487161 0.099157535 -0.40104136 0.0021573603 1.1985999 -0.6978263 1.013325 0.08678144 -0.33515006 0.65587837 -0.09619055 -0.52247846 -0.54999167 -0.30310586 -0.5381133 -0.31160066
mechanic -0.22341667 -0.057133034 0.26039758 0.21384971 -0.7496929 0.44651568 -0.8068858 0.6908486 0.27499434 0.30486318 0.18742257 -0.4883457 -0.18776204 1.2982706 1.0336106 0.026179336 -0.39423057 -0.9168201 0.33054423 -0.39291826 0.066119574 0.24074626 -0.2810414 0.63347626 -0.00026991905 0.3007603 -0.168352 -0.5755504 -1.2531306 1.2647803 0.73698485 -0.25616083 -0.21662343 0.25052494 0.0028295836 1.0642676 -0.013139959 0.07736797 -0.3984176 -0.12878081 0.2732335 -0.6297018 -0.20785853 0.9670072 0.46410686 0.16836827 -1.3764178 0.73888564 -0.19209552 0.08354805 0.9845251 -0.2304617 -0.14657414 -0.5430773 0.5208867 -0.96030265 0.8586644 -0.9286114 0.73229504 -0.372924 0.59884626 0.074409775 -0.0058672247 -0.3288311 -0.6165705 0.059604034 -0.2061891 0.91329217 -0.5175182 0.48566923 0.21513842 -0.7629797 0.33198866 -0.35638005 0.67869264 0.13420177 -0.27515772 0.2543403 0.38173452 -0.28277817 -0.24898061 0.06421891 -0.6018944 -0.01734547 0.7232672 -0.30990723 -0.31603903 1.0251387 1.0945485 -0.05564016 0.45152876 -0.040615547 -0.9360832 1.0293925 0.17814003 0.66940504 -0.39245766 0.4512809 0.30234584 -0.28178656
area 0.27908778 0.42510873 0.9598227 0.15307671 0.920914 -0.35957882 0.8094411 -0.016725345 0.31444475 -0.091361865 0.59940326 0.2557937 0.37602282 -0.3037672 1.0064046 -0.7166242 -0.01837672 -0.10373243 0.58721906 -1.1089114 0.6106996 0.35153484 0.65603876 -0.6710875 -0.14765179 -0.5362761 -0.71678394 0.013322354 -0.15399633 -0.5834684 -0.4691417 1.1665242 0.0053891605 -0.19900757 -0.62264246 0.09237899 -0.31307456 0.67141646 -0.39324528 -0.455393 -0.062912196 -0.9296967 -0.79732174 0.389017 -0.12497342 0.43758845 -0.48379326 0.19603239 -0.7732458 -0.3030677 -0.45475706 -0.32429597 0.40278965 -0.36123413 -0.6735875 0.19842446 0.035477143 0.24530841 0.3657992 0.20170107 0.4255645 0.49627337 0.07415959 -0.32883367 -0.24493977 0.276512 -0.7298087 0.7206585 -0.87843955 0.51866174 -0.0753008 0.0066942787 -0.017188262 0.1203544 -0.058213484 0.39015627 0.7617194 -0.086538054 0.27236313 0.6515468 0.059109278 -1.2035089 -0.53573805 -0.4078043 -0.09117299 -0.3286723 0.19081357 0.9630138 0.55700153 0.46443564 0.31209424 -0.15426303 0.20187093 0.61049896 0.50752443 -0.3278508 0.5460478 0.43213293 0.42077318 -0.5961093
babysitter 0.66850615 0.9726761 -0.065275975 1.0418812 -0.5941762 -1.3161697 1.0759788 0.32266322 -1.1178826 -0.079370685 -0.86700207 -0.4390476 0.16959673 0.64385957 0.15618038 -0.42320165 -0.9262167 -0.113049634 0.54541564 -1.539146 -0.84888804 1.1400173 -0.032994226 -0.034254327 0.30110863 -0.5721769 -0.25525868 -0.5268478 -0.18634754 -0.36435598 0.60838354 0.43777642 0.48266426 0.7138529 -1.0745494 0.7376538 -0.19685297 0.3527932 0.5790225 -1.1863134 0.52733845 -0.09614599 0.22877744 0.28364688 0.2434093 -0.31855622 -0.27063772 -0.6204497 0.48024252 0.11103175 -0.13274732 -1.0301225 -0.67762643 0.152279 -0.3983252 0.27249593 -0.45804542 0.069595985 -0.53589183 0.4324926 0.6773808 0.43272543 0.01406975 0.41078907 -0.48008087 -0.30206057 -0.18736294 1.1143122 -0.9699456 0.09787151 -1.0967147 -0.057058323 1.409601 -0.16572626 -0.0855666 1.1782986 -0.83378345 -0.5868457 -1.471276 -0.06948708 0.1734348 -0.44508034 0.12678136 0.24710616 0.1664775 -1.6394259 1.351475 -0.43075532 -0.70555097 0.5723419 -0.35399586 0.6063451 -0.16847096 1.376083 0.86777645 0.57753867 -0.13124491 -0.9382142 -0.6305819 0.14686841
backpacker -0.7190603 0.26836658 0.09624398 0.109602116 -0.37835124 -0.79920006 -0.007579223 0.34512237 -0.78598726 -0.5958674 0.19472888 -0.54329747 -0.3495997 0.56725824 0.424697 -0.727868 0.96402735 -0.4745802 -0.6490467 -1.0846933 -0.63192666 -0.44761086 0.49592727 -0.41863218 -0.023705907 -0.17013209 0.94802636 -0.10261739 -0.4432077 -0.59895164 0.3310173 -0.769528 0.70838755 -0.7585757 -0.5338858 -0.61621994 0.46830773 -0.17670295 -0.342898 -1.0600197 -0.32594365 -0.7052917 -0.11010038 0.12522288 0.6371025 -0.673819 -0.797054 0.03553089 0.2184071 1.4854397 -1.1029673 0.78474647 -0.16310541 0.4036602 -0.52451015 0.42225394 -0.10832017 0.40867013 -0.12233842 -0.5098084 -0.22233243 -0.2793321 0.39289704 -0.5095236 -0.38348895 0.6293391 0.2849358 -0.082615405 -0.56277907 0.2886391 -0.009421544 -0.6726485 0.2068571 0.08482441 -0.24255466 0.34828722 -0.5076183 -0.5519849 0.30180988 -0.8162491 0.45599872 -0.3900931 -1.047855 0.39527386 0.17591076 -1.2138408 0.18745694 0.41794696 0.51634467 0.022461148 0.16254662 0.122951634 -0.26936582 -0.2271229 0.24357095 1.0775222 -0.5209263 0.2922535 0.21151508 -0.023009965
cleaners -0.69035155 1.0832233 -0.62627494 0.28144163 -0.1702821 -1.3163186 0.31917903 0.5025052 -1.1735202 -0.53592527 0.8530035 -0.8171479 0.5662165 -0.40554544 0.17712885 -0.4255184 0.73999405 0.16795115 -1.2621317 -1.1613818 -0.6902994 0.4603241 -0.56336564 -0.00963014 -0.13282146 0.6781728 -0.52050924 -0.52176404 0.5297053 -0.47123116 0.58396906 -0.22399762 0.29214123 -0.9402169 -1.4014161 1.1451651 -0.9476289 -0.27702418 0.11778203 -0.95183814 0.07653106 -0.35661042 0.1933509 -0.092896655 -0.8540161 -0.13727571 0.046737883 -0.811042 -0.41605675 0.07198198 -0.64456373 0.05510533 -0.095867775 -0.7270866 0.16339824 -0.3087877 0.23935859 -0.2894883 -0.21753733 1.5434633 0.70248955 0.39557788 -0.055088624 -0.18680483 -0.9794255 0.5147288 0.006880532 0.123834856 -0.33700317 0.0791474 -1.3368665 0.7876851 0.46566382 0.8015828 -0.62928796 -0.32399747 -0.24090543 0.77238464 -0.27499408 -0.16948317 -0.84153664 -0.074590586 0.06984678 -0.27130106 -0.30802372 -0.24719088 -0.50297266 0.5826177 0.20301354 -0.5117705 0.08662371 0.33549005 -0.018588657 1.5585684 -0.6028004 -0.06973215 -0.74940103 0.022456735 -0.49366987 -0.86790043
jobs -0.630552 -0.7449109 0.12854874 0.4009756 0.26192468 -0.47873253 -0.4361925 0.28255934 -0.4024077 -0.11840551 0.7668492 -0.62640876 0.5770406 0.46527952 0.37761796 -1.0643767 0.38560843 -0.22105138 -0.3823354 0.52018404 -0.15414706 -0.59968543 1.0544169 0.25692165 -0.091356866 0.15132375 -0.5094384 0.7948862 -0.38762435 -0.4248195 -0.8071719 -0.43720648 -0.25656328 0.3263259 -0.32241035 0.03889001 0.29548594 -0.15037404 -0.98053515 -0.27576366 1.1517678 -0.05196211 0.11685897 -0.721471 -0.20371032 -0.9547312 -1.2185751 -0.35589522 0.3031827 0.2669343 -0.12755415 0.006543464 -0.34105408 0.118112 -0.0663292 -1.1473278 0.7665375 0.012123089 0.82463336 0.021665538 -0.089240514 -0.80136687 -0.19879226 0.5102617 -0.033190884 0.70844054 -0.21810831 0.4997539 -0.40416497 0.59036654 0.0055390345 -0.091578275 0.28286594 0.5867822 0.043052968 1.0520719 -0.4825442 -0.035774834 -0.43801504 0.14477557 -0.89568514 1.1259177 0.016021121 0.58255124 -0.5465504 -0.7704983 0.036455728 0.29175043 0.80189496 -0.4345707 -0.05822878 0.9769537 0.8065993 0.09778792 0.5064475 0.8895674 -0.023913706 -0.8047095 0.0797475 0.36737943
car -0.5545684 0.3375987 -0.22730835 0.104287006 -0.32474267 -0.036303815 0.61255646 0.32990587 -0.3166384 -0.6666953 0.29173034 -0.3005337 -0.46424615 -0.0312519 0.045196943 -0.57118577 -0.04562371 -0.2564544 0.60105073 -0.5942788 -0.27376097 -0.16813193 -0.18272611 -0.45336097 -0.44692564 -0.074169904 -0.8487541 0.28373837 0.7423525 0.030385183 0.20658554 0.17918159 -0.30791625 -0.565921 0.41106534 0.9852744 -0.054765463 0.049818415 0.8356268 -1.0198944 1.0062337 0.6058866 -0.6434514 -0.6061456 0.49458835 0.12052391 -0.10822962 -0.8142989 -0.24071895 -0.4053808 0.5945487 0.22880553 0.5129987 0.19574152 0.31290147 0.33996266 0.05109967 0.38977906 0.22392642 0.65413105 0.2733931 -0.14216523 0.24609788 -1.3040217 -0.25366467 0.22451045 0.7302022 0.29267403 -0.75103635 0.108150266 -0.22622395 -0.4444988 -1.1351266 0.23430733 -0.61732155 0.801785 -0.044416193 0.1524736 0.060140684 -0.6925028 -0.6580194 -0.25594038 -0.6387283 0.26679185 0.48440108 -0.760412 0.03863557 1.1290574 1.1582683 0.3553511 -0.4745864 -0.8344335 0.4699224 0.25024498 0.27350852 -0.14340667 0.11558694 -0.6303406 1.0447533 0.25897062
hard 0.40022504 0.307426 0.08034626 0.16539046 -0.67712414 -0.4958195 0.6868502 -0.24705483 -0.8870237 0.44649404 0.22163299 -0.61837566 -0.2821227 0.14100616 0.569386 -0.16591807 0.047984745 -0.23923773 -0.86755633 -0.6075233 -0.75749445 0.28502107 0.75603884 -0.14252247 -0.6401595 0.91012746 0.15383488 -0.399461 -0.2928345 -0.43448162 0.55708784 -0.40123647 -0.48128933 -0.6259239 0.18585692 0.826944 0.42230317 -0.007625696 0.8853088 -0.8380244 0.78989875 -0.7470055 -0.53837854 -0.05244278 -0.29325786 0.63280106 -0.6351349 0.9614703 -0.72168344 0.33011088 -0.33761296 -0.13180931 -0.20050105 0.40401572 -0.09602139 0.4123141 0.6130935 0.8981512 -0.18111563 -0.682101 0.10544615 -0.79414725 0.19882719 0.5893396 0.22991155 0.6523039 0.09906611 -0.24855043 -0.27897185 -0.005544202 -0.20298533 0.15394056 0.020560812 -0.32402408 0.24334109 -0.09226903 -0.11442142 1.0815467 -0.9381447 0.2781457 0.45760143 0.1008598 -0.49344525 -0.44506025 -0.38438314 -0.44636843 0.12254568 0.4205018 0.9480338 0.42402822 0.031709123 0.36845234 -0.32069078 0.15595973 -0.05773679 1.096359 0.2709395 -1.1413153 0.5956565 0.42724395
services 0.49141395 0.15012677 0.16504933 -0.44096902 0.11354321 -1.3121874 0.9225187 0.5078695 -0.13287681 -0.20943058 0.024197696 -0.7425297 0.058915343 0.120954484 0.64250946 -1.8013476 -0.88069695 0.08724597 0.012802866 0.32778573 0.963603 -0.4549722 -0.007269749 0.13100325 0.17549197 0.25962335 1.3214824 0.70444506 -0.62228274 -0.18770266 1.1792231 0.2508824 -0.843622 -0.08809609 -1.6352723 -0.1424613 0.6461049 -0.018084317 0.3549058 -0.022507792 0.3477283 0.2752809 -0.56002706 -0.6268994 0.13854185 0.34143922 0.23277469 -0.347389 -0.6337426 1.2623571 1.159694 0.2253027 0.5353569 0.4237505 0.86983746 0.42925462 0.14329539 -0.84906113 -0.50780874 0.28108293 -1.1736406 -0.122148305 -0.2935563 -0.30610907 -0.38536745 -0.06630245 0.08425688 0.87152237 -0.983164 0.97478807 -0.0013469516 0.22987911 0.7769834 -0.44045225 0.085018754 1.2207036 -0.5550529 0.69155365 -0.43868184 0.7472635 -1.0805869 0.42000455 -0.0037532598 0.3919355 0.37916002 -0.22662964 -0.39642626 0.32841033 -0.9175126 -0.62905246 1.273859 1.1236169 0.39694858 -0.5251554 0.17483355 0.3937134 0.34866312 -0.1543255 0.7347224 -0.62974036
old -0.8357821 0.44800413 -0.083652414 0.3557015 -0.525417 -0.7190025 0.7155253 0.3076153 -0.86333144 0.6551938 0.4344214 0.43012363 -0.0901095 -0.028695142 0.06375578 0.69702417 0.85465497 -1.0226225 -0.37707233 -0.7179729 0.36543518 -0.92003703 -0.14205807 0.18164365 0.19750509 -0.024961794 -0.21292488 0.44920495 -0.18431403 -0.05265448 -0.5542448 -0.1888412 0.49401325 -0.32627562 -0.7528561 0.11750098 -0.20874278 0.116458625 -0.15651143 -0.6449766 -0.56512606 -0.33811393 0.25249395 -0.18248299 0.6669407 1.1332695 -0.6192829 0.31058612 -0.024553394 1.1424947 0.22418334 -0.14813727 -0.06676146 -0.37285897 0.288936 -0.36971232 -0.04374896 1.022921 -0.9238298 0.6774763 0.038642276 -0.10619993 -0.3159471 -0.12470848 -0.6237315 -0.13026662 -0.41149828 0.8423054 -0.3434331 0.54306644 0.9360224 0.44656175 0.524207 0.15126926 0.14806333 0.41633725 -0.43131948 0.61920935 0.7324806 0.37480992 0.042437233 0.06568926 -0.055560406 0.27751487 0.12210166 -0.9107879 0.4051724 0.59617645 0.06897561 -0.23615648 0.29403323 0.5312096 -1.0091871 0.29828602 0.7201775 1.1542392 -0.4362935 -1.3643218 -0.42536616 0.9673325
customer -0.5264752 -0.31867656 0.60679805 -0.04729127 -0.5032831 -0.035711147 0.66818464 0.6058197 -0.7140135 -0.39432162 0.28449175 -0.35059315 -1.1845803 0.07841101 0.3650591 -0.36519575 0.20151576 1.2576208 0.48222345 -0.32828638 -0.20293204 0.29785013 -0.48860964 0.4314769 0.94265676 -0.3064228 -0.22424923 -0.16451691 -0.88749546 0.70290947 0.48831594 -0.28790596 0.91715866 -0.2824505 -0.16084951 -0.518512 0.12007632 0.7208891 0.4984726 0.032328516 0.45544174 -0.09568583 0.13034725 0.10102652 -0.2227265 -0.37109438 -0.6858432 0.2960582 0.40951902 -0.8178754 0.36736965 0.1883929 0.11235697 -0.39499676 0.4598601 -0.21105215 -0.09391304 0.6155713 -0.17320532 -0.2933844 -0.6152877 0.5764963 -0.2716458 -0.60035414 -0.4734535 -0.2284756 -0.440802 -0.43811315 -0.2484124 0.4341901 -0.01439804 0.8019386 0.3009466 0.50613576 0.606408 -0.7551191 0.13022299 -0.13124317 -0.8046108 -0.94327384 -0.654002 0.5417791 -0.055276055 0.0042030863 0.14864945 0.06781232 -0.89497435 1.33752 0.22707714 0.3334656 1.1465797 0.545768 0.2171389 0.10321926 1.3466263 1.2109995 -0.1106982 -0.6631321 0.5553259 -0.8170103
waitress -0.46811402 -0.011454748 0.07172913 0.5051627 -0.31208593 0.07214956 0.768537 1.2308627 -0.78790975 -0.7492453 0.19968766 -0.9720609 -0.0016689263 0.9151185 0.31069577 0.0021692486 -0.36358124 0.18415225 -0.09690217 -0.68681514 -0.52922535 0.05425456 -0.8270206 0.084426545 -1.4776837 0.55748314 0.35135132 0.08263589 -0.35451666 0.41698053 0.58808696 -0.91380435 1.0134633 -0.68871385 0.028488709 0.056337953 -0.1994378 0.08864786 0.09412379 -1.1027492 -0.2658103 -0.011534695 -0.29320645 -0.19320089 -0.24825172 -0.12627839 -0.35726926 -0.10713516 0.49015504 -0.110759154 -0.63417345 0.22347188 -0.30767456 0.72436863 0.2943242 0.23063312 0.3915096 0.39879733 -0.4758604 0.8093397 -0.0968871 0.5802975 0.52386016 -0.22979428 -0.27814817 1.0525597 -0.71332824 0.67969465 0.50356656 -0.34976748 -0.124691814 -0.2277369 -0.70409995 0.2588237 0.20240285 -0.39489552 -0.16177018 0.32628503 0.17201303 -0.37346968 -0.42010316 -0.0454721 -0.18888634 0.9256719 0.5421557 -0.6597119 0.82266104 0.5685421 -0.012460782 0.0829763 0.23057106 -0.072597936 0.55692846 0.08652979 1.0936911 -0.0061789216 1.3339264 -0.56757325 0.22745377 -0.059032623
english -0.25111294 0.73960125 -0.24423496 -0.54726565 0.9299801 -0.5379053 0.36973295 0.59203404 0.18522905 0.05792932 0.7639704 -0.10391853 0.16635151 0.7553401 -0.08540664 0.33468562 1.1338236 -0.95375425 0.06337191 -1.4317385 -0.07518755 -0.7503047 0.13065828 0.6153676 0.28627703 -0.21592727 0.39464727 0.54883546 -0.57244486 -0.3349662 0.32093725 0.7092115 0.19743218 -1.3763151 -0.007287541 -0.5262182 -0.27400115 -1.0185403 -0.014433292 -0.34887198 0.00017494353 -0.52115345 -0.016283505 -0.36279282 0.26522306 -0.77491647 -0.03345735 0.10956149 -0.5458761 -0.45904392 0.1043581 0.2877917 -0.21240126 0.35498488 0.23860592 0.4668198 1.2754236 -0.072732605 -0.20352517 0.31380892 -0.25128254 -0.61404216 0.46042964 -0.13131875 -0.07173057 1.1144905 0.97533965 0.27520308 0.26015973 0.5763482 0.41737 0.25569466 0.19616036 -0.18295802 0.39875793 -0.015500278 -0.23588753 -0.56274194 -0.9237391 -0.65600896 -0.12764768 0.15381221 -1.0210627 0.8158489 -0.6671656 0.91931045 0.34288943 0.46451783 -0.5473356 0.082537115 -0.12873302 0.6612244 -0.62390155 0.41131976 0.3516558 1.2188165 -0.99019766 -0.7621399 0.1533108 0.22544909
junior -0.14041823 -0.5161407 0.43652675 0.34703448 -0.58648485 -1.4594302 -0.6448288 0.30194455 -0.4175438 -0.2364053 -0.052606083 -0.70353884 0.21130893 -0.48122212 0.10735309 0.09414391 -0.3033438 -0.48878145 0.24107549 -0.20286237 0.7385099 0.37919495 0.022720398 0.23095186 1.3615342 -0.49599397 -0.7377527 -0.105967 0.28924978 -0.08439238 0.39611453 -0.26945287 0.2184105 -0.25395277 -0.37317413 -0.20333314 0.6089216 -0.11498003 -0.6923226 -0.3173529 0.332361 0.03626317 -1.3346651 -0.6437642 -0.22584324 0.35982913 -1.0255464 1.015671 -0.11805268 -1.2235681 -0.13874029 0.45607892 -0.050792824 -0.27311808 0.64411676 0.0646231 0.21899453 -0.41934082 -0.03183507 0.38552618 -0.19959857 -0.018539263 -0.5861102 -0.10276009 0.2763985 0.67132014 -0.3349232 -0.5413699 0.24273013 0.44678953 -0.400969 0.37637308 0.30943316 0.86178416 1.1990675 0.89796907 0.48324138 0.39624035 0.5254338 -0.08744806 -0.66460145 -0.4955407 -0.5948155 0.017232096 -0.5872898 0.22843365 -0.41920662 -0.13074887 0.35584313 0.803433 0.44497305 0.28729638 0.4852424 0.37989414 0.30118918 -0.08282824 0.78723586 -0.31257302 0.39492106 0.7046689
hiring -0.37666556 0.38364208 -0.057317898 -0.025677184 0.7090041 -1.0744289 0.8230503 0.13822164 0.7544926 0.086940706 -0.13630879 -0.50091445 -0.6486116 -0.2588639 -0.12486313 0.37529397 -0.4354165 -0.6150958 -0.9154216 -0.523031 0.90020865 -0.1001135 0.4859578 -0.23663433 0.76936096 -0.46670663 -0.038808677 0.32235843 -0.16134325 0.36467454 1.0182147 -0.49224755 0.45934656 -0.371151 -0.395506 0.1448129 0.50652146 0.39521128 -0.65077746 -0.14831266 1.1899618 -0.44301978 -0.75904596 -0.42839494 -0.4364382 0.1805191 -0.12295936 -0.40841913 0.53964937 -0.12670533 -0.6316296 -0.6478951 -0.15167737 -0.1688664 -0.2189587 -0.37851658 2.0382621 0.24608138 0.0054097762 -0.39270616 -0.47824582 0.103006914 0.06373473 -0.27508897 -1.3350537 0.28458068 0.049543794 0.28656152 -0.80879563 0.27476853 -0.7086183 -1.0225532 -0.38543767 0.09766467 -0.004535132 0.3843732 0.35401854 -0.5672545 -0.12974586 -0.23925088 -0.18879095 -0.53146905 1.0926942 0.69381857 -0.45215204 -1.044092 0.09154293 1.0392728 -0.7237711 0.56790096 0.113317624 -0.7892007 0.23881 -0.015670067 0.20485643 -0.1312376 0.08947252 0.44835263 -0.37925565 0.5139817
technician -0.81317866 1.2416276 -0.7509419 0.14643632 -0.17017262 -0.51637787 0.27767712 1.3456415 0.9862779 0.15234703 -0.87372154 0.34888875 -0.035371743 0.13085636 0.5525796 -0.3295335 0.06284216 -0.87725043 0.39736864 0.41306135 0.8669038 0.48576495 -0.17681369 -0.8365545 -0.04716156 0.06448209 -0.43546662 0.42743382 -1.3091561 0.16211887 0.2985529 0.48632792 -0.2518112 0.5378356 0.03236644 1.5290937 0.0010416122 -0.5417009 -0.20887057 -1.48957 -0.03154251 -0.90978354 -0.20103861 -1.3434489 0.73755634 -1.0631227 -0.7236565 0.02350078 -0.5943827 0.10274091 -1.0617489 0.60748464 -0.8259611 0.14666858 0.99692464 0.76930344 -0.031688176 0.5708711 -0.7625473 -0.2827505 -0.8394691 -0.07127413 0.096280046 -0.95898074 -0.7120415 0.13034418 0.45814714 -0.60093856 0.2466325 0.033864502 -0.22311394 -0.5252496 0.19765837 0.36910877 1.0485255 0.9145203 -0.35191518 0.21849035 -0.43900082 0.0756762 -0.043184616 -0.9440473 -0.13956167 -0.7547341 0.8940322 0.67967325 -0.27040064 0.25956598 0.909507 -0.0835239 0.9080134 0.079352215 0.7094367 0.7218423 -0.95627207 0.42959872 0.76493925 0.33116534 -0.49001834 -0.57268685
new -0.20032139 0.50381786 1.2540125 -0.45000356 -0.50651026 0.21975629 -0.646144 1.1938177 0.17958389 -0.44978175 -0.10076864 0.6990576 -0.15992029 -0.5776333 -0.29506066 0.083631225 -0.71893686 -0.21363579 -0.3878719 -0.3774655 0.24256718 0.32861817 0.29717973 -0.08528326 -0.10337592 0.5091194 -0.7015677 0.59963924 -0.12712277 0.082430884 0.20816836 -0.08211635 -0.7623878 0.089354746 -0.13239191 0.27140346 0.13045552 0.53599024 0.78499675 -0.6682751 0.4053 0.2357853 -0.56182474 -0.013671681 -0.27842095 0.7562778 -0.28676155 0.10845369 0.41163397 -0.6012917 -0.70506406 0.5743577 0.26605564 -0.5483647 0.7520622 1.0378413 0.37162963 0.25214905 -0.10163375 0.4309624 -0.88456625 0.21697403 -0.18484613 0.1900134 -0.9970904 0.09850143 0.14850195 0.34920564 -0.97734797 -0.2811563 0.9339583 0.47306105 0.41375148 0.17959046 0.46039602 0.6194509 0.39852485 -0.26723364 0.16551983 -0.14197285 -0.15304254 -0.55027825 0.24946214 1.1595511 0.06466332 -0.86696887 0.57471067 0.09126828 1.0032301 -0.643944 -0.67134875 0.6470123 -0.23719846 -0.111576535 0.2657736 0.63746136 -0.28673944 0.051364735 0.06628094 0.061273247
working 0.1607324 0.23937908 0.17495103 0.34293622 -0.37630442 -0.5873172 0.34995082 0.7026089 -0.052276466 0.21207528 0.94208485 -0.35784274 0.048068665 0.8877821 0.49408957 0.32623774 0.22519034 -0.3138778 -0.65199506 -1.3331907 -0.6101153 -0.6345789 0.5561385 -0.39571643 0.026429692 0.6540605 0.16800424 -0.40510747 -0.015062038 -0.76365256 0.40456325 0.060363945 -0.17484604 -0.050854973 -0.2477434 0.029362421 -0.023341365 -0.38003117 0.34150136 -0.8307571 1.218856 -0.1631697 -0.68667096 0.030596737 -0.5292243 0.09804352 -0.5021973 0.24548139 -0.977481 0.24942821 -0.9894563 0.0035508885 -0.08428344 0.96177065 0.40456915 -0.13590601 0.1696273 0.34215674 -0.14668302 -0.26120797 0.42082545 -0.61230654 -0.5054003 -0.01002249 0.17997669 0.79022664 0.77568036 -0.39361173 -0.0762901 -0.20838572 0.040755313 0.090132415 0.24783023 -0.68900704 0.37231717 -0.41868642 -0.33954123 0.6721246 -0.3782533 0.7972543 0.4551289 -0.27172223 0.086370006 -0.5271954 0.13776754 -0.6993928 -0.5742441 0.7957342 0.53585577 0.09824262 0.6965848 -0.34630406 0.28011125 0.5733142 0.4427978 1.3677862 -0.3853159 -1.2266324 0.22292933 0.69717115
labour 0.6489122 0.7533405 0.3940197 -0.29586273 -0.22364287 -0.42625186 -0.04130719 -0.4031797 -0.57605785 -0.6833578 -0.25721243 0.06624423 0.29248744 0.5768768 0.098057106 -0.27929023 -0.025773697 -0.51293033 0.0139210345 -0.61941874 -0.58014464 0.41362917 0.34945455 -0.17057888 -0.5086632 -0.08747267 -0.36169213 0.0920622 -0.6573186 0.3839734 0.08068141 -0.61453074 0.037511468 -0.24745654 -0.30113813 -0.5606915 -0.016204039 0.022423627 0.28375104 -0.8655729 0.78041977 -0.03755915 -0.6461109 0.1950995 0.3540464 -0.7162001 0.8438487 -0.046417605 0.47270676 0.37607655 -0.2529205 0.6057835 -0.40544456 0.16017747 -0.20551544 -0.81327164 -0.25641847 0.907984 -0.3565202 0.258894 0.49514705 -0.5522382 0.46324548 1.3625213 0.053111687 -0.03457471 1.1099765 1.30651 -0.57784855 1.1877462 -0.58333 -0.36922222 0.90574384 -0.1708528 0.5517271 0.3046967 0.0127378125 1.1751294 0.2715594 -0.0872448 -0.45043787 1.4078289 -0.31698093 0.64102185 -0.1918098 -1.1137649 -0.20802315 -0.21262345 0.95289195 0.8915042 0.8218132 1.0040156 0.03249757 0.34425235 0.0836109 -0.36746332 -0.7834198 0.15200676 -1.1522614 -0.22023103
urgent 0.49398956 0.6898034 -0.06606262 -0.51177144 0.2957362 -0.47962397 0.8134941 0.28812242 0.13396795 0.5004336 -0.023738816 -0.47066283 -0.7389348 -0.0024036986 0.4482639 0.9009629 0.30684304 0.19222637 -0.6599028 -1.4814379 0.36995783 -0.6031801 0.23074922 -0.3347243 -0.9414575 0.14147855 0.17539173 -0.5725519 0.15991044 -0.065733135 0.5510731 0.27294844 0.8910894 0.5460543 -0.03938998 0.65866786 1.2578845 -0.30674702 -0.010846011 -0.40361285 0.5918207 -0.47550806 0.07673199 -0.8166884 0.29498187 0.014762832 -0.62606037 0.38425067 -0.055805646 -0.42478192 0.68543375 -0.2024588 0.43300024 -0.16119789 -0.051277462 -0.7254512 -1.1611636 -0.26418754 -0.19162421 0.9703093 -0.26221156 -0.46825922 -0.96007514 -0.72764534 -0.37853476 0.40628326 0.6988229 0.44911647 -1.2306845 -0.99054605 0.38724503 0.25395244 0.12792422 0.27700058 0.7479982 0.8498188 -0.19967352 0.16488636 0.91732377 0.27468702 0.7566346 0.43012834 -0.09610289 0.89359456 0.50754565 -0.21293227 0.41313723 0.05531966 0.19917388 0.43147197 0.025712984 0.4982387 0.54689294 -0.45177326 -0.093847364 0.27252448 -0.5748583 -0.0408739 0.6734548 1.4422138
business -0.5310061 0.9010784 0.8085503 -0.06892205 -0.26060158 -0.22779849 -0.59018457 0.48122537 -0.21013515 -0.4625483 -0.668201 -0.39773872 -0.14238913 0.38261917 -0.41076347 -0.077615246 -0.4059016 0.8945355 0.026525028 -0.38416648 0.4829604 -0.8470969 0.21819925 -0.21782067 0.42997265 -0.054645747 0.1919202 -0.07375086 -1.4823118 -0.6018584 -0.37936562 -0.25484633 -0.013315021 -0.67791176 -0.27897024 0.47728804 -0.1245113 -0.6513384 -0.6668468 -0.41881755 -0.5385145 -0.7813034 -0.32326072 -2.1059542 -0.24842918 -1.3810633 0.68901706 -0.15575783 0.3729305 -0.84939265 0.16386709 -0.3812362 0.28316033 -0.39635167 0.65889853 -0.06443398 0.39964446 -0.4544641 0.14590597 -0.45728913 -0.07703654 0.19739123 -0.22848813 -0.96821713 -0.11664538 0.2549634 -0.29225537 0.1484018 -1.9436475 0.84885865 0.6020978 -0.22980209 -0.385516 0.93208534 0.6727444 0.2049447 -0.21112213 1.6948552 -0.13024801 -0.05624298 0.55479056 -0.34007674 -0.5294015 0.38965157 -0.8234705 0.35564744 -0.4797105 0.75253 -0.65874916 1.2417874 -0.11680172 0.38302886 -9.024664e-05 -0.34916797 -0.30560362 0.2807671 0.74103034 -0.22359395 0.36225697 -0.035876095
team -0.8560654 0.3770581 -0.2100142 -0.23437941 -0.02794692 -1.0010211 0.46366513 0.29483926 -0.13639186 0.5470362 -0.08738371 -0.2811224 -0.25881648 0.27292582 0.0052989665 -0.4618 0.35241577 -0.1428949 0.3119176 -1.3640096 1.4595218 -0.15660994 -0.34280953 1.0911299 -0.1642731 1.0362184 -0.8240962 -0.49243146 -0.19431062 0.7253022 -0.6649834 -0.2848923 0.14165974 -0.1507769 0.54507554 0.11652348 0.6814538 0.13812515 -0.41434002 0.2584138 -0.23483443 1.0047078 0.32651225 0.20302378 -1.0697993 0.6982878 -0.50809026 -0.7521202 0.21062002 0.6939542 -0.03334689 0.011083696 0.21426971 -0.19992335 0.10688927 0.6731302 0.58385634 1.0005393 -0.21642774 0.15215746 0.10488722 -0.83872944 -0.27252886 -0.99948984 -0.6046638 0.33208403 -0.29680207 -0.15685393 -0.66046983 0.9366306 -1.5610516 0.41004938 0.9257485 0.52636456 0.013296288 -0.25224355 0.085014544 0.5181049 -0.69526124 1.1560949 -0.35359997 0.6647423 0.53149736 0.39008638 -0.6757641 0.014496405 0.21079664 0.27157 0.11478635 -0.38267377 0.02000079 0.5528563 0.5080698 -0.3043569 -0.2488047 0.30914488 0.5783664 0.04398955 0.10964883 -0.2935792
mr -0.26074502 0.26391196 -0.25143296 -0.18583603 -0.1132918 -0.1878093 1.0598918 1.1001556 -0.43441755 0.105724804 0.1054992 0.5456378 0.3072146 -0.52309483 0.2578807 -0.25220075 -0.30839488 0.16262849 -0.1845576 -0.4553722 0.2061966 -0.7058497 -0.407783 -0.193844 -0.040462166 0.10871452 0.23025955 -1.0827107 0.3148618 0.26985568 -0.58976257 -0.7362732 -1.2182946 -1.1985137 0.005230472 1.2795326 -0.7956903 0.50506395 0.73710376 -0.15276508 -0.5615753 -0.38751146 -0.26573592 0.21422255 1.7315245 0.4618857 -0.7141522 0.02171495 0.625714 -0.3366377 0.16333522 -0.44805467 0.09420237 0.24955198 -0.9102657 -0.062168755 0.705019 0.080492064 0.15032746 0.11138818 -1.1102762 -0.6493158 0.50311065 -0.13621062 -0.4647348 0.42745906 0.15590498 -0.013793509 -1.2650388 1.2431784 -0.6228944 0.4997171 0.4070729 -1.1042835 0.9933218 0.9913762 -0.2450245 0.81006205 0.17521651 0.45971468 0.090223655 0.09139683 -0.3924531 -0.25216317 0.15156493 -0.25793394 0.3912749 0.9977825 0.27869254 -0.6546303 0.25819832 0.48325792 -0.5379864 -0.5735528 0.7334521 -0.05410427 -0.26967245 0.22273701 -0.053662553 -1.1528693
home 0.26084238 0.030054672 0.9468229 -0.03436199 -0.3340388 0.015699925 0.88057953 0.78798014 -0.13219342 -0.36860597 -0.38228717 0.096357614 0.055885594 -0.5186364 -0.17381412 -0.35994935 0.2687754 -0.043958817 -0.56897056 -1.0987809 0.5949979 0.43746176 -0.16837837 0.36781764 0.5670885 0.19710417 -0.044647284 0.15373032 -0.8724156 -0.8108572 -0.9024628 0.71324444 0.63129187 -0.17617956 -0.09130186 0.6797058 -0.8710477 -0.71009946 0.57266426 -0.25468954 0.5575271 -0.54387754 0.32416433 -0.22809656 -0.62518007 -0.5013567 0.40980545 -0.20124325 0.8999661 -0.025073081 -0.24482597 -0.59541374 0.19472894 1.1280746 0.06666189 0.9827207 -0.28475204 1.6616853 -0.12718692 -0.20084263 0.35857332 -0.04434611 -0.3309864 -1.7075942 -0.73828787 0.5932928 -0.98034996 1.189533 -0.074739255 1.2461776 0.623305 0.18222675 -0.1664299 0.10608138 0.21252616 0.4817147 -0.2544602 0.108032264 0.1934883 -0.42206734 -1.1387181 0.06477134 -0.3598162 0.18490593 -0.61480147 -0.90931815 -0.049768597 -0.25728008 0.4001851 -0.39025593 0.7000974 0.6608704 0.19594286 -0.43365285 -0.067618 0.08299885 -0.21179672 -0.54478616 -0.050962515 -0.19453315
electrician 0.65928876 -0.0042532827 -0.31498164 0.62902635 0.104648285 -1.2263032 0.98020506 0.6802885 -0.50659114 0.66709125 -0.27093396 -1.0220324 0.43785083 0.51833856 1.0774304 -0.32671836 -0.6019569 -0.6729961 0.42030853 -0.69126046 0.061235905 -0.092516646 -0.30504566 -0.61798865 0.12597139 0.3696962 0.05827674 -0.16165267 -1.00888 -0.18966793 0.46562722 0.3286323 -0.39826342 0.18915056 -0.3548951 0.9829618 -1.2340462 -0.11915367 -0.08978609 -1.3024316 -0.4867707 -0.8494318 0.7005834 -0.5990358 1.6429181 -0.28260928 -1.7582384 0.25932756 0.32901406 0.59574777 0.20649932 0.8650917 -1.8017389 0.05069537 0.0396291 -0.3558475 -0.1980992 -0.25353226 -0.931964 0.37203822 0.2968025 -1.4842635 -0.23675494 -1.2985958 -0.18576643 -0.32767665 0.016755054 0.13218373 -0.5972198 0.62438244 0.16026871 -0.083307415 0.11866847 -0.5405039 0.3357085 -0.38820016 0.26513162 0.23311684 -0.8444779 -0.052703854 -0.73063666 0.12746534 0.9591861 0.63610923 0.97361696 0.06216565 -0.13637187 0.61133057 0.8822211 -0.49680293 -0.5453358 -0.6768966 -0.60984826 -0.24156454 -0.63729167 0.49044126 -0.25860253 0.046690054 -0.5895548 -0.3705972
melbourne 0.44281983 0.59752905 0.77243435 -0.35477862 0.6227873 0.23746343 0.20505336 0.45083696 -1.2232686 0.42433158 -0.18038099 0.117296495 -0.35049382 -0.8101465 -1.2276385 0.24767572 -0.18477538 -0.47509882 0.47304282 -0.8476681 1.1406151 -0.21165362 0.30797195 -0.827136 -0.93788993 0.32302397 0.18255042 0.53319675 0.030219838 -0.37480527 0.5500921 -0.19950505 0.93975174 0.07074014 0.057451688 0.8097535 -0.9406361 0.052323762 -0.05898951 0.050795913 0.46735892 0.43372893 -0.34812266 0.04477822 0.24627136 0.2634981 0.118562244 0.07282139 -0.591427 0.41291362 0.39230752 0.28320217 -0.069758944 0.32383493 1.0810434 -0.54571843 0.002441588 -0.09385711 0.291308 0.13547477 0.3291561 -0.09514574 -0.34989628 -0.20610091 0.2759112 0.7001666 0.8232932 -0.25817567 0.5442258 0.2613741 -0.6925463 0.8938178 -0.373591 -0.07560536 -0.27927262 0.4310392 0.7039033 0.36259112 -0.69901276 1.1516724 0.003568701 -0.12005539 -0.4631693 0.2763493 0.18862577 -0.06270517 0.81119084 0.50515515 1.0998046 -0.52921 0.09043787 0.75185055 0.22308005 0.60156983 0.13451236 0.7469041 0.10330392 -0.37480497 0.976229 0.4200195
teacher 0.4673995 0.06371301 -0.122192405 -0.3437136 -0.89048105 -1.5943781 0.15608442 -0.13773285 0.040385425 1.043455 1.1100804 -1.2270805 0.30378166 -0.44169888 -0.10614496 -0.03562715 -0.92293024 0.29434317 -0.29477823 -0.8645868 0.32082647 -0.4388282 -0.6072165 -0.43453068 -0.4244669 -0.24244364 0.86370057 0.40120798 -1.28097 0.11624624 0.20198704 0.20597239 -1.1130937 0.3175019 -0.60763574 -0.19603272 0.13800533 -1.4375198 -0.15987125 -0.23604488 0.5300391 -0.9963 -0.7071538 0.19088693 0.7961313 -0.3745468 0.6821606 0.20500948 0.80054873 -0.12699899 -0.43730813 -0.9064985 -0.10031705 0.39703113 0.1285505 0.6472054 1.6216458 -0.23404163 -0.5071168 -0.09368654 0.065254845 1.0476696 -0.37922364 0.052633185 -0.23063074 0.57470524 -0.108080946 -0.32563654 0.30442062 -0.26638755 0.375744 -0.5221911 1.5542563 -0.21881263 -0.140114 -0.9844115 -0.48839858 -0.80593526 -0.51127625 0.098713905 -0.4837935 -0.47146776 -1.1947019 0.41886237 0.30609718 0.827693 0.4456151 -0.18028206 1.4611707 0.457186 -0.1719413 0.79891336 0.06622792 -0.015563996 1.5124142 -0.08702441 -0.14839134 -1.2889138 0.64547336 -0.5927976
couple -0.17846803 -0.16406164 0.33801758 -0.036456656 0.52188486 -0.47671646 -0.24913482 0.64510304 -0.80214584 0.35708162 1.3557625 0.019993188 -0.44005275 0.90064573 0.14013761 -0.6552937 0.92086786 -0.71615154 -0.57504046 -0.5388162 -0.087143466 -0.67009026 -0.27789807 -0.74946135 0.4136942 1.4702284 0.09548221 0.2476994 -1.0992156 0.57412565 0.25668585 -0.18106812 0.8352185 0.03561262 -0.3552028 0.49138093 0.22517124 -0.23241003 0.6865259 -0.92248875 -0.013374595 -1.0490835 0.08554522 1.0902245 0.27478185 0.03059321 -0.0025059767 0.20189413 -0.29240546 0.7178979 0.33829156 0.17199281 -0.1055997 0.016983211 0.16189885 0.31332433 0.22654934 0.38357082 0.20724924 0.10261827 1.4614204 -0.086848915 -0.017706394 -0.43616602 -0.9224736 0.036803298 -0.17947458 0.0014708713 -1.2467806 0.04438404 -0.1901008 0.103405856 1.5018529 -0.11058976 -0.05819638 0.45516846 -0.67231363 -0.30649793 -0.42300782 -0.1198052 -0.13781959 -0.44648233 0.32301793 -0.047856245 0.03144062 0.4200693 -0.5415629 -0.0004844906 0.7785786 0.90852755 -0.557861 0.086884364 -0.23416436 -0.24312907 1.3140335 -0.038887247 -0.25129077 -0.10381168 -0.50938404 -0.41280735
