2481 100
looking -0.15598145 0.24433544 -0.034057356 0.017327085 -0.12089921 -0.12454325 0.24201435 0.19229856 -0.16956675 -0.2418726 0.5926607 -0.21747759 -0.43890586 0.32375953 -0.17378016 0.026359804 -0.063546434 0.018074768 -0.19848105 -0.33371255 0.22245096 -0.06493089 0.49162355 -0.12586473 0.11534013 -0.01484999 -0.023291243 0.25135562 -0.18316492 -0.25910404 0.027848696 -0.18686804 0.07539333 -0.056537185 0.16810608 -0.10124091 0.25457335 -0.08808106 -0.080435544 -0.16936065 0.04589018 -0.26213405 -0.46002114 -0.19205031 -0.02241042 -0.24050267 -0.47492352 0.39653096 0.027454775 0.48656887 -0.009616686 -0.113334365 -0.12535244 0.27487373 0.4648861 -0.22159165 0.36102825 -0.14785819 -0.26026013 0.17830358 -0.22679965 -0.40553004 0.14758755 0.16218455 -0.16965991 0.08290374 0.11545591 -0.017533906 0.1496533 0.29456207 0.06264721 0.23456843 -0.14751086 -0.25234342 -0.03750981 0.10895605 -0.10275808 -0.000108371096 -0.13455473 -0.1481177 -0.16674009 -0.06672069 -0.016415402 0.12368278 -0.19637795 -0.38427237 0.13484943 0.025041351 0.43221083 0.26059574 0.1015183 -0.07881008 0.07457414 -0.1191096 0.31904605 0.34040388 -0.21225327 -0.18913807 0.019690417 0.18581349
wanted -0.19318779 0.27784663 0.09030036 0.20099068 -0.23930356 -0.08109891 0.3595757 0.089620024 -0.10248217 -0.29275188 0.38828918 -0.19848911 -0.5214718 0.399511 -0.2833863 0.11666348 -0.12214492 -0.00083711336 -0.16251501 -0.105442256 0.40970308 0.13141233 0.42173204 -0.44578797 0.053609118 0.09722993 -0.24959286 -0.10691586 -0.16482306 -0.2227202 0.19693053 0.034369785 -0.22395119 -0.0711159 0.32449183 -0.0514191 0.08104944 -0.19348145 -0.024673132 -0.13745247 0.2669495 -0.35453293 -0.31329918 -0.06567241 -0.07890322 -0.32277927 -0.1845308 -0.05856444 0.167777 0.3103349 0.14257124 -0.43013248 0.27357858 0.40378776 -0.023681678 -0.33798683 0.30671892 -0.419348 -0.22187847 0.2513918 -0.15030153 -0.36507463 0.041604668 -0.032312866 -0.2533719 0.029289706 0.091361515 -0.17928523 0.011885637 0.18924811 -0.1117526 0.2122447 0.05156068 -0.2335741 0.0308287 0.09977949 0.2553878 0.196528 0.0358474 -0.03660776 -0.38881487 -0.25702623 0.22387785 0.175658 0.2907059 -0.04674103 0.42182243 -0.09314826 0.04919101 0.030975418 0.1363207 -0.13272542 0.06889099 0.0059189773 0.13415696 0.008401196 0.11691384 0.2471237 -0.12412075 0.35647616
work -0.20432086 0.4749833 -0.03690463 -0.010187293 0.027817486 -0.31591883 0.032303344 0.17280513 -0.23278257 -0.16830364 0.0770555 0.017765969 -0.34045646 0.30706227 0.2710505 -0.18801276 0.35431045 -0.12736657 -0.34156942 -0.30310577 0.118389525 -0.013190936 0.15204607 -0.061270762 -0.0973621 -0.22599886 0.16157153 0.18875045 -0.02089491 -0.5357372 0.22761633 -0.1866014 -0.23132709 -0.53189945 0.074482314 -0.100751035 0.33177564 0.18770488 -0.13998835 -0.056898132 0.31578514 0.031443898 -0.06952626 0.120915465 0.36970994 0.08824429 -0.18831614 -0.13090856 -0.22232555 0.3961651 0.16147171 0.048097856 -0.37245712 -0.18648316 0.18146318 -0.33257678 0.2795799 -0.15711933 -0.34208313 -0.16726606 0.11170808 -0.21794839 0.08753227 0.136836 -0.120643415 0.09249512 0.23892899 0.27890003 -0.18912214 0.20892894 0.27340922 -0.097521335 0.19234349 -0.16469915 -0.3094475 0.38681576 0.36062172 0.47219536 -0.33633053 0.06283661 0.101879634 -0.13386357 0.037062153 0.19918765 -0.44656548 -0.24834703 0.020057555 0.052705478 0.51871157 0.13134338 -0.099201374 0.27942324 0.12611178 -0.011877514 0.3293677 0.19461437 0.06653705 -0.38676244 0.14119975 -0.2384707
job -0.41614923 0.35704744 -0.02224497 0.019605825 -0.0700645 -0.2749188 0.055340916 0.27419823 -0.021558678 -0.24206497 0.14654203 0.055475447 -0.30524856 -0.08038293 0.15059069 -0.40671888 0.40882856 -0.18017955 -0.22695649 -0.32517546 -0.18282354 -0.14251652 0.47339684 -0.06995531 -0.3269778 -0.28661257 0.44558161 0.6500548 -0.18090516 -0.21038494 0.1905913 -0.45033604 -0.0018385568 -0.19583641 0.16340056 -0.0027834384 0.52797776 0.24510543 -0.22953008 0.040289033 0.2999721 -0.017005663 -0.33112162 -0.16817866 0.06644276 0.19339934 -0.23912793 -0.12666614 -0.29338145 0.5542807 0.12669304 -0.10070765 -0.2355773 0.076281935 0.2635445 0.14366357 0.1327688 0.03918345 -0.17059298 -0.25546262 -0.20015526 -0.017140323 0.13171422 0.04911866 -0.22241524 0.0017300481 0.040109128 0.17268111 -0.1148149 0.09323525 0.10906081 -0.24286623 0.14505777 0.1695011 0.0105796615 0.43996313 0.069166206 0.33167017 -0.26544672 -0.33211082 -0.05450628 -0.10956487 0.10546544 0.32883957 -0.3124021 -0.33264542 0.12555428 0.3877286 0.44077468 0.1421974 -0.15876709 0.262319 0.3251235 0.0868817 0.48459193 0.214572 0.065531805 -0.7016516 0.3424835 -0.27232903
required -0.08633875 0.2322729 0.24239972 0.18121442 -0.26122156 0.21035975 0.53074574 0.17829277 0.1097065 -0.281945 0.09618923 -0.23711888 -0.37087595 0.11450384 -0.36936712 0.09189405 0.2240332 0.0037302526 -0.19094664 -0.4008032 0.38388023 0.12450647 0.25252655 -0.32605192 -0.045942858 0.15410082 -0.23848931 -0.14667785 -0.29135582 -0.36993283 0.26271176 0.050426744 -0.21184431 -0.12666143 0.19646518 -0.12407474 -0.04168576 -0.12935989 -0.09301329 -0.25821102 0.33069348 -0.47286564 -0.04168835 0.0017111942 -0.011865929 -0.16120958 -0.24806522 -0.3038271 0.11104685 0.31560528 0.31251544 -0.5945984 0.50541836 0.30360106 0.07067432 -0.5171156 0.18109763 -0.44982618 -0.10582507 0.21080557 -0.18420713 -0.5332561 0.08062101 -0.08669496 -0.31745997 -0.08470807 0.124275945 -0.0509881 -0.17327678 0.20280321 -0.33836222 0.15387617 0.06436495 -0.22178322 0.0435594 0.032460604 0.17213184 0.09350316 0.005867338 -0.19337243 -0.29499844 -0.32639477 0.19084291 0.085056946 0.30842426 -0.25770232 0.24085385 0.042392258 0.070985205 0.0072084977 0.11283134 0.024222096 0.2535516 -0.10796435 0.14144692 0.047649346 0.26173824 0.35305604 -0.17845386 0.3427796
driver -0.0960883 0.67778015 -0.028282175 -0.1292449 -0.25935766 -0.2138297 0.35128134 0.09217783 -0.59930265 -0.32877138 -0.5133082 -0.37038174 0.08062717 -0.62711823 0.02750128 -0.43929276 0.36500454 -0.5004598 -0.43132836 -0.70878226 0.01044951 0.045220044 0.16123967 0.38398853 -0.5890371 -0.4780775 -0.18682475 -0.7222872 0.35911208 -0.15550685 -0.3913489 -0.7273681 -0.34465623 0.0031519006 0.1102565 0.98313165 0.13649704 -0.010612105 -0.061484344 -0.10860361 0.17324191 0.17742905 -0.14428163 0.067172885 0.08848654 -0.077198744 -0.35544235 0.3236709 0.14564867 -0.22764626 -0.11143029 -0.41773695 0.59080476 0.4634586 -0.17935352 0.0001892449 0.38283005 -0.79141295 -0.67964584 -0.36937186 0.17865449 -0.30036476 0.5450676 -0.32961187 0.12393398 -0.2975046 -0.4461946 0.10082885 -0.045986686 -0.255583 0.14823031 -0.24897212 0.15978721 0.3667261 0.16016458 0.110852145 -0.03825316 -0.112062275 -0.23232122 0.15515375 -0.3144358 -0.35359287 0.4753621 -0.21826851 0.16979773 -0.5702291 -0.31837747 0.5854796 0.3282689 0.34305426 0.46721524 0.823158 -0.5372655 -0.18203631 0.5905109 0.4235023 -0.23504445 -0.08466563 -0.0033100229 -0.48833138
needed 0.10201559 0.13522159 0.30173492 0.51357126 -0.39437312 0.029270444 0.43319386 0.3596194 -0.1154761 -0.24866469 0.46660292 -0.096800536 -0.57040066 0.11624558 -0.52958035 -0.15236509 -0.1148004 0.086996846 0.022465264 -0.41672888 0.3116919 0.19594023 0.51318675 -0.44109827 -0.2490556 0.08046559 -0.2612325 -0.30031356 -0.14825363 -0.5396284 0.16982348 0.04633799 -0.37274364 -0.055462457 0.15659899 -0.1308789 0.15604417 -0.1631014 -0.047406707 -0.4859589 0.3378026 -0.4043157 -0.19245781 -0.20653951 0.029424 -0.21792607 -0.3151499 -0.19000232 0.06174534 0.17082945 0.2235015 -0.57391846 0.3409659 0.5132478 -0.05331738 -0.37846696 0.40688768 -0.31865907 -0.16984832 0.100659475 -0.2976485 -0.16836405 0.38116264 0.112442195 -0.32100645 -0.032861225 -0.13434274 -0.14168179 0.06008316 0.030017182 -0.21488269 0.081406586 -0.048347168 -0.34008235 0.038551807 0.0066847317 0.1101754 0.15031481 -0.0144174015 -0.35138175 -0.37245455 -0.23544215 0.0901071 0.18407606 0.115309685 -0.34398142 0.1929581 -0.18133377 -0.33106 -0.35079917 0.4094301 -0.06621696 0.17662318 0.011630869 0.31286925 0.27866733 0.46235454 0.2599985 -0.40920866 0.65261364
experienced -0.15190245 -0.07973573 0.096917704 0.1865688 -0.35325024 -0.05653809 0.45134926 0.2504585 -0.1669178 -0.37714842 0.14619097 -0.3453651 -0.37209606 -0.03169861 -0.24110916 0.096746705 0.44462267 0.13266481 -0.080553085 -0.63194174 0.31780893 0.037450124 0.2532923 -0.25039843 -0.22664547 0.11342804 -0.028179526 0.10697715 -0.3649333 0.37365386 0.044293404 -0.16053648 -0.18212806 -0.3388878 -0.3331732 -0.25670487 0.05961686 -0.04772486 -0.4644035 -0.27433994 0.30534485 -0.23897332 0.115359165 0.21232802 0.17400159 0.0064665657 -0.28689656 0.3454107 0.24821068 -0.12536046 -0.029063178 -0.40108207 -0.009326954 -0.1855726 0.46689707 0.07390635 -0.085883036 -0.17620137 -0.08544835 0.16075912 0.14877364 -0.206315 0.07844026 0.32891658 -0.10994217 0.118563406 -0.15597396 -0.21557698 0.09430569 0.018182285 -0.23223639 -0.25838673 0.0982385 0.18215364 -0.05458249 -0.068135485 0.27943096 0.103521496 0.1949561 0.046732403 -0.025719428 -0.12255757 -0.053740274 0.20079249 0.23114051 -0.0068893656 0.22582075 0.042233847 0.39042464 0.6441708 -0.11085858 -0.05786166 0.33016026 0.16781375 0.081607185 0.043024305 0.34507397 -0.14598934 0.073462635 -0.043358065
chef -0.86553735 0.42019635 0.20708816 0.33951184 0.34633824 0.24353153 0.2021749 0.34290552 -0.23938894 -0.20586793 -0.0563199 -0.98221827 0.77141917 0.42533052 0.48168582 0.40389672 0.081665926 0.02036555 -0.262637 -0.5887687 0.116262 1.18077 0.34913126 0.09013685 -0.14108737 -0.25738358 -0.014871513 -0.5499324 -0.25007123 -0.6189312 0.22806868 -0.34913862 0.49027246 -0.022267992 -0.47375202 0.35303673 -0.1108962 0.329379 0.082430646 -0.28845888 -0.22159585 0.43294778 0.12944396 0.4556703 0.24074379 -0.20170075 0.07354268 0.33510444 0.13643485 0.17551702 -0.09830625 -0.3438694 -0.03701481 0.1912627 0.10722955 -0.027055169 0.4541123 0.23235394 -0.17377426 0.37141418 -0.40490916 -0.12909195 0.5021966 -0.27902055 -0.88486594 0.07917395 -0.23289852 0.40478346 -0.71590716 0.25759175 -0.50831246 0.07544169 0.09020751 0.23274523 0.37446794 -0.07875092 -0.10661104 0.020486748 -0.30997455 -0.28551763 -0.40459448 -0.6604606 0.1519458 0.051287904 0.074306 0.53664094 0.14982767 -0.13011123 0.2861341 0.14191651 -0.26796836 0.5213787 -0.06471829 0.07304008 0.35387143 0.20742966 -0.07624186 -0.31656584 -0.14272445 -0.12577803
time -0.2013278 -0.17325847 -0.3922058 0.14988506 -0.42906833 -0.39951584 -0.14368926 0.4761341 -0.26273432 -0.15085176 -0.032832906 -0.25178728 -0.4077568 0.18039154 0.061678708 0.25462815 0.032566093 -0.02916597 -0.13516603 -0.47829846 0.19324322 0.1719838 0.08824146 0.3181295 -0.016034432 -0.4785406 0.106254555 0.29947296 -0.26701432 -0.11897106 -0.26628497 -0.15035869 0.31834456 0.21247232 -0.5351092 -0.0076712347 0.06829332 0.037871614 -0.21173376 -0.61290985 0.26168633 -0.11907248 0.03905598 0.0867856 0.32389602 -0.4312013 -0.29408902 0.34475473 0.06151517 0.6090874 0.18812147 -0.36708066 0.67044103 -0.071624376 0.34566242 -0.5470642 -0.20500994 0.014073839 -0.17393495 -0.20331408 -0.40619674 0.1792329 0.17358807 -0.3673313 -0.20224302 0.18700492 -0.041885838 -0.48154375 -0.11819536 -0.17684343 0.08264389 0.31489456 -0.06664376 0.0011578097 0.72779834 0.43768805 0.29067147 0.23489971 0.20043539 0.14518887 -0.7932938 0.024533642 -0.1264001 0.054977678 0.14408153 0.062446963 0.39470133 0.39368895 0.4359714 0.26220074 -0.24512856 0.1744661 0.12754072 0.019689245 0.7738947 -0.5866576 0.16741085 -0.15640369 0.457915 0.13560557
casual -0.19903879 0.004008943 -0.26442167 0.14490667 -0.2652811 0.16543883 0.063713275 0.5201662 -0.38382316 -0.4342704 0.1454012 -0.28255287 -0.23440139 0.27526915 -0.008853998 -0.10068027 0.36550015 0.18492797 -0.18063721 -0.09783027 -0.17138602 -0.002790548 -0.08575438 -0.074958086 -0.16257991 -0.2891437 -0.3906872 0.11490772 -0.05651483 0.08956263 0.039226156 0.066397764 -0.3486373 0.040264267 -0.047851086 0.06405447 -0.046677172 0.30911958 -0.11938163 -0.21794 0.023843909 -0.08215278 -0.16637431 0.10362246 -0.10841921 -0.7777779 -0.031743098 -0.08583153 0.17532657 0.06786318 0.09896619 -0.54639435 -0.26458707 0.14422052 -0.18589431 -0.040255398 -0.49834365 -0.5639467 0.022707721 0.31407565 -0.2223893 -0.3425597 -0.060820386 0.11522783 -0.26991713 0.4747765 0.021206398 -0.23880471 0.10589448 -0.0962034 0.24276687 0.30000398 0.07176178 -0.07384352 0.2522054 0.43215802 0.19404589 -0.43309245 0.032546725 0.15072224 -0.13964927 -0.20078258 0.018305637 0.30997738 -0.25459987 -0.16526765 0.11001878 0.15559182 0.7503343 0.26637405 0.2307499 0.55432695 0.42757297 0.28639722 0.19496012 0.07934543 0.14245662 -0.26275337 -0.21128882 0.07787112
labourer 0.53770393 1.0005344 0.02560817 0.23635687 0.32372004 -0.42135596 0.26857194 0.15819201 0.30968407 -0.1447656 0.12440162 0.10161684 -0.7092747 -0.001418509 0.1387877 -0.1140807 -0.2575875 -0.6390061 -0.319846 -0.43870345 0.21860126 0.48904023 0.33769533 -0.50517416 -0.7656857 -0.5676209 -0.43807027 -0.13803378 0.38441184 0.26412207 -0.12264011 -0.15588191 0.26488122 -0.03328529 -0.67019904 -0.10665647 0.4646625 0.2148516 -0.15929773 -0.44278184 -0.33960152 0.13313301 -0.27173972 0.056582086 0.5862882 0.25558025 -0.43666446 -0.4333736 0.06466657 -0.025088547 -0.029644063 -0.22212996 0.2224072 0.6089175 -0.15036774 -0.42374253 0.11462003 0.5075716 -0.13186553 1.0648122 -0.30398098 -0.58288985 -0.3322217 -0.15125701 0.62199944 0.18471512 0.6905574 0.2017462 -0.48206347 0.30087343 -0.3185865 -0.728271 0.7595325 0.09142313 -0.17738995 0.18511593 -0.15676345 0.06803021 -0.20357747 -0.16359155 -0.10462162 0.502551 -0.85375327 0.3183131 0.25383663 -0.31769806 -0.26869506 -0.035147093 0.71762747 0.4801506 0.580209 0.04583011 -0.37152585 0.42348164 -0.02947683 -0.38928995 -0.22975323 -0.67600167 -0.21501844 -0.14685662
available 0.31953734 0.21214682 -0.1972383 -0.18047462 -0.37580392 0.09773637 0.37648046 0.37603188 0.09369421 -0.22324291 0.38671437 -0.2820368 -1.0678222 0.025978394 -0.13545781 -0.09165159 0.24213096 -0.055997152 0.446657 -0.5685411 -0.5379473 0.26060736 0.24293928 -0.08717077 0.17399299 0.15281388 -0.41893688 0.57135445 -0.15785944 0.2412175 0.02796483 -0.38482955 -0.42623132 -0.0008318026 -0.1884253 -0.048029304 -0.054733187 -0.3466161 0.018721424 -0.20521992 0.3424967 0.016045574 -0.29542518 -0.3327933 -0.069484144 -0.22087704 -0.012207142 0.036666468 -0.10482704 0.23739609 0.24637815 -0.5689819 -0.24904288 0.72861576 0.5750995 -0.53517765 0.3846481 -0.21863464 0.061802212 0.44584507 -0.5261902 -0.38610578 0.5321957 -0.1693627 -0.2532529 -0.53675115 0.18968308 0.010281561 -0.41460836 0.30302072 -0.44752577 0.51223296 0.07554721 0.14228338 -0.3011659 0.13583794 0.10202611 -0.28002003 -0.48425004 0.020735485 -0.1572763 -0.20752293 -0.16580321 -0.082407795 0.0031738502 -0.28492916 0.5356697 -0.33396885 0.24419375 0.6390086 -0.0012274596 0.34380814 -0.16413379 -0.05206086 0.18700022 0.28531215 -0.03421907 0.1253621 0.24693498 0.016647732
staff -0.8016852 0.7530869 -0.48168805 0.42671344 -0.097688936 -0.33564523 -0.06135678 -0.028438514 -0.24184163 -0.3373337 0.05962558 -0.75372636 -0.14603636 -0.27797616 0.4212778 -0.10469838 0.14491901 0.3904136 -0.26469335 -0.5376998 0.18417312 0.13210703 0.2237111 0.10586921 0.120023295 0.56579465 -0.14536631 -0.48405302 -0.016822444 -0.2694358 0.57986236 0.30718216 0.7277533 -0.36847267 0.039705165 0.33438823 -0.40419275 0.6448186 -0.36875883 -0.1592749 0.337581 -0.076810785 0.35881317 0.44326857 -0.36270502 -0.58211666 -0.42677477 -0.41711172 0.56703043 -0.111109 0.06673903 -0.3377885 0.1871545 0.2743006 0.1721865 0.13126233 0.5234543 -0.11911899 -0.022145927 0.28730848 -0.1486034 0.46853456 0.26131713 0.47083256 -0.08120497 -0.22848429 0.30872646 -0.021617692 -0.22320627 0.43824857 0.34658247 0.10827941 0.27770415 -0.05747894 0.66871685 0.3838186 -0.45710772 0.45384377 -0.34612063 -0.32212284 -0.35372868 -0.16565172 0.12028884 0.2158592 -0.27214938 0.3107777 0.109964386 0.56457525 0.10283156 -0.26889363 0.010621319 0.83823115 -0.069721535 -0.07634216 0.25984073 -0.10741358 0.70006496 -0.55366415 0.2955058 -0.09089177
start 0.31222382 0.26586443 0.13165437 0.2748034 -0.3158465 -0.20642072 0.12423464 0.42968792 0.06621167 -0.23658986 0.23239218 0.023811417 -0.26967773 0.20142618 -0.43211472 -0.25691223 0.5452539 -0.20148388 0.24460354 -0.41678724 0.435746 0.44114912 0.022330081 -0.50597185 -0.03883501 0.12277492 -0.08002276 -0.12800705 -0.027039183 -0.012579184 0.04004668 0.05060649 -0.2054116 -0.8766903 -0.55284107 -0.35799098 0.63451743 0.020991234 0.054674137 0.0029091593 0.8474476 0.06363216 -0.070091166 -0.013657296 0.31556943 -0.3624149 0.04691715 -0.2285556 -0.0051109176 0.027679896 0.37624744 0.05417271 0.6910994 -0.3449595 -0.09103946 -0.3586159 0.1694346 -0.19602518 -0.4381595 0.41091383 -0.053810738 -0.1525336 -0.034131497 0.062022105 0.6354102 0.59644693 -0.28706485 -0.29802632 -0.4690252 0.06901699 0.007909593 -0.07642038 0.24922948 0.30838755 0.54697543 -0.1791262 0.052039824 -0.39911634 -0.2847602 0.08894531 -0.4116351 0.039208345 0.42472836 0.1431613 -0.36335555 -0.0245708 0.19017968 0.5541655 0.55724424 -0.33060914 -0.05041594 0.5458916 0.26063135 0.24853544 0.19565926 0.23242936 -0.44990087 0.17329834 0.074554935 0.124737516
hand -0.49126345 0.10748901 -0.23277284 0.27031085 0.006221196 -0.5799874 -0.021604594 0.33455226 -0.6554853 0.31904852 -0.2882554 -0.49915126 -0.15060021 0.155714 0.037853483 -0.42680946 -0.28135297 0.13727231 0.42298603 0.18959402 0.20514476 -0.049922083 0.0998776 -0.2693835 -0.32740438 0.3517689 -0.6615146 0.27822083 -0.39665818 -0.57193995 -0.20509498 -0.43079692 0.53265744 -0.11281261 -0.307027 0.4186315 0.02356036 0.08971769 0.024161793 -0.05428185 0.18028766 -0.09603558 0.021910515 0.12332903 0.36857283 0.11078958 -0.9010721 -0.34505463 0.4161278 -0.0076935114 -0.014181827 -0.48432752 0.58494943 0.15451656 0.08874794 0.2752144 0.10108561 -0.14284693 0.5554228 0.6389296 -0.18441765 -0.2555401 0.49605158 0.47489977 0.46965352 0.19912998 -0.06628949 0.56183285 -0.37450236 0.518151 -0.32173815 -0.46102762 0.6830514 -0.22251576 0.71732134 0.5736635 -0.23780791 -0.08642634 -0.011851795 -0.079853505 -0.33016643 -0.08093595 -0.36241978 0.44787836 -0.40023914 -0.094375566 -0.21478014 0.04365804 1.0704858 0.26252007 0.13696517 0.19542392 -0.1364008 -0.24686745 0.102694504 0.4673453 0.20284964 0.29039007 0.5618577 0.1343053
cook -0.49531117 -0.16598779 -0.372477 0.54645586 0.43461534 -0.05009352 0.09132398 0.905768 0.1827237 -0.16621885 -0.2734789 -0.73765606 0.22548504 0.3527502 0.041217554 -0.08087644 0.17119008 0.31293422 0.09066307 -0.948386 0.15675642 0.9939211 0.056648426 -0.038775228 -0.41268322 0.028265156 -0.17205271 -0.75657725 -0.62341094 -0.66127264 0.33843145 -0.68983585 0.6457472 -0.0948632 -0.6938415 0.6297506 -0.015394425 0.43947354 0.23641664 -0.44859514 0.14901179 -0.015052742 -0.2837982 0.56457126 1.3571789e-05 -0.087735735 0.2141972 -0.081037566 0.3453581 0.38449565 0.08707974 -0.14363503 0.13617681 -0.13458428 -0.30367157 0.09820176 0.28139406 0.18373805 -0.27117214 -0.011290599 -0.048622917 -0.30041566 0.9273242 0.1497033 -0.8245358 -0.3126023 -0.30169272 0.7799395 -0.4084727 0.099304385 -0.0365889 0.45049462 0.061952073 0.33849663 0.45440677 -0.56273806 -0.36030784 -0.22555146 -0.4305986 -0.48498738 -0.39958403 -1.0927434 -0.13849527 0.2739113 0.02315716 0.391585 -0.21293096 -0.03335722 -0.33071104 0.45257705 0.2669763 0.45433208 0.11818415 -0.05810877 0.32865396 -0.14707883 -0.22055058 -0.5933841 -0.03159641 -0.03146226
truck 0.21019953 0.6196495 0.1301254 -0.44660988 -0.11331154 0.11382637 0.4086123 0.015729688 -0.3976387 -0.29244664 0.4912251 -0.33785275 0.5311028 0.054512184 0.47769412 -0.60335064 0.34838685 -0.5811409 0.30024615 -0.47901386 0.24666442 -0.07811281 -0.027743366 -0.29656187 -0.18803209 -0.4520189 -0.3892294 -0.6743979 0.19204745 0.42408994 -0.039094295 -0.7921097 -0.9632834 -0.027994586 0.2059197 1.0758775 0.16306925 -0.122517325 -0.13986877 -0.52111745 0.6180386 -0.26985115 0.22124761 -0.19967647 0.058863826 0.28773317 -0.13997407 0.2652732 0.19784488 -0.1812249 0.2686561 0.07125278 0.292264 0.35304227 0.43590873 -0.36339337 0.39888403 -0.077071816 -0.20610212 -0.26424515 -0.15000585 -0.6692894 0.20069414 -0.4142565 0.0145053435 -0.2450809 0.08212578 0.5637027 0.27759555 -0.24135308 -0.15126768 -0.487801 0.117994 0.31550002 0.7729115 0.22433008 0.31293672 0.37883848 -0.07822334 0.5670673 -0.20943764 0.030353148 0.2378341 -0.35734266 0.08899337 -0.4288186 0.17032047 0.03274663 0.7990389 0.61699253 0.4873479 0.6436342 -0.19070072 -0.86783427 0.9439973 0.23275432 -0.26894292 -0.32329163 0.10949121 -0.2137302
kitchen -0.37678507 -0.34366488 -0.3277665 -0.05151794 0.38263705 0.025780413 0.26475105 0.48741862 -0.6038965 -0.2868079 -0.10906077 -0.670937 0.124594465 0.30363265 0.2731415 -0.12644468 0.1917578 -0.27452785 0.24790888 0.00067565445 0.09404887 -0.021333354 0.28882864 -0.14751239 0.09219385 0.779603 -0.37864107 -0.044196595 0.06815748 -0.37452364 0.27890125 -0.50826657 0.5916693 0.13025323 -0.28074995 0.23990312 -0.0029713442 0.11308214 0.53928065 -0.016272083 0.33149707 0.11833343 0.04475628 0.6001752 0.41083303 -0.07759338 -0.9711923 0.3311591 1.1020472 0.22051379 0.21428478 -0.91554886 0.15075089 -0.095118254 0.60115135 0.028829213 -0.09811404 0.47135374 0.39497826 0.41001812 -0.42685893 0.35083783 0.55734795 0.28101137 -0.3141127 0.25847322 -0.035676092 0.9014551 -0.36270902 0.29586387 -0.08207523 -0.00040000488 0.59446305 -0.19464031 0.8856424 -0.28959924 -0.1584477 0.123846866 0.005565872 -0.64143246 0.17470947 0.04666002 -0.36873013 0.5998236 0.030008357 -0.07928362 -0.22420427 0.2614917 0.9321607 0.042594727 0.19232032 -0.26452944 0.21366426 0.112260796 0.6635088 -0.3669094 0.04906635 -0.38577974 0.20084217 -0.081164956
cleaner -0.5792881 0.44129512 -0.10532517 0.6253833 -0.3175398 -0.32735923 0.8382309 -0.3008675 -0.5468883 -0.5536953 -0.45005745 0.0355887 0.40504822 -0.46468535 0.5361672 -0.618331 0.49774277 0.48316127 -0.3309911 -1.1869441 -0.02224954 0.5165912 -0.084011935 -0.57856035 -0.23632862 0.22280619 -0.26469734 -0.18549322 -0.33947027 0.10111042 0.14013767 0.5152231 -0.13226241 -0.36475033 -0.19351776 0.7919552 -0.34277105 -0.38579813 0.22286373 -0.5701206 0.4026433 0.30774608 0.15505336 0.51395583 0.078128465 0.12909779 -0.3161206 0.3388924 -0.43114337 0.44541326 -0.7795825 -0.012958233 -0.5304733 -0.27648678 0.47214395 0.21369568 0.4168587 0.23754057 0.6527675 0.7799263 -0.06414583 -0.22105387 0.430028 -0.77032703 -0.27477074 0.04661232 -0.21195905 0.3785021 -0.07085114 -0.25948143 0.018887127 0.10573677 0.24473543 0.14610018 0.10963523 0.42774972 -0.025264148 0.20461558 0.111505345 -0.6868882 -0.23301145 -0.14673088 -0.2306315 0.54368335 -0.20123087 -0.19143885 -0.15990353 0.21892594 0.5256127 -0.26387337 0.06015529 -0.0022855864 -0.21901964 0.56958985 0.2635688 -0.31697068 -0.25874388 -0.024292834 0.2861648 0.4911679
full 0.07794537 -0.19813567 -0.25186488 0.35148084 -0.4767973 -0.26570168 -0.4959417 0.4750789 0.09571478 0.07638234 0.16237481 -0.19708657 -0.4246802 0.029286433 -0.18154207 -0.15459308 -0.27584776 -0.061813083 0.12144089 -0.45407006 -0.07890221 0.20211332 0.018640254 0.15548019 -0.114036515 -0.57590926 0.052835885 0.041814134 -0.34856868 -0.14408173 -0.5469962 -0.33842695 0.42091012 -0.10310924 -0.38781992 0.1504469 -0.05438495 0.036335867 -0.2504459 -0.7355049 0.30498183 -0.3327122 0.07785087 0.104193665 0.6900338 -0.5577077 -0.57066566 0.16218685 0.46549386 0.31972685 0.37496006 -0.5522068 0.9128027 -0.28141594 0.25375473 -0.3885015 0.093097076 0.7199407 -0.2680559 -0.16329753 -0.280579 0.070857674 0.36846203 -0.31185102 -0.3730226 0.39863113 -0.42863792 -0.6442023 0.14585891 -0.31685477 0.085535385 -0.14491886 -0.10531105 -0.25727442 0.67196983 0.70859814 0.44572693 0.4331044 0.14538221 0.10996108 -0.7470905 0.030392034 -0.055223327 0.21060568 -0.09269494 0.4606197 0.78184044 0.38224846 0.37166888 0.26037478 -0.24757114 0.3216385 -0.09437116 0.23426077 0.98132426 -0.4716715 0.11794416 0.13171603 0.5677761 0.08031007
assistant -0.7668814 0.6071644 0.3776543 0.7353963 -0.62807155 -0.54597247 -0.33400786 0.49920437 -0.0468268 0.005485524 -0.2109298 0.28853595 0.57656157 0.2905751 -0.13479286 -0.47851032 0.32104203 -0.34417677 0.21250606 -0.5328927 -0.49198943 -0.40690082 -0.38496614 0.24985716 0.19515835 0.3466617 -0.29101282 -0.37010184 -0.116539136 -0.15676506 -0.040873054 -0.17055766 1.0168685 -0.37856334 -0.2281424 -0.2293553 0.014200633 0.09280739 -0.45883024 0.08139234 -0.40240988 -0.12061277 -0.28686368 -0.7107125 0.7473834 -0.8902502 0.2657622 -0.021327527 -0.04713709 0.42926103 0.23687464 -0.37922576 0.14797889 0.50282645 -0.25745627 -0.11790027 -0.20745042 0.049852613 -0.31900275 0.56889087 -0.20789173 0.013085125 -0.21431528 -0.13962568 -0.75493187 -0.45934638 0.16919383 0.32507974 -0.26355127 0.007895867 0.35393465 -0.18148354 0.4362872 -0.13027012 0.30487663 -0.14526871 -0.059717532 0.11030008 -0.237789 0.430094 -0.3972317 -0.32690194 -0.035546467 0.27854687 0.078750595 -0.06851156 0.13253331 0.5275036 0.21400172 0.44676355 0.79630363 -0.22406974 0.9146127 -0.1571832 -0.025120795 0.7942378 -0.028817702 0.86388224 0.26534465 0.15511592
position 0.14304075 0.13660933 0.18971086 0.53555024 -0.40120658 0.30710024 -0.015352286 0.7369099 -0.14868468 -0.28974956 -0.14167887 -0.14279461 -0.23875971 -0.21240468 0.13374963 -0.082652904 0.025330095 -0.3358756 -0.11829584 -0.29377255 0.13683484 0.31330675 -0.326701 0.41853026 0.1924546 0.14340474 -0.501245 0.5701052 -0.3640293 -0.45634747 0.22705613 -0.39050785 0.04295418 -0.82746965 -0.05447188 0.0038166714 0.46986043 0.050629288 -0.70568115 -0.0018246439 0.21905793 -0.25294712 0.15821896 0.21514906 -0.005849373 -0.2506222 -0.36990562 -0.61163855 0.20222862 0.300486 0.04993455 -0.6021804 -0.13055846 1.0270191 -0.037910536 0.107307166 0.17205529 -0.6658795 -0.21688613 -0.79190105 -0.050462037 -0.27457565 0.5286263 -0.44451717 0.010824929 -0.42409614 -0.112891935 -0.14565697 -0.41390318 0.11059843 -0.47104487 0.578914 0.5042735 -0.13034995 -0.5429531 -0.053265598 0.17475371 0.076341115 -0.47566295 0.21781622 -0.32600966 0.087493196 0.01211381 0.026059479 0.43415618 0.011351921 0.527602 0.05838728 0.8296358 0.28054675 0.041320726 0.18590762 0.26701194 0.5329647 0.5064027 -0.14525981 0.62521523 -0.4158824 0.66213435 0.4957882
cafe -0.23892106 0.44046408 -0.21967937 -0.14710213 -0.08502935 -0.32010922 0.23400281 0.1701274 -0.2640423 -0.5300745 -0.05215406 -0.6569566 0.35354233 0.18329643 0.8016096 0.08938489 0.7661042 -0.09357121 0.5335001 -0.55780494 0.36855248 1.2587816 0.32210004 0.033441544 -1.4554721 0.9162347 -0.59624726 -0.8952734 -0.20251416 -0.4862065 0.52549857 0.01745783 0.026650079 -0.18438879 -0.65245724 -0.02726039 0.03014968 0.515256 -0.46209493 -0.43486226 0.33322152 0.55170405 0.09211567 0.17708617 0.017617332 -0.85967934 -0.8586774 0.14532237 0.19752549 0.5900566 -0.41225302 -0.15278073 0.09590845 -0.32971245 0.17081332 0.33231333 0.4660373 0.15438938 0.83510286 0.39043874 -0.13292532 0.025660096 0.2895641 0.24584791 -0.71008664 -0.21569489 -0.4815091 0.21999867 -0.309648 0.6603444 0.44461954 0.07231889 -0.21615453 -0.49955893 0.9437926 -0.58390194 0.1097248 -0.20143677 -0.33979717 -0.12565498 -0.45123678 -0.5740257 -0.28080755 0.37820432 0.0719212 -0.071937166 -0.32544285 0.5677219 -0.5167045 0.4595845 -0.257551 -0.010158847 -0.57565427 0.08217721 0.60737044 0.4572853 0.071010016 0.05827436 0.5265864 0.07794432
sales -1.0419154 0.5105615 0.98320615 -0.32324037 -0.6094648 -1.1021891 -0.45564047 0.48177212 -0.27884284 -0.94300276 0.19207272 0.5804165 -0.26087362 -0.5647024 0.036705032 0.01587131 0.025708165 0.10207471 -0.45850047 -0.8760824 0.018772883 0.47996128 -0.4911119 0.07955094 -0.06116646 -0.026989754 -0.030355189 -0.34306955 0.09134096 -0.8212457 0.26617965 -0.33366624 -0.27740365 0.30682057 0.31132257 0.16323273 -0.17209512 -0.27291313 0.1132774 0.09782643 -0.1632083 -0.16313821 0.6957114 -0.5225047 0.29272845 -0.63463247 -0.14358653 -0.13697103 0.5298466 -0.035437834 0.6629372 1.0719199 0.18557586 0.5636126 1.0087379 0.09302365 0.28243747 0.51108646 1.0185592 0.20952553 -0.07911396 -0.3235246 -0.7583213 0.13395952 -0.70118284 0.3247145 -0.7115849 -0.73988134 -0.412807 0.76185524 -0.4198513 0.1061984 0.79155207 -0.27007347 0.47449684 -0.07918617 0.12482366 0.42561918 0.052718103 -0.04364098 0.1825903 0.048770636 -0.34623855 -0.03308774 0.15504855 -0.19185737 -0.22276193 0.6406732 0.6410579 -0.096143775 0.71128905 -0.008768895 0.0020955268 0.35370758 0.43163633 -0.100680016 0.1465266 -0.62057376 0.19883172 -0.15974222
immediate 0.37707078 0.12154086 0.077500455 0.11290046 -0.10795767 -0.081518926 -0.059933692 0.41897818 0.4097464 -0.16500513 -0.18540838 0.7287389 0.1756902 -0.06894608 -0.5676071 0.119314656 0.21905327 0.18399552 0.007272188 -1.1099794 0.5240177 0.558407 -0.15345262 -0.77623147 -0.052225724 -0.04617482 -0.3774114 -0.083305456 -0.5968439 0.45991355 0.25751978 0.30626836 -0.43116745 -0.93949944 -0.18209839 -0.04152582 0.50128376 0.24813436 0.14358088 -0.1376096 0.7449261 -0.37789723 -0.47009405 -0.28441966 0.03552155 -0.37816706 -0.26323792 -0.42915392 0.04622639 -0.29520556 -0.15712103 -0.28918645 0.59311974 -0.15810509 0.29424882 -0.5595896 -0.0013285546 -0.505546 -0.3354751 0.1965911 0.33198005 -0.011922426 0.29918 0.12679055 0.5574744 0.45775434 -0.0077405483 -0.5410586 -0.3683371 0.13477589 -0.38586324 -0.36501256 0.016225386 0.20002225 0.80376476 -0.14095359 -0.3174573 -0.034484096 -0.48382258 -0.24317503 -0.61694187 -0.07888149 0.15342748 0.3444202 -0.6250193 0.4569643 0.52944195 0.7596707 0.7209904 0.016517231 -0.26849955 0.57572746 0.45526934 0.0939907 0.20667471 -0.06415375 -0.63675 0.33197168 0.09858887 0.21408248
delivery -1.1090494 0.849542 -0.12279829 -0.06420209 -0.15610294 -0.51229554 0.9143884 0.6150488 -0.95967454 0.21319066 -0.1759164 0.12901855 0.30412465 -0.89785796 -0.37656358 0.15484552 0.53841156 -0.36996067 -0.16079338 -1.2089632 -0.24833156 0.005405318 0.2403459 -0.46211526 -0.4675731 -0.1801305 -0.10138672 0.2334053 0.4666958 0.13070554 0.20374551 -0.5268773 0.093786925 0.2708484 -0.048533496 0.54142326 -0.21406128 0.3841919 -0.049897783 -0.58032733 0.78561926 0.53315043 0.057272505 -0.14521207 0.6634602 -0.29641482 -0.16200866 0.09828371 0.9816795 -0.48870373 -0.27660874 -0.28858277 0.65660274 0.0601158 -0.06692906 0.53599423 0.9543567 -1.100211 -0.19597796 -0.39035982 0.07307282 -0.13109656 0.45624128 0.022201587 -0.078286566 0.20609578 -0.6644703 0.36899403 -0.70054936 -0.08450398 0.059411723 -0.1369166 -0.05899992 0.6187076 0.6537585 -0.35847214 0.56154656 -0.24473058 -0.32374737 0.05985322 -0.18380393 0.46122384 0.08631268 0.013263723 0.11887945 -0.41576844 -0.867695 -0.021262081 0.37722844 0.3068291 0.92346317 -0.26339105 -0.7737795 -0.40180513 0.6098224 -0.4801209 -0.07291749 -0.2662916 -0.36397693 0.05314064
barista -0.064032845 -0.270894 -0.96797085 0.4123986 -0.023160033 -0.77434534 0.16975336 0.5514687 -0.24433208 -0.47612062 0.051773917 -0.819738 0.22551931 -0.2695749 0.4198451 0.5931114 0.4680406 -0.36198026 0.6461041 -0.79103184 -0.024406096 1.0094825 -0.19641882 -0.31774536 -0.4296163 0.28799686 -1.4179931 -0.06166159 -0.32958624 -0.11851513 0.8676602 -0.9735902 0.43719527 -0.3439775 0.14653018 -0.27973962 -0.2651192 0.7428205 -0.28283158 -0.68596035 0.023192609 0.056013856 0.42858273 -0.30512252 0.060688894 -0.4167527 -0.23519798 0.10180742 0.05599623 0.87407494 -0.35662934 -0.21804452 -0.21010122 -0.47783697 -0.02575186 0.576206 0.5603968 0.077674255 0.75132143 0.25207183 0.17646126 0.32132232 0.26334673 -0.057555605 0.007652445 0.41528162 -0.5808669 -0.27082968 -0.18067724 0.22099936 0.10164515 0.010171575 0.4901512 -0.46086946 0.41688028 -0.3062986 -0.2252666 -0.016397744 0.082965724 -0.44611713 -0.51091623 -0.6532297 0.017441524 0.078124136 0.11635841 0.10977905 -0.1438892 -0.31855398 0.24615443 0.44505823 0.14016764 0.7332184 -0.6235091 -0.25439253 0.9206181 0.6122106 -0.040579572 -0.85193455 0.017755553 0.11943407
year 0.08710243 0.19845062 -0.24283054 -0.0075470414 -0.70345443 0.0071386164 0.19943967 -0.25421414 0.20196454 0.42801106 0.71133286 0.045267064 0.09602696 0.58381146 -0.35364115 0.16980132 0.25439617 -0.47608277 -0.35847604 -0.5013264 0.6238133 0.13882343 0.4026857 -0.18410575 0.06677448 -0.6477252 0.41111693 0.3146647 -0.067814596 -0.17718473 0.5699174 0.20554195 0.24947043 -0.5084254 -0.11154842 0.38129598 -0.1812267 -0.38841587 -0.5070827 -0.5291732 0.0060177995 0.7612496 -0.49775898 -0.29482505 0.72562397 0.013227151 -0.605287 -0.19603144 0.5135884 0.17322849 -0.4410166 0.34053516 -0.37456045 0.4450415 1.4925603 0.12679105 -0.1157968 0.22110888 -0.83125824 1.022295 -0.124562494 -0.42343673 -0.07851469 -0.09331871 -0.7211041 0.026610862 -0.52223635 0.27832174 -0.20024979 0.5576912 0.5546964 -0.18263514 0.79793525 -0.34762773 -0.10704899 -0.17462035 0.39788872 0.19810279 -0.5910639 0.33723435 0.03450386 -0.26839483 -0.39616665 0.43267646 -0.5222355 -0.34647557 0.3126219 -0.076100186 0.32363698 0.38010338 0.10937134 0.96792644 -0.6339186 0.089596346 0.13266087 0.44234312 -0.42484993 -0.4373504 0.23018433 0.36243716
seeking -0.07169792 0.74525476 -0.07887708 0.14068721 0.052588943 -0.2846785 0.50734204 0.14794119 -0.2271311 -0.23754475 0.6154532 -0.46387723 -0.07842851 0.5605536 -0.51244986 -0.1150812 -0.2835943 -0.35827816 0.31312385 -0.6556089 0.34805956 0.19833663 0.44100004 -0.18393268 0.79532295 0.1410735 -0.26885456 0.112229936 -0.05892557 -0.5682837 -0.1290377 0.4433483 0.14720292 -0.25638106 0.20333058 -0.3815743 0.20941219 -0.36276585 -0.43112028 0.2553298 0.05798071 -0.39612314 -0.54370695 -0.11900292 0.21500094 -0.49213535 -0.8004162 0.79702944 -0.23656365 0.44519407 -0.06983005 0.07938509 0.22274217 0.3319163 0.7439417 -0.52532846 0.54411197 -0.70623815 -0.10497335 0.30570447 -0.6005258 -0.59915483 0.5928364 0.31876302 -0.14882469 -0.20627606 -0.05057571 -0.4169495 -0.28306147 0.29588175 0.19665115 0.7310621 -0.38632196 -0.5105036 -0.21022078 0.13791886 -0.27627623 -0.022033822 -0.40845996 -0.023548573 -0.14652422 0.025435992 -0.36033365 0.017623326 -0.56892586 -0.46313554 0.13273439 0.62097305 0.43978047 -0.10777091 0.30943495 0.01745037 0.14662367 -0.099817425 0.14776894 0.44732958 -0.014407452 0.17725521 -0.4760712 0.7301196
manager -0.44219202 0.16874686 0.6988086 0.8279859 -0.33033213 -0.17526221 -0.2937164 0.48619613 0.14365068 0.22770932 -0.41033003 -0.42402184 -0.104063064 -1.0097013 -0.23386985 -0.80732477 -0.24719127 0.07116863 0.2911068 -0.40031222 0.33533815 -0.09247912 -0.768871 -0.1648389 0.025265833 0.061337568 -0.79027313 -0.5620029 -0.5575486 0.46888664 1.0594394 -0.9228748 0.50234365 -0.3679567 -0.268882 0.07931225 -0.28677064 -0.11984608 -0.53397375 0.18361834 -0.18935625 -0.5833474 0.4077418 0.31624675 -0.08507975 -0.6483609 0.46698466 0.550092 -0.040332526 0.050646335 0.38890263 -0.5102755 0.35344398 1.2157573 0.046857417 0.21429376 0.04915469 -0.029950947 -0.47544372 0.9990346 -0.27872247 -0.26820755 0.0517768 -0.37821928 -1.0890124 -0.19306788 -0.25013262 0.24105345 -0.22651288 0.29767936 -0.2278294 0.1091464 0.32550088 -0.08558257 0.105572835 0.2699213 -0.100037344 0.2451128 -0.2189259 -0.4593476 -0.14168453 -0.08275429 0.34510624 0.24117099 -0.2548146 -0.12727419 0.15813905 0.1021678 0.87144613 -0.005757007 -0.65617496 0.16372563 0.4892014 0.18006717 0.19530678 0.24914634 -0.18141541 -0.54858994 -0.74682 0.2654496
asap 0.16274112 0.39095032 0.10505364 -0.19491263 0.19568563 -0.48921183 0.6684172 -0.045853265 -0.13398504 -0.7476028 0.13577701 0.358906 0.03941624 0.25936326 0.0029608903 -0.2735306 0.57749265 -0.20475186 -0.3379927 -0.45228526 0.17762955 0.2070946 0.46621054 -0.59082425 -0.19865978 -0.6729673 -0.3855136 0.24285214 -0.3422608 0.3216337 0.17114042 -0.35361895 0.36243016 -0.6529431 -0.3434534 0.26724082 0.3222084 -0.11476542 0.2956341 -0.051770728 0.28578937 -0.6823028 -0.27512708 0.03275693 0.77743065 0.39340943 -0.48697042 -0.021549957 0.27339295 0.0075501236 0.3353475 -0.16256648 -0.11032509 -0.012359268 0.14867514 0.31577688 -0.6678317 -0.41490558 0.08299372 0.16735364 0.6450179 -0.0318581 -0.5726061 -0.41684383 -0.08593808 0.894373 0.28900334 -0.3300727 -0.43105122 0.14130753 -0.46911374 0.10350891 -0.2047071 0.12640753 0.49427363 0.50037783 -0.727417 0.43898243 0.23216662 0.44922033 0.39361754 -0.3868551 -0.27632335 0.5326044 -0.26341924 -0.39364296 1.1130035 0.6278783 -0.19407532 0.37643927 -0.27195573 0.3135898 -0.18488143 -0.27630013 0.24085756 0.10307259 -0.25085044 -0.06930165 -0.52308774 0.049734995
need -0.09428916 0.017889718 0.28027505 0.32164654 -0.4719996 0.009579163 0.8257667 0.7582954 0.11950574 -0.5515807 0.14215726 -0.009842393 -0.06545029 -0.32854694 -0.542842 0.43248862 0.13091837 -0.09255962 -0.01657783 -0.5708426 -0.011584216 -0.513466 0.49588257 -0.11122359 -0.17540568 0.7398789 0.02443681 0.29495108 0.19639683 -0.08279441 -0.2876804 0.05050875 0.695563 -0.27884153 0.8371914 -0.2596761 0.15081353 -0.6001882 0.5459152 -0.47593713 0.24277651 -1.1010047 -0.3763023 -0.8520368 0.5908054 0.15277463 -0.4029844 0.29977947 0.59606016 1.0942055 0.079425626 -0.44101566 0.23596466 0.10845659 0.8080657 -0.61613655 0.7551264 -0.1481331 -0.2982215 0.21692139 0.29833815 0.116132766 -0.0035455632 -0.11839089 -0.30489665 0.54600704 0.3175999 0.67733574 0.35340488 0.02743084 -0.057846345 0.22499943 0.032856457 -0.15558489 0.21981493 0.047494266 -0.4582263 0.2630763 0.03566118 0.04713396 0.2146391 0.13104466 0.40615427 0.028606102 -0.08228129 -0.62054 -0.17113192 -0.14252453 -0.18438624 0.043887433 -0.08568836 -0.21487202 -0.39766878 0.15390922 0.51037633 0.56727976 0.5556963 -0.13753264 -0.20320842 -0.29563773
experience -0.09369538 0.063589655 0.36781034 0.0017658013 -0.27778006 -0.59026647 0.24670418 0.71390224 -1.0775224 0.005874736 0.05787494 -0.39683244 -0.4288333 0.07824034 -0.45242563 -0.095090546 0.26986915 -0.4351827 0.33688775 -0.31397247 0.2275667 -0.28858644 0.32065538 0.08007138 0.24603193 -0.27215096 0.12385867 0.2525911 -0.23745833 0.68634695 -0.14161195 -0.39897856 -0.49450433 -0.87030405 -0.1548979 -0.2616277 0.47855976 0.082547784 0.41507682 -0.51733464 -0.08187523 -0.18851636 -0.13515064 0.35270151 0.7401856 -0.71950233 -0.7044565 0.03452152 -0.015313447 -0.16571923 -0.3214184 -0.078992 -0.31415978 -0.48814785 0.05715 1.0092268 0.1875465 -0.32904482 -0.18393995 0.48485935 -0.5722743 -0.27913857 -0.13978194 -0.1431939 0.28094742 0.050133467 -0.19078001 0.7094371 0.06804542 -0.3241808 0.10030968 0.42240548 -0.31626886 -0.30317557 0.45617908 -0.6125761 0.8783452 0.4533804 -0.08185361 -0.055071466 0.062156472 -0.4335904 0.1789242 0.029494056 0.40678775 0.42094508 0.44275934 0.42514017 1.0708449 0.72415745 -0.15867452 -0.14652714 0.5409273 -0.09038072 -0.7872279 0.27969387 -0.19869351 -0.59108686 -0.114043415 -0.3554103
qualified 0.7370169 0.26870555 -0.09894194 0.08935816 -0.58304334 -0.0703179 -0.35062405 0.5781067 0.43759868 -0.24556991 -0.12650163 -1.2357359 0.33719066 0.4975119 0.39809784 0.08346498 0.16524619 0.033486772 -0.5908676 -1.1055079 0.97912014 0.30490202 -0.3429101 -0.38561305 0.2657763 0.016855048 0.1594189 -0.67299 0.24812472 0.106550336 -0.7949164 -0.44064125 -0.28370395 -0.6133942 -0.25677422 0.14593081 -0.44644484 -0.44085172 -0.83038956 -0.37210685 -0.09097852 0.0423072 0.4746782 -0.6631258 0.8676783 0.62451065 0.52513885 0.39716876 0.12549458 0.14600874 -0.686262 -0.13515891 -0.29306364 -0.5808825 0.07528785 -0.4144488 0.61341876 0.05833705 -0.8499809 -0.58090365 -0.9162396 -0.35429564 -0.76965725 0.16608647 -1.3518535 -0.2885408 -0.047862865 0.92462903 -0.12516402 0.24276027 0.11165181 -0.06772868 -0.15360641 -0.09577141 0.3995171 0.35181051 -0.19448128 -0.415231 -0.1747147 0.8571051 -1.337565 0.21179968 -0.3735702 0.30490726 0.16536011 -0.2187434 1.030451 -0.34947276 0.28593624 0.4090674 -0.33397976 -0.032476284 0.46503547 0.40950108 -0.10220692 0.09807759 -0.11903105 -0.5325525 -0.5691738 0.5644857
apprentice -0.5026656 -0.5654811 0.49277776 -0.20948365 -1.6398214 -0.55608535 -0.3807516 0.14241679 0.7472115 -1.0813922 0.269287 0.067252584 0.28738284 0.27458563 0.10929743 0.63257134 0.40343451 -0.5004302 -0.4116236 -0.31840235 0.52405715 1.3052021 0.3906017 -0.94178903 0.20682175 -0.33329 -0.048833113 0.038470063 -0.5446572 -0.2413352 -0.31100622 -0.754677 0.1582336 -0.42992994 -0.3219687 0.517835 -0.23630771 -0.39234886 -0.6473769 -0.3306861 -0.57920134 0.6459756 -0.26625583 0.08548804 0.9503317 0.47886765 -0.23297176 0.5272511 1.2705463 -0.18098906 -0.28966665 -0.163569 -0.69668525 -0.081365086 0.58108085 -0.2941266 -0.47900167 -0.11356019 -0.88934857 0.7084722 0.30539373 -0.40154377 0.5393163 -0.24229048 -0.35132998 0.50478286 0.44062075 0.008054733 0.014850016 0.26096058 0.3700084 -0.23694348 0.49571022 0.08392489 0.7051075 0.46524855 0.5920071 -0.20869806 -0.9004064 -0.054622132 -1.3772689 -0.20576186 -0.17829035 0.34165102 0.2961372 0.10109061 0.11327601 0.39592817 0.8474125 -0.2882689 0.16112508 1.1191745 0.46722078 0.7539892 -0.043606058 0.5303703 0.25833312 0.36069494 -0.24537398 0.70073426
part 0.2170212 -0.16110359 -1.2172704 0.48600793 -0.21004626 -0.4564148 -0.06786461 1.0081147 -0.57816565 0.4052843 -0.39959535 -0.118784755 -0.40513247 0.17773852 0.27206326 0.05727035 0.0040714005 0.27686414 -0.5073716 -0.38704714 0.15608168 0.6670742 -0.36308283 0.49394563 -0.38354695 -0.4319826 0.43751153 0.107944824 -0.44306377 -0.6312456 0.10460151 0.34241363 0.55332357 0.2704751 -0.42821765 0.082591645 0.1831926 0.037524134 -0.6602161 -0.26064852 -0.5807899 0.19402887 0.19059864 0.20217183 0.3438016 -1.1307634 -0.2659342 0.6790922 0.22852306 0.49224398 -0.11178355 -1.112709 0.6372088 0.23749067 0.50932634 -0.47883174 0.101292655 0.32182944 -0.2445761 -0.05656003 -0.43294013 0.48992968 -0.31424233 -0.47242743 0.3248451 -0.039770227 0.122326024 -0.42528924 -0.29418296 -0.054491177 -0.12902887 0.93111646 0.046604723 0.32504824 0.94097227 0.34690484 0.39521605 0.19080901 0.067912966 0.024318565 -0.86908424 0.02806333 -0.34336776 0.49964058 0.06294226 -0.33311296 0.42683026 0.68654484 0.48634252 0.20823069 -0.5477785 -0.31145656 0.12240352 -0.02907642 0.67008084 -0.29331413 0.46336797 -0.54508436 0.11906633 -0.4440887
restaurant -0.3623566 0.06234003 0.6882729 0.72200835 0.055026535 -0.34026253 0.8447162 1.0637666 -0.89670205 -0.21780749 -0.2592042 -0.61882764 0.237679 -0.2983839 0.5941587 0.34338436 0.05712631 0.62432176 0.39849466 -0.40785456 0.72028214 0.26159838 0.06821681 -0.4059869 -0.59082866 0.7406488 -0.42011967 -0.9510859 -0.51246786 -0.16696723 0.77852 -0.5556753 0.868922 0.2593982 -0.3148852 0.4059386 -0.099990316 0.023690363 -0.2965129 -0.4815983 0.5728847 0.5124143 -0.45393148 0.9825783 -0.295722 -0.5664093 0.3102652 -0.17382322 0.11211956 0.49967742 0.08252793 -0.31510302 -0.065907225 -0.34325102 -0.4557781 0.14963798 -0.16749527 0.8177295 0.77120256 1.01247 -0.08238316 -0.17279229 0.92074037 0.6842414 -0.40757123 0.39646232 -0.4612935 0.25087184 -0.49795184 -0.16334338 -0.3740942 -0.19715177 0.03672931 0.058445115 0.8431446 -0.20710213 -0.20380315 0.61250055 -1.4533851 0.26576212 -0.0062005003 -0.07015837 -0.21454035 0.33796075 -0.26562196 -0.31124517 -0.0464199 0.40350157 0.36933973 0.15736336 -0.46173227 0.9596927 -0.08330634 -0.3633502 0.65344113 0.16607356 0.7909351 -0.08041042 -0.24621215 0.23225956
worker -0.53282857 -0.41057462 -0.116308644 0.5328617 -0.21111551 -0.530302 0.6412406 0.13087669 0.20930201 -0.012733807 0.54153365 -0.5675221 -0.86033 0.011896246 0.09331177 -0.4757313 -0.13291027 0.94137776 0.021364521 -0.494995 -0.70296234 -0.015516277 0.30413547 0.5018688 -0.33699822 -0.22690842 0.027735377 -0.2967725 -0.35892037 0.33341974 0.17166871 0.02611974 -0.20433882 0.06279736 -0.46083596 0.16253996 0.003812831 0.9057043 0.5972125 -0.3062178 0.72859377 -0.42618424 0.6333566 -0.3319404 -0.17601661 0.05790119 -0.2990337 -0.2820688 0.0016574283 -0.11211978 0.0563514 0.41824588 0.1880189 -0.04779883 -0.21951279 0.35576352 -0.17060438 0.026038554 -0.70898557 0.8646855 -0.18691124 0.054953773 0.7252032 0.11945474 0.102177046 0.0079671 0.7070119 0.5974902 -0.8028063 0.8849006 0.089937545 0.19560985 0.32200074 -0.1985656 -0.39899442 1.1802604 -0.53875816 0.347963 -0.5187395 0.007832564 -0.40568694 -0.49356517 0.08285013 0.009931114 -0.11073275 0.0057103494 0.028249143 0.66950184 1.4730705 0.6459548 0.21658075 -0.06997927 -0.26246858 0.2274788 0.41826493 0.90494424 -0.5024756 -0.4733912 0.29164326 0.7742077
drivers -0.59150714 -0.020735271 -0.34126022 -0.893824 -1.1927625 0.3866946 0.90111965 0.13229078 -1.096868 -0.51829344 0.33890888 -0.6004052 -0.50046974 -0.41979396 -0.010819248 -0.36987832 -0.14015637 -1.021427 -0.071553275 -0.4597151 0.6236772 0.341572 0.48015788 0.5454634 -0.5767376 -0.46500355 -0.06316763 -1.4354806 0.224491 0.14186463 -0.15576112 -0.4331562 -0.019970628 -0.36903965 -0.1173482 1.029108 0.021288896 0.65332437 0.34506935 -0.41222724 0.17296366 -0.37112993 -0.28928822 -0.4509215 0.16103034 -0.8194877 -0.17451079 -0.27323145 0.1093664 -0.18101616 -0.31161055 0.06427522 0.5623997 0.36535946 0.30409622 -0.7486415 0.120724045 -0.89673394 -0.56619644 -0.22651185 0.6742201 -0.06066653 0.37780768 -0.4137808 -0.1782261 0.23740159 -0.26264486 0.063062586 -0.70452243 -0.17502248 0.50471425 -0.34146354 0.5128421 0.46065035 0.46282646 0.42517465 -0.22452739 0.5029194 0.13064834 -0.8422785 -0.15360473 -0.27866378 0.5309652 -0.335293 0.081102215 0.46458417 -0.33383548 0.52157617 0.35434833 0.1667258 0.5336854 0.58543193 -0.81137764 -0.4531807 0.9561154 -0.0634923 -1.0102974 -0.2564657 0.12072828 -0.6976829
service -0.8863688 -0.064145364 0.25525317 -0.7839377 -0.20526658 -0.8525658 0.058275282 0.3093104 -0.26215002 -0.56893706 -0.066476904 0.1582126 -0.47610933 0.12134728 0.20677543 -1.2558564 -0.70144916 0.30302185 0.25840935 0.2651217 0.41346857 -0.118552126 -0.089272685 -0.3138138 0.10536103 0.2661235 0.341935 -0.1361503 -0.4404732 0.6809705 0.82366467 -0.40495384 -0.06601165 -0.62659234 0.05339879 0.14808889 -0.25438026 0.880487 0.0967873 0.17742315 -0.18720593 -0.027056597 -0.2965447 0.10848481 -0.13060255 -0.6587976 -0.27571034 0.23367837 0.45238316 -0.21764883 0.3152456 -1.0593232 0.44229004 -0.3214579 1.0602592 0.51048446 -0.066340595 0.15854941 0.29150024 -0.6714536 -0.70981306 -0.5268782 -0.35453287 -0.12131168 -0.18336017 0.25584632 0.0838515 0.139154 0.6054315 0.39419454 -0.1577623 0.54543555 0.659682 0.36635658 -0.2260759 -0.64527833 -0.4059732 -0.013099019 -0.66070306 -0.27277833 -1.2306046 0.5494041 -0.55972755 0.3580925 0.44318536 -0.7613073 0.01577314 0.82345456 -0.22098185 0.09383947 0.8950916 0.67164856 0.2514465 0.060386147 0.5634628 1.0993447 -0.13469234 -0.34935883 -0.19639914 -0.7362789
cleaning -0.39104995 0.1814312 0.5554045 0.47558618 0.48144057 -0.6690848 0.64578664 0.16627608 -1.0918783 -0.54745483 0.24518721 0.32721642 -0.16388212 0.37129515 0.24955598 -0.57073224 0.03441865 -0.6318327 -0.6168124 -0.9141843 0.060300093 -0.34214306 -0.35591298 0.15194961 -0.39454737 0.39964667 0.24533813 -0.19137537 -0.21719046 -0.20909333 -0.34164983 -0.42277545 0.22240579 -0.5562433 -0.84008616 0.83646435 -0.12125491 -0.44852635 0.28024226 -0.21251391 0.17756687 -0.57822454 -0.38812795 0.4131811 -1.1209093 -0.09862146 -0.03092969 -0.63619834 0.36018965 0.8647016 -0.7081515 -0.399288 0.06960034 -0.09008682 0.7206078 -0.2551813 0.20772937 0.16763492 0.015329471 0.46301246 0.58967 -0.75315887 -0.096475594 0.04683531 -0.4325992 -0.20382495 -0.45128673 0.31830436 -0.35421082 0.13646503 -0.26736066 0.46443424 0.5570491 0.2765713 1.1538992 0.53860474 -0.58141106 -0.11171596 -0.18908119 -0.3546941 -0.3752979 0.67354 -0.21037808 -0.14914069 -0.43757424 -0.69347256 -0.09056996 0.11611365 0.062102694 -0.19195649 0.70500886 0.05271599 -0.40587014 1.2790612 -0.72603244 -0.4485053 -0.6090178 -0.23700574 0.7213158 -1.4008945
farm 0.021382622 0.3953291 -0.131301 0.7123463 0.1410071 -0.1029799 0.03765246 0.38984725 -0.4368347 -0.3619722 0.52578425 -0.22212242 -0.10797923 -0.49194804 0.7711141 0.13334686 -0.3125642 -0.13095753 0.16229461 0.056269903 -0.2790117 -0.41652143 0.1725713 -0.72288746 -0.09359914 -0.5187308 0.38464403 0.08673604 -0.0672411 0.1715551 0.8743078 -0.86185557 -0.55438375 -0.2873824 0.8800154 -0.519178 -0.046009406 -0.67271256 -0.5005641 -1.0731677 -0.0148140155 -0.27392268 -0.53196585 0.36906108 0.40535185 -0.008612188 -0.41587853 0.10148231 -0.16902389 0.65416384 -0.37027875 0.45367083 -0.24098328 -0.02323306 0.00092630787 0.7674607 0.45296085 0.885814 -0.9052787 0.30831477 -0.14337833 -0.27910072 0.80831975 0.03737582 0.45272762 0.39601254 -0.13065448 -0.1299412 -1.6660413 0.11602024 0.4081204 0.60842556 0.44481188 0.7329585 0.094290294 -0.32964328 -0.19793102 0.2406958 -0.3591385 0.098981276 -0.8759467 -0.17480521 -1.2838132 0.33361638 -0.02881579 -0.41623488 -0.06941821 -0.10455906 0.3930098 0.3881886 -0.4073547 0.14627944 -0.93745726 0.16360928 1.0362493 0.18216908 -0.3686519 -0.009742512 -0.31202763 -0.2862101
tutor -0.6251043 -0.43550745 -0.7592156 0.008774259 -0.4218391 -1.4737773 0.18665278 0.062313635 -0.24067643 -0.46245307 0.40682125 -0.74910164 0.026073078 0.10090553 0.18756858 0.85198325 0.18582389 -0.48749512 0.6839032 -0.9533692 0.29670748 -0.4490042 0.1841873 -0.3216859 -0.10982639 -0.38040948 0.07899161 -0.71209383 -0.07314945 -1.494598 -0.06423455 0.6288778 -0.08071277 -0.31171685 -0.1806919 0.38326174 0.49012575 -1.4256593 -0.11813687 -0.48013684 -0.056787185 0.1802048 0.287489 -0.012972517 -0.16801889 -0.26118344 0.35977152 0.11962639 -0.44036672 -0.2248824 -0.0037411451 -1.0999529 0.03547762 -0.58763105 -0.14126612 -0.016212914 -0.14000675 0.054597102 0.056371998 0.7129394 0.24113382 -0.31010994 -0.61117893 0.14351505 -0.9536548 -0.31726962 -0.12729962 0.4064784 -0.045336157 0.62725574 1.0522208 -0.17975736 0.604404 0.6183101 -0.09079216 -0.09284634 -1.0185982 -0.69064385 -1.5573118 -0.27457553 0.41484952 0.37915674 -0.116776 1.0352783 1.3594931 0.89053416 0.21696188 -0.13425171 1.073108 0.84349644 0.723773 0.008700765 -0.4010881 0.30369052 0.73139143 1.317301 0.3127517 -0.55282164 -0.19651401 -0.3870998
nanny -0.7214488 0.72279686 0.29312575 1.4074732 0.36973935 -0.35455245 0.8526271 0.050147317 -1.2957819 -0.22967134 0.77251714 -0.2415798 0.24987595 -0.07040649 0.25450245 0.077874675 0.0792784 -0.46405566 0.95951086 -0.7438646 -0.5701996 0.7759462 -0.4819675 -0.21257076 0.57868564 0.23081855 -0.17742532 0.07537081 -0.16386966 -1.002594 -0.68954045 0.08041813 -0.7891473 0.16357994 -0.47993731 0.9694956 0.42895153 -0.13120374 0.55867714 -1.6653998 0.0028186773 -0.044725284 -0.23228717 0.11590801 0.3388615 -0.13762417 0.29286078 -0.31789592 -0.008991842 -0.083504885 -0.5195396 -0.8805348 -0.58208305 -0.12757893 -0.12396747 0.51034564 0.026343683 -0.1152428 0.09393674 0.21327677 -0.3983224 0.5970325 0.6186378 0.46906525 -0.057703983 -0.5482582 -0.5408179 0.39072338 -0.28550884 0.3009443 0.53334564 -0.15636778 0.76223695 0.08331494 0.16612917 0.74083376 -0.78757477 -0.3894972 -0.312061 0.38206804 0.35973382 -0.76429355 -1.0629337 0.249686 -0.23319492 -0.3602268 0.40211535 -0.13870713 0.07663172 0.2797381 0.37185252 1.5472775 0.22930421 0.53624177 1.1099195 0.46930543 -0.305409 -0.0197411 -0.27334014 -0.7442771
carpenter 0.7536596 0.46912894 0.54221654 0.60035014 0.29635942 -0.5578514 0.20432608 0.52023715 -0.4892347 -0.2080836 0.51227546 0.52410764 0.34079555 0.26762494 0.8563554 -0.22040343 0.7202576 -0.88717824 -0.38859418 -0.6496439 -0.37128562 0.6702118 0.8222177 -0.38325417 -0.29346502 -0.029073969 -0.943588 0.37325966 -0.055422496 -0.2502777 0.15892635 -0.8068116 0.19936366 -0.6500694 -0.59310824 0.74602205 -0.6894122 0.259202 0.21093653 -0.39611706 -0.3481048 -0.23121367 1.0158305 -0.6002283 0.044809733 -0.04636654 -0.5763602 -0.09842017 0.11990566 0.66770184 -1.0662999 -0.31528622 -0.104204595 -0.75968647 -0.07330101 -0.3704673 -0.096700355 0.073737845 -0.60528934 0.8108822 -0.017036764 -0.6403162 -0.17491734 0.044791427 -0.78103364 0.33690152 0.49390268 1.1302634 0.007458124 1.2396917 0.17431809 0.18785617 -0.13512966 -0.83689535 -0.3154801 -0.5418347 -0.18090266 -0.01342972 -0.8521231 0.1859881 -0.56484294 0.21039169 -0.43491763 0.2739611 0.19847333 1.4127188 -0.0436438 -0.27477735 1.1250257 -0.0119820805 0.76378775 0.16254003 -0.5192676 -0.29617918 0.32132602 -0.5756836 0.12207523 -0.023329863 0.1063002 -0.44837055
operator -0.51415455 1.0565618 -0.27542046 -0.12770614 0.50006926 0.052542068 0.26301816 1.328615 -0.18158576 0.3952781 -0.013237432 -0.99527764 0.6572943 -0.23409304 1.5193379 -0.124435015 0.38346425 -0.4555467 -0.30440304 0.5564858 -0.050327793 0.24704209 0.19566178 -0.28554946 -0.90278196 -0.9951472 -1.575782 -0.604536 -0.6743258 -0.15426044 0.7462714 -0.35945293 -0.08769736 -0.89635396 -0.100017466 0.4037867 -0.77123946 -0.40834126 0.34276375 -0.44560465 -0.24707475 -0.4291463 0.44376191 0.47191986 0.2813409 0.18641907 -0.41650838 0.09876352 0.2792265 0.07471939 0.11632834 -0.65410745 0.04814252 0.7948482 1.0149006 0.009938497 0.18513852 -0.23483859 -1.0620576 -0.5327777 -0.5946314 -0.050337724 -0.81313163 -0.24701321 0.5144925 0.2507456 0.12036138 -0.2644037 -0.25769752 -0.5849518 0.12249022 -0.2192886 1.490726 -0.14926365 -0.4232397 0.13938856 -0.39889073 0.21708459 0.4546749 -0.25768274 -0.6109391 -0.12535945 0.32830912 -0.86766315 -0.8819646 -0.18840235 0.14840971 0.47451848 0.9053836 0.92675257 0.7182297 0.3087031 0.10809783 0.6461658 -0.098509036 0.8460865 -0.29941976 0.7007306 0.49901846 0.30596155
sydney -0.0378868 0.3969753 -0.2263823 0.2038159 -0.36732167 0.5562096 0.09574246 -0.4051678 -0.18038204 -0.19692399 -0.5320453 -0.6249219 -0.8679295 -0.35412276 -0.30746087 0.18218967 -0.2328175 0.26008415 0.60883904 -0.26573426 -0.51414216 -0.3654128 0.037933234 -0.6936451 0.026559157 0.22703344 0.85247785 -0.5043797 -0.31214762 -0.2461556 0.09912374 0.31769046 -1.1463985 0.005476626 -1.1768414 -0.089353055 -0.8705619 0.25909427 -0.26721525 0.021975745 0.17623971 -0.14895597 0.17640996 -0.5257127 0.19011877 0.03597008 -0.6049697 -0.27660626 0.28332564 0.27847102 -0.063545555 -0.18996866 -0.38793457 0.496741 0.46049148 -0.17805496 0.8727005 0.5897524 -0.3906886 -0.09507828 0.9069098 -0.9346552 -0.665349 -0.18820256 -0.032489467 0.46496254 0.78599423 -0.009432019 -0.24908866 0.11760786 -0.7576583 0.24267778 -0.13575059 -0.79867387 1.1301422 -0.3865286 -0.010915331 -0.60571545 -0.22038314 0.0830211 0.21948218 -0.72407174 -0.089758195 0.3747117 -0.23649272 -0.35103315 1.2077279 0.33325467 0.46637473 -0.3347487 -0.081770234 0.7554531 0.07712951 -0.5625759 0.97191834 0.11407345 0.005575489 -0.42914146 0.24451847 -0.3063145
german -0.14649495 0.45724794 0.2318683 0.2856077 -0.2886701 -0.50626785 -0.15879151 -0.0547649 -0.9116225 -0.25215223 -0.013972142 -0.111427024 0.08869892 -0.01648787 0.26315156 0.44251114 0.41318092 0.107433625 -0.54613733 -0.948207 0.033853654 -0.7461215 0.47934198 -0.79699594 0.20432293 -0.37533987 -0.015218263 0.75750244 -0.07650574 -0.74234986 0.37306702 0.16226476 0.03471961 -0.4325826 -0.18726794 -0.4257858 0.41223392 0.22679032 -0.4461183 -1.7756768 0.08219516 -0.16382796 -0.42773208 -0.21411127 0.0766265 0.32571027 -0.4657287 0.31302792 -0.5723073 1.2020426 -0.1885808 0.09860261 0.015363577 -0.3839676 0.68465215 0.9575182 -0.26349938 0.26759735 -1.1680961 0.02365889 -0.6767712 -0.14666177 -0.08471658 -0.048824165 0.21971701 0.916797 -0.15693222 -0.43706816 -0.58156914 1.0085115 -0.9780095 -0.040846415 -0.11575648 0.75837225 0.2600359 0.4497691 -0.0017950691 -0.31289876 -0.689021 -0.6035222 0.07675195 -0.82072484 -0.72783047 0.4155624 -0.39342904 0.004468574 0.29612717 -0.2701268 0.30196652 0.3946998 0.4603196 0.070360616 -0.41454896 0.06493741 0.15548374 1.004282 -0.98653847 -0.46798348 0.44636145 -0.55166364
hr -0.24572137 -0.605288 -0.15060827 0.33986196 0.09134731 -0.81617206 0.2444381 0.40561906 -0.35473678 -0.70248425 -0.23035498 0.41646937 -0.16876133 -0.574879 0.36957246 -0.124238946 0.9560607 -1.2811602 0.062470395 -0.89480567 0.40636083 0.049925458 -0.60239 -0.56239784 -0.041993055 -0.12380666 -0.9983008 -1.1780758 0.14568911 0.4112211 0.094917536 -0.045249008 -0.36414224 0.42960635 -0.09466358 1.44808 0.46368414 0.49102864 0.3133423 0.13053988 -0.15042362 -0.29644644 -0.2473009 -0.3999887 0.2598107 -0.42551917 -0.18863219 0.49631006 0.0110832695 0.7867548 1.2773812 0.37806278 0.75936925 -0.07543952 0.1801426 -0.3018851 0.73187166 0.09228211 -1.0508672 0.21534522 -0.12840763 -0.17720081 1.1942816 0.009281001 0.8941508 -0.21998902 -0.11802729 0.26902184 -0.22000918 0.4080704 0.35629508 -0.29889163 -0.095215656 0.10929554 0.06921264 -0.300414 0.06964551 0.29496658 -0.2676323 0.6032173 0.26929113 0.79587257 0.23336564 -0.23048538 0.24164103 0.31393227 0.5915994 0.5802765 0.25050697 0.8428818 0.51123786 0.5972383 -0.012966294 -1.118873 1.4866655 0.3010654 -0.17199765 -0.19698592 -0.07858517 -0.75622475
house -0.059688095 -0.04243473 0.13359523 0.046138924 -0.69561285 -0.8704875 0.24743392 1.0149338 -0.8348699 0.33955693 -0.12434845 0.7452127 -0.4771218 0.33695406 -0.47123596 0.06422179 -0.2846318 -0.5183265 -0.06536634 -0.34552345 0.50261045 0.029878661 -0.6908604 0.29252407 0.08169597 0.003302591 0.18099688 -0.8461241 0.025716044 0.02391366 0.34533575 0.29494545 0.50601697 -0.82512945 0.029398343 0.33353648 0.16702001 0.4377786 0.6883111 -1.6195439 0.59882694 0.029835891 0.33061212 0.14851607 -0.41466022 -0.19776146 -0.38756132 0.27989706 0.07731079 0.52384746 -0.76350033 -0.7617474 0.17298344 -0.35682845 0.19869895 0.56450886 0.56318 -0.076455444 0.6993197 0.004955405 0.32130608 -1.2409886 0.5746252 -0.108834766 -1.2674623 -0.92098844 -0.42521426 0.7485727 0.29421145 0.08446928 -0.40413982 0.2907819 0.23194781 0.66341215 0.5776733 -0.06729281 -0.23728955 -0.096831545 -0.15560992 -0.28254488 0.49386787 -0.02953546 -1.1153923 -0.25768343 -0.64241326 0.0434223 0.6101527 0.18923983 0.6567183 -0.035040326 0.49931845 0.32142663 0.49016184 0.47538772 0.18228273 -0.5073222 0.44419086 0.7788476 0.70515597 0.068291694
2 0.24022077 0.89140743 0.45159885 -0.20954308 -0.7626748 -0.5637095 -0.10418548 0.6240896 -0.58484316 0.07175957 0.7568027 -0.24143478 -0.5482628 0.9616321 0.19338535 0.8019858 0.6753747 0.28360304 -0.85033727 -0.4201936 0.96533537 -0.6216623 0.8858368 -0.54337114 -0.06741509 -0.29045212 0.28852823 -0.912308 0.07691852 0.34053242 -1.1024878 -0.45628962 -0.32435998 -0.2035157 0.1785977 -0.02039705 -0.84512025 0.23248729 0.15254557 -0.32030836 0.7225769 -0.22164346 0.2736234 0.46074864 0.1386152 -0.6728108 -0.37771028 -0.25377393 -0.32084903 0.040083367 0.27427295 0.096570745 -0.35187897 0.49292016 0.0423939 0.4343882 -0.005696909 -0.5616256 0.42737153 -0.00010515521 -0.36644584 0.06652589 -0.25109002 -0.36970675 -0.032447007 0.4081362 0.1888952 0.048682775 -0.48231676 0.456531 0.04267724 0.18227136 0.22804433 0.78209585 -0.27954248 -0.30040509 -0.5321755 0.11325359 0.42141902 0.27567074 0.08100335 0.13618976 -0.95465624 0.963553 -0.62079424 -0.19786508 -0.00054607727 -0.08192862 -0.18757227 0.16127501 -0.21929371 -0.04046563 0.19923171 0.012529303 1.2552806 1.0468005 0.11429597 0.061497528 0.0672419 -0.5080172
painter 0.63874686 0.34797707 -1.0819259 0.9689035 0.24578314 0.27328548 0.26457626 0.08447499 -0.61908084 -0.32750988 -0.45319507 -0.56659347 0.37771928 -0.68973047 -0.9915073 -0.8412952 -0.53202945 -0.07964373 -0.6673977 -1.0929856 -0.12492563 0.8903365 0.9530135 0.08056333 0.7530686 0.22613129 -1.003412 0.39209726 -0.47266868 0.68734574 -0.2681286 -0.7640933 0.37498704 -0.49485233 0.4398444 0.25304925 -0.07483335 -0.6273548 0.18349226 -0.4674663 -0.81258434 0.14103867 0.09794286 -0.504818 0.8454276 0.40915945 -0.6778376 -0.31143445 0.12312311 0.17138997 0.2312605 -0.06054852 -0.14233321 -0.67073506 0.6692375 -0.28946397 0.38115743 0.17022885 -0.2309052 -0.129764 0.7731908 -1.485977 -0.30944964 0.2745221 -0.42427164 0.56086755 -0.17437628 0.40010443 -1.6251398 0.20282187 -0.38888133 -0.6139331 0.8466087 0.50833905 -0.16690715 0.7565323 0.49772048 -0.623884 -0.20654576 0.725391 -0.4863357 -0.66629404 -0.92186385 0.18361963 0.7128161 -0.050412614 -0.7044582 0.07277335 0.10848949 -0.17933165 0.12984392 -0.22376455 -0.40797746 0.8595063 1.2099662 0.29079753 -0.06342939 -0.27176425 0.8937756 -1.0371639
rounder -0.5785506 0.51871306 0.7002742 0.2466375 0.6418552 -1.0661633 0.16376701 -0.19441237 0.15230961 -0.45326778 -0.23663549 -1.4663819 -0.5751552 0.46784627 0.38467896 0.19048707 -0.102783665 -0.25950208 -0.6143984 -0.49661803 0.36089075 0.027680704 0.18311709 -0.54563814 -0.65869623 0.19199444 -0.7086998 -0.5394786 -0.43593144 -0.22267905 0.69258904 0.14385235 0.91948026 -0.25634986 -0.37758586 0.20364659 0.618167 1.2705929 0.022636032 -0.458692 -0.10835958 -0.25606066 0.54220587 -0.20703016 0.7482466 -0.501498 -0.7823605 0.5413401 0.15068953 -0.24566376 -1.1397308 -0.04243406 0.98560673 0.23666345 0.21508399 0.36939704 -0.32671118 -0.25606364 0.61564094 0.48141736 -0.06634825 0.2240724 0.28333098 -0.7286417 -0.19600728 0.0676993 0.05550757 -0.04397582 -0.15066153 0.8972296 0.36291838 -0.56301886 0.24416289 -0.3728037 0.3998373 -0.23887002 0.7614008 0.25328687 -0.41925216 -0.04509303 -1.357393 0.2002476 0.3182122 0.9327921 -0.010686222 -0.47348517 -0.0018666656 0.43650353 -0.37952787 0.49163094 -0.1267241 0.14823596 0.2796984 0.6368217 0.31935856 0.25692463 -1.5222142 0.24647613 1.101646 -0.18786258
pizza 0.17275074 -0.19818726 0.0164 -0.37116656 0.08974083 -0.15273747 0.9394174 1.047286 -0.87563396 0.06813358 -0.7624948 -0.8400021 0.67438334 -0.33595496 0.47949556 0.8357951 1.1079961 -1.146594 0.4444123 -0.8261475 -0.3154698 0.21915343 1.0369139 -0.3862089 -0.5626891 -0.5849555 -0.7229198 -0.33264744 -0.57857233 0.22730713 0.14915533 -0.75618523 0.7607122 -0.36338112 0.37321874 0.049462136 -0.90531033 0.8112229 -0.018110417 0.17205587 0.604419 0.45952392 -0.7120578 -0.4123611 0.49588433 -0.1902427 0.26059046 -0.98494357 0.5808439 -0.41838098 0.18624546 -0.35494605 -0.09611608 0.06877417 0.4059562 0.058456097 0.55290365 0.09022211 0.42381606 0.25130516 -0.39015624 0.921704 -0.3887908 -0.18384437 -0.07910939 -0.011466971 -1.1088854 0.45338184 -0.866105 -0.019219391 -0.042970162 0.96281505 0.08722824 0.00619258 1.6154706 -0.087069646 0.6457166 0.4376824 -0.86767787 -0.36046982 -0.7167671 -0.3129567 0.017918002 0.5365277 -0.08278542 -0.18892187 -0.26570448 0.059093326 0.63986003 0.10715109 1.2872577 -0.6170532 0.453573 -0.120649055 0.6769475 0.07316581 -0.16927809 -0.78956014 -0.20580381 0.5510503
bar 0.45285478 1.0976776 0.049098913 0.92182386 0.29201293 -0.3244177 1.1044315 0.20387746 -0.30550602 -0.4258303 -0.25010902 -1.1300653 0.28637105 0.025403798 0.66427505 0.25089604 -0.19396992 0.21266845 0.33060312 -0.30674452 0.27382284 -0.34332794 1.0540369 -0.2171718 -0.5507405 0.9058718 -0.035076864 -0.15470499 -0.8414386 -0.760362 0.8100269 -0.06683421 0.79433197 -0.46336266 0.42592448 -0.6190593 -0.5345925 0.62457913 -0.5695698 -0.3606144 -0.1141213 0.029400483 0.29514724 0.23024714 -0.77859294 -1.3280554 0.047656305 -0.25871614 0.8213795 -0.39485514 -0.09595786 -0.14669801 0.84743655 -0.41719157 0.3597577 -0.26309836 0.07617368 0.4785697 0.13415098 0.24668667 0.4282721 0.0856335 0.17918931 -0.11287995 -0.32014415 0.13714115 0.052874077 0.19281831 -0.30369675 0.23819597 -0.25457573 0.7078242 0.8387883 -0.20194526 0.347523 0.56025213 -0.29040608 -0.05095123 0.51214194 -1.0905759 0.2754835 0.015930848 -0.81788355 0.13145642 0.42476025 0.20708239 0.4019599 1.2031046 0.8092355 0.370499 0.26881662 1.273891 -0.43068045 -0.40881604 -0.025538445 0.24671547 0.06586501 -0.6821199 0.15390497 -0.06342953
hc 0.2591437 0.39121032 0.11054592 -0.47437972 -0.38157886 -0.62173665 1.2999768 0.49653938 -0.5295282 -1.033628 0.36451668 -0.5961081 -0.12900609 -0.1648803 0.58800596 -0.36801395 -0.793576 -0.4276734 -0.2758466 -0.03716386 0.73977315 0.21932204 -0.37638935 -0.51504934 -0.36220717 -0.2898743 -0.712872 -1.1895823 0.48630115 -0.5070061 -0.04251453 -0.3803392 0.019753817 -0.32646972 -0.5479317 1.1100477 -0.60758555 -0.2674266 -0.20299906 0.14992633 0.089044176 -0.18378824 -0.29379317 -0.23421055 1.0398266 0.32486108 -0.7604644 0.5771833 0.02405881 -0.110088535 0.5116984 0.37160975 0.4611324 -0.45518702 0.135295 -0.50261796 0.91070986 0.17472301 -0.17385061 0.5773477 0.42518687 -0.18587244 0.6334922 -0.7847288 0.8115028 -0.8487772 0.28852272 -0.46528497 -0.93512124 -0.06473831 0.015773632 -0.20830932 0.11489027 0.46823233 0.2079526 0.72520584 0.4192714 0.20061773 0.032691218 0.5024589 0.005943236 0.6327768 0.25647938 0.26944607 -0.852491 0.3835258 -0.75737727 0.1821734 0.9200094 0.38832188 0.058481336 1.2909074 -0.35017738 -0.19954114 1.2619648 0.44062725 -0.04805539 -0.6325496 -0.18114077 -0.8592512
construction 0.15661286 0.5792214 0.56063366 0.18767817 -0.20836274 -0.56025046 -0.1683985 0.5798884 -0.11579577 -0.2530683 0.8231386 -0.7932134 -0.021043181 -0.21878742 0.5213706 0.37470496 0.096019715 -0.29111588 -1.456485 0.25359455 -0.35397732 -0.40148014 0.25389248 -0.5916139 -0.62694126 -0.5123032 0.059004065 -0.36556575 -0.09773271 -0.10303135 0.16977538 -0.5416972 0.5368742 -0.062231418 -0.17232227 0.25656006 -0.16385184 -0.9548439 -0.53069645 -0.16021703 0.18326965 -0.3146462 -0.35881817 0.5278992 -0.21575661 -0.31367767 -1.4643252 -0.21927354 -0.5868069 0.4394934 0.3294882 -0.050636444 -0.48491505 -0.8658955 0.5714621 0.04863014 -0.26870203 0.45968932 -0.64912295 0.66378593 -1.05927 -0.56064814 -0.28976244 0.094263054 0.74412304 0.48511973 1.4880472 1.1425884 -0.46616217 0.59752625 -0.43087515 0.13320178 0.12800367 -0.5266251 1.1711879 -0.37485415 -0.23944898 -0.3277443 -0.16187476 0.63605374 0.8969562 0.67103624 0.037701193 0.80951357 -0.6742336 0.4911165 0.40588963 0.42075604 -0.2357545 0.07733261 1.3522753 -0.63085264 -0.5424575 0.100663744 0.5899286 -0.18122469 0.33599052 -1.0404388 0.45148373 -0.1877931
shop -0.0997642 0.1805949 -1.0389104 0.1942758 -0.111783355 0.03270119 0.6896976 0.713106 -0.409534 -0.9313086 -0.19099768 -0.22534245 0.13446549 -0.21095115 -0.3951826 0.3489616 -0.55968213 -0.026348323 -0.42245185 -0.69783866 0.29734963 -0.62755436 0.6714311 0.075132504 -0.005573283 0.7754893 -0.8317281 -0.010716087 -0.5872164 0.04939054 -0.20767917 -0.5168035 0.33373216 -0.06943051 -0.12038106 -0.6233708 -0.7326868 0.7458221 0.32344514 0.16975957 0.8159371 0.07873164 0.07980261 -0.7946422 -0.23896866 -0.36093774 -0.9998319 0.4616587 0.5627117 -0.5552054 0.30813044 -0.4967394 0.7955696 -0.66508096 -0.66270405 0.5783956 0.1252177 0.79704577 -0.5870316 -0.63328177 0.26626328 0.13840376 -0.75919515 0.18025248 -1.3027598 -0.8225141 -0.6280993 -0.010848325 -0.8140252 0.05588396 -0.03361391 0.009186142 0.74174625 -0.8617607 0.59391195 -0.4521533 -0.06438159 0.8351596 -1.6033963 0.40623078 0.28910995 -0.7147476 -0.4518317 1.081483 0.7139894 -1.2700651 0.039194684 -0.22138028 1.246847 0.829002 0.52968526 0.7511296 1.1627834 -0.2345233 -0.17022441 -0.48519883 -0.26432768 0.4641878 0.30782783 -0.22131321
labourers 0.3407118 0.17426841 -0.25314292 -0.25181806 0.77436644 0.4189243 0.20786358 0.24505042 -0.38740006 -0.32121235 0.19861926 -0.2599864 -0.7779247 0.25452623 -0.1177446 -0.17987499 -0.70474756 -0.5508731 -0.83772486 -1.5662165 0.5800632 0.51145303 0.5705854 -0.19273838 -1.2351412 0.0040759128 -0.25213376 -0.97527194 0.62595755 0.2903163 0.50702566 -0.012956364 0.22724853 -1.2704877 -0.6594706 0.654421 0.97193396 0.2049665 0.029868314 0.2561578 1.0174103 -0.7658997 0.31027043 0.54235065 0.97664857 0.06894376 -0.5869856 -0.9818013 -0.5157884 0.5819921 0.13736026 0.11336179 0.61462694 -0.09784962 0.40152064 -0.5548248 -0.3986736 0.08806292 -1.1593413 0.6509846 0.61185944 0.018437723 -0.4729667 0.4496043 -0.24939775 -0.15481704 1.508346 0.45218152 -0.49112743 0.04277188 -0.7442681 0.25903723 0.28366643 -0.42569673 0.39119 0.0897514 -0.501451 -0.045985226 0.1411377 0.20920989 -0.24752794 0.7288468 -0.4389813 0.9982112 -1.2422456 0.57711846 -0.5411343 0.33652976 1.4719839 0.011409884 0.62558377 0.473102 -0.032705907 0.04605959 -0.34613794 -0.6970264 -0.25285998 -0.21957219 -1.3128823 -0.29064825
mechanic 0.120577656 0.29289204 0.17487256 0.4463214 -0.62396795 0.079776116 -0.59744924 0.83290493 0.13613322 0.31295526 0.32360375 -0.45130134 -0.020433143 1.1815822 1.2541817 -0.2970739 -0.39170128 -0.65087265 0.14788683 -0.36696473 0.3075659 0.23767196 -0.43532813 0.48786157 0.14439194 -0.24099852 -0.26178816 -0.4740355 -0.8216718 1.7194427 1.3715976 -0.48878688 -0.397752 0.29286408 -0.21329159 1.0699418 0.35808176 -0.26424596 -0.24348608 0.23066074 0.124934845 -0.43391138 0.06909639 0.7198709 0.43829212 -0.062112335 -1.3276731 0.75954485 -0.039639935 0.40214798 0.7021768 -0.1662824 -0.07826351 -0.08827918 0.09178392 -1.0169638 1.2162296 -0.7630749 -0.20784649 -0.82921076 0.27189898 0.23184653 0.30173382 -0.2707115 -0.6617237 0.51898795 -0.4286985 1.5323918 -0.46651646 0.6538192 0.06952409 -0.822645 -0.058532294 -0.29238746 0.35661054 0.32487172 -0.2475058 -0.088937655 0.27910253 -0.3823253 -0.21675953 0.1599935 -0.9106317 -0.024514781 1.1146597 -0.48910242 0.13174348 1.0622715 1.153326 -0.386726 0.37415066 0.029720709 -1.113527 0.91366756 0.2592373 0.9203505 -0.8860261 0.10241949 0.35135257 -0.14586808
area 0.2034265 0.45147106 0.2743715 -0.4015367 0.5173866 0.32805192 0.92389303 -0.1702736 0.109837554 -0.4623528 0.043245204 0.1649361 0.31900004 -0.3253054 0.7229386 -0.82250077 0.2188288 0.74306643 0.36444232 -0.56427026 1.1815331 0.7985155 0.66115284 -0.7530201 0.19077985 -0.32188714 -0.32230145 -0.03434592 -0.2066007 -0.10847212 -0.22295482 1.0334686 0.14915642 -0.32263824 -0.4115978 0.28406557 -0.07669123 0.46093696 -0.47508097 -0.48937178 0.17133513 -0.92816955 -0.9115513 1.0193856 0.04525879 -0.009061375 0.1291 -0.115924574 -1.3263115 -0.08813879 -0.24729344 -0.41116256 0.49099118 0.17881197 -0.24427964 0.067152545 -0.122776516 -0.13977045 -0.18922818 0.45571032 0.21145235 0.36679634 0.0343571 -0.25723037 -0.71949875 0.39798558 -0.5800122 0.2719105 -1.1170508 0.5468464 0.42728242 0.34740028 -0.14767148 -0.26940942 0.5530316 -0.024581209 0.7830341 -0.14513493 0.26270443 0.72890073 0.4890667 -1.1257913 -0.42075494 -0.07049105 0.33709696 -0.8686845 0.20082395 0.6157034 0.3600881 0.5292211 0.3780975 -0.14422436 0.08398122 0.9083884 0.5653576 0.048340254 0.44884485 0.3285757 0.39303342 0.13891806
babysitter 0.17866585 1.229577 -0.030529818 1.1035701 0.16149424 -0.74472773 1.0887375 0.44333458 -1.5569515 0.36722502 -0.38649127 -0.4141655 -0.4167791 0.23652737 0.2998151 -0.03767438 -0.9036193 -0.22284898 0.4892242 -0.8916243 -0.48560923 2.0064619 0.52916235 0.37147906 0.036238074 -0.5930671 -0.5581644 -0.68479145 0.34255707 0.035442963 0.1943033 0.72138083 0.43149737 0.55293083 -0.40227184 0.6148774 0.3905174 0.43423468 0.34516048 -1.8367856 0.83359474 0.08488884 -0.5516507 -0.28097993 0.25332028 -0.004107128 0.2649997 -0.2899456 0.20536332 -0.12582012 -0.33859062 -0.36154956 -0.29161587 -0.06693105 0.08129547 0.4626916 -0.74918586 0.3802035 -0.11495631 0.82276404 0.35469675 0.71860236 -0.21012816 -0.18608798 0.28027624 -0.40936258 0.15170254 1.0099391 -1.0296636 0.798367 -0.73789257 0.25574994 1.0263072 -0.3292581 0.2615297 0.88415235 -0.925773 -0.829428 -1.0009261 -0.7575629 -0.14172667 -0.022646489 -0.4670527 -0.03232415 0.36963266 -0.8956992 1.0887823 -0.7332405 -0.5842559 0.67668414 -0.25213355 0.9550234 -0.009074427 0.76645446 1.0027114 0.30482212 -0.4691833 -0.89624727 -0.5124329 0.24343884
backpacker -0.41784555 0.07378943 0.5293954 0.1738655 0.012327315 -0.30893797 0.18286346 0.44194227 -0.6725466 -0.4980756 1.0907302 -1.1133852 -0.618536 0.49889728 1.2225097 -0.53615063 0.4612175 -0.5449356 -0.33971563 -1.4697138 -0.18625997 -0.15072401 0.28459257 -1.2994791 0.20687893 -0.84732515 0.5116475 -0.21119413 -0.20102036 -0.22552168 0.43335196 -0.36756563 0.90001386 -0.6738215 -0.03865765 -0.78165066 0.2565328 -0.104248695 -0.17251207 -0.91813403 -0.16143937 0.24391308 -0.100575835 -0.002419184 0.22423035 0.10160717 -0.72767955 -0.007896667 -0.49126205 1.1148376 -0.6916744 0.6996339 -0.5156036 0.4385703 -0.22497173 0.3124899 -0.048737347 0.40987647 -0.09838743 -0.32912695 0.03884535 0.06758391 -0.10900588 -1.1572851 0.15754922 0.45254675 0.31701425 -0.2554837 -0.34253573 0.27796614 -0.08851983 -0.20141953 0.20101614 0.25011218 0.24343704 0.40589145 -0.22996552 -0.30792412 -0.16047888 -1.0185945 0.06373168 -0.4373632 -0.9051788 0.071451604 -0.3964614 -0.86745286 0.29884526 0.29023817 1.3952557 -0.09802277 0.3429003 0.36759087 -0.09275494 -0.8588855 -0.16101249 0.43348432 -0.87531555 -0.32832724 0.6081367 0.1580024
cleaners -0.8580152 1.1852177 -1.1221627 0.34007603 -0.81490564 -1.0461661 -0.0166576 0.0045110197 -1.0174074 -1.0075176 1.1026267 -0.7375849 0.062076278 -0.5763645 0.3211278 -0.4516509 0.12586905 0.0068056104 -1.3599743 -1.1520723 -0.5283263 0.8072086 -0.52464604 -0.03885394 -0.57926726 0.36062032 -0.16423087 -0.36598432 0.30854455 -0.04213303 0.42028895 0.041436348 0.076944485 -0.83630407 -0.96079 1.0729479 -0.50265634 0.3497083 0.27111086 -1.349233 0.08020889 -0.16311252 0.24828278 0.051199347 -0.42008016 -0.28522834 0.44573262 -0.3984506 -0.37394327 0.24469264 -0.7231992 -0.52741784 -0.17440768 -0.47615412 -0.19558796 -0.50087184 0.44079393 -0.036356412 -0.11313379 1.7397271 0.68802536 0.032795433 -0.080269165 -1.1117723 -0.7443346 0.3727495 -0.17558199 -0.11976408 -0.5017188 0.37904072 -0.6452652 0.7360771 0.44038966 0.7335683 -0.08901958 0.044902008 -0.053245064 1.0971773 -0.6369948 -0.304707 -0.7198212 -0.4574639 -0.8419061 -0.38612083 0.15811127 -0.12974323 -0.120452166 0.28966978 -0.021012753 -0.5425556 0.6104256 0.017359411 -0.25776702 0.7627137 -0.9446011 -0.2042303 -0.5480515 -0.15071075 -0.59689116 -0.8353731
jobs -0.69348145 -0.2062584 0.4903404 0.14489225 0.083840095 -0.8729839 -0.36128628 0.05321785 -0.24188696 0.4654351 0.58920336 -0.3826629 0.57922226 0.13419414 0.8114171 -1.0860213 -0.1712242 -0.3772961 -0.6594951 0.020310447 0.041407056 -0.5250139 1.1654043 -0.27367342 -0.4296255 -0.3946482 0.24399088 0.7082628 -0.49400768 -0.6715091 -0.14915891 -0.4103202 -0.120355524 -0.74351597 0.09189584 -0.058303837 0.31347147 0.05355868 -0.69203466 0.017304601 0.6373177 0.55504733 0.20475194 -0.43470538 -0.6747931 -0.6550952 -1.1686717 -0.8889225 0.07422234 0.45995128 -0.3728273 -0.12108244 -0.14417538 -0.10261713 0.046947423 -0.82226384 0.66260964 -0.34488785 0.5900014 -0.049675994 0.61447775 -0.17663617 -0.11356448 0.8025605 -0.25525677 0.5565285 0.0013018354 0.91495425 -0.80454344 0.107926354 -0.069875196 -0.12746991 0.3287365 1.2251625 -0.41111982 0.0623347 -0.015362505 -0.009461644 -0.08710655 0.14638947 -1.0046644 0.8957609 0.04049712 0.83254653 -0.43917087 -1.3936893 0.54546475 0.084975906 0.8646583 0.48222107 -0.056815773 1.0468563 0.9047647 0.2255656 0.8203688 0.63888574 0.58395225 -0.76588225 0.51878995 0.09475348
car -0.484803 0.03688388 -0.64228094 -0.3277984 -0.3537725 0.20232503 0.6199051 0.5856641 -0.5282095 -0.58921474 0.056732595 0.40796438 -0.45935985 0.07151369 -0.22012359 -0.39456493 0.0146022495 -0.8463711 0.26893246 -0.8838777 -0.14301568 -0.022634957 0.2631621 0.020693727 -0.69113326 0.37950364 -0.80485773 -0.3185372 0.55115896 0.2420863 0.21448086 0.13788861 -0.37617895 -1.0919735 0.7122248 1.3369939 -0.16993113 -0.22725892 0.107896246 -0.98204386 0.80675495 1.0866503 -0.61201197 -0.16571295 0.6887892 -0.16473022 0.11442553 -0.5211209 0.20158094 -0.50776017 0.43748614 -0.049327705 0.60646933 0.45080388 0.82473207 0.2477626 -0.27808306 0.29380164 0.3818732 0.16472293 0.73789704 -0.13758056 0.51270044 -0.8628057 -0.2631819 -0.13530667 0.32412705 0.5299171 -0.5367318 0.34473008 -0.10718335 0.24177097 -0.94165653 0.0046606828 0.15286009 0.4073736 -0.3525353 0.18971203 0.84891444 0.03601428 -0.6650485 -0.49901712 -0.12886763 0.42675608 0.5900607 -0.8026468 -0.52868956 0.9785195 0.4608307 0.42165104 -0.94723785 -1.1109463 0.11329645 0.24574284 0.67993903 0.19658455 0.2479369 -0.61157775 0.6777164 0.07997792
hard 0.74353695 0.640062 -0.47905397 -0.10778397 -0.31265545 -0.5021317 0.68167305 0.022166189 -0.8230586 0.5258164 0.41271752 -0.10036082 -0.20892228 -0.7356678 0.47133574 -0.4936324 -0.2782577 -0.1396009 -0.40108106 -0.6226038 -0.79286337 0.19441535 0.6350454 0.13059643 -0.8620655 0.9869748 0.2870434 -0.38534248 0.053073183 -0.6888494 0.49377635 -0.48485547 -0.45788386 -0.60171014 -0.07398856 0.744863 0.44254467 0.019908607 0.30494046 -0.95197517 0.77402943 -0.8661896 -0.46353766 0.25108132 0.26032463 0.25769603 -1.0190152 0.76856685 0.039541442 0.16506281 -0.1325576 0.5971688 0.03445281 0.6764049 -0.13775037 0.4560279 0.4308069 0.52662104 -0.6188187 -0.026475552 -0.13873132 -0.83866256 0.18183167 0.34304804 0.24308272 0.721874 -0.077553 0.20703396 -0.1414849 0.31892148 -0.013587402 0.29096243 0.083446525 -0.2695811 0.30970004 0.016203303 -0.44083586 1.2548306 -1.0380213 0.32862645 0.23674105 -0.08377798 -0.6388941 -0.9560544 -0.8279876 -0.58903825 -0.1455727 0.18381678 0.7113465 0.2941424 -0.06062295 -0.07548353 0.100077756 0.2976367 0.5635094 0.2730177 0.1255663 -1.3472503 0.7679398 0.69121146
services -0.08401182 -0.31873113 -0.41230336 -0.6927222 0.066429116 -1.3822225 0.65672654 0.42810273 0.46237484 -0.3666568 -0.3516656 -0.4522479 0.14976455 -0.39959413 0.6587579 -1.4955897 -0.9714462 0.074795246 0.5615229 -0.08680285 0.6930586 -0.7947806 -0.11354129 -0.49052796 0.5049772 0.26530102 1.3641931 0.40238315 -0.21437469 0.14777547 1.3181795 -0.19127195 -1.7110122 -0.9901628 -1.070414 0.045447346 1.1478051 0.13271132 0.97380054 -0.8973191 -0.17234734 -0.32894707 -0.34193975 -0.6159323 0.17046435 -0.19723362 0.1510619 -0.7253533 -0.16815372 1.2034454 0.8890362 -0.3875552 0.18701956 0.42385775 0.6514481 0.50403255 -0.27312067 -0.9960345 -0.604733 0.389385 -0.87427366 -0.19674791 -0.19535926 -0.44950536 -0.3272062 -0.11461851 -0.39454994 1.3945285 -0.69066817 0.90303236 -0.15743583 0.8682788 0.55054194 -0.21278591 0.14665172 0.569805 -0.8384426 0.3498098 -0.46110708 0.42501715 -1.2338822 0.48617333 -0.388189 0.14501445 0.3935774 0.05065283 -0.2059066 0.10812738 -0.30537227 -0.45365193 0.5897116 0.32881042 0.9215408 -0.7478607 0.17462759 0.28095463 0.35161483 0.09448086 0.73262566 -0.53198516
old -0.35315764 0.06576233 -0.4517208 0.09712585 -0.7031706 -0.05891415 0.47357702 0.24426936 -1.2283139 0.448844 0.3200913 -0.23006022 -0.2980951 -0.20208484 0.3811402 0.29695505 0.003706765 -0.81308943 -0.7954299 -0.78668475 0.51583624 -0.39269915 -0.5966964 -0.30942625 0.28794396 0.34581584 0.1778287 0.3581852 -0.1573125 0.48934728 -0.2674323 0.1710643 0.099282384 -0.27994367 0.07404887 -0.020957315 0.01622065 0.40420014 0.19493386 -0.3150077 -0.97444373 0.3057179 -0.33861163 -0.48724005 0.7245719 0.6005406 -0.7267675 -0.10846868 -0.4627231 1.4459139 0.10792844 -0.36737338 -0.26424208 0.30510053 0.29606116 0.2086599 -0.22543731 0.6275068 -1.1891608 0.69378084 0.22802892 -0.0009353204 -0.6630107 0.28224412 -0.7446473 0.3980067 -0.33644247 0.5902731 -0.43817398 0.5805242 1.1538159 0.68059385 0.095508985 0.115096316 -0.25227273 -0.091772735 0.12964237 0.6517088 -0.051550902 -0.4442205 0.05874811 0.1514494 -0.17425565 0.41252238 -0.4058907 -1.1488317 0.44304514 0.68656313 0.1604624 0.14381517 0.31995454 0.94192547 -0.8410897 0.0021833887 1.2012609 0.588017 -0.56772685 -0.7600312 -0.12417313 1.2490124
customer -0.7700365 -0.054175217 1.1191185 -0.4317418 0.0072318246 -0.46318606 0.43968678 0.88506603 -0.67126954 -0.5885442 -0.016269153 0.4318663 -0.9451133 0.39805645 0.5436573 -0.7033571 -0.27574137 1.0479971 0.7982594 0.015428306 -0.2530326 0.49764043 -0.6452743 -0.04620991 0.41406378 0.03786308 -0.22820473 -0.41253936 -0.40780395 0.6820989 0.25941542 -0.28445867 1.060007 -0.99339414 0.14562473 -0.14732671 0.19168957 0.4523771 0.09383812 -0.19088194 0.46154994 -0.22152086 0.28205964 -0.1646339 -0.08635784 -0.039737497 -0.31467092 0.5846926 0.12746201 -0.36436793 0.5302788 -0.14504644 0.021287449 -0.27202103 0.5060055 0.09328955 -0.2075007 0.7819767 0.4001753 -0.11461765 -0.55160624 0.045136463 -0.4795883 -0.032347385 -0.9453023 0.17208232 0.0126297865 0.10138103 0.34950462 0.051495567 -0.42398396 1.166656 0.84110796 0.18772522 0.6600793 -0.97095364 0.52043146 0.5863713 -0.8526685 -1.1453323 -1.1125402 0.267936 0.07259772 0.12775333 0.18292162 -0.20187536 0.34952313 0.8187017 0.5455432 0.47566822 0.43760356 0.21636735 -0.15322314 0.025662437 1.6993138 1.2033004 0.040904365 -0.23016642 0.2866483 -0.98784316
waitress -0.1715554 -0.17864087 -0.27040255 0.8385221 0.47657183 -0.4947005 0.5590074 1.468559 -0.68020594 -0.8130131 0.836614 -0.7097425 -0.032131426 0.6491065 0.23005015 -0.07345469 -0.2776239 -0.17289405 0.31584403 -0.7964683 -0.097206846 0.10714901 -0.016863175 0.100172535 -1.0585301 0.6635696 0.5320465 0.2834143 -0.6747229 0.6296676 0.7252332 -0.5071929 1.6160272 -0.62837714 0.5378442 0.20850289 -0.39451987 0.054567 -0.061029576 -0.5007072 -0.31815597 1.057019 -0.32411128 -0.4255637 -0.4714385 0.07232346 0.05084684 -0.48453003 -0.087298244 0.00400049 -0.53696495 0.6246651 -0.2516156 0.47664714 0.5007294 0.47053182 0.09472387 0.5706266 -0.27961558 0.8958063 -0.5824787 1.0260645 -0.04171825 -0.09384909 -0.42788818 0.5633823 -0.52518606 0.2269244 0.4661823 -0.35154268 -0.18747823 -0.40941182 -0.70481735 0.104244344 0.30559576 -0.35152012 0.016978318 0.38470733 -0.35028374 -0.4434497 -0.8985528 -0.19750156 -0.9038359 -0.11265277 -0.029908976 -0.087174565 0.58170307 0.58759785 0.4622564 -0.042248577 0.75519794 0.33799705 0.72674686 -0.0023292997 1.2152892 -0.08163715 0.39023635 -0.83939403 0.22776282 -0.4739359
english -0.26151523 0.22646949 -0.1412323 0.13486251 0.732084 -0.48408332 0.18616109 0.47346175 -0.60434324 0.84092534 0.5662195 -0.077733 0.732462 0.66542435 0.45862252 0.54985666 1.4096438 -0.2267852 -0.25916335 -1.3345659 -0.07735706 -0.74012965 -0.5296086 0.102112085 0.9785044 -0.38052157 0.03721092 0.12514704 0.04364952 -0.8755031 -0.19210866 0.5218609 -0.102922164 -0.565652 -0.35027635 -0.5966513 -0.00510944 -1.0117259 -0.44113198 -0.7842697 -0.35768434 -0.6304868 0.15379953 -0.42063603 -0.00392513 -0.17111994 0.30700144 0.23468047 -0.2634505 -0.41689983 0.099522285 -0.30048794 0.24805981 0.718425 0.8671511 0.21657076 0.50260377 0.27653262 -0.81679004 0.19337809 0.37798095 -0.27820817 0.72431874 0.46952325 0.118056804 0.9296101 0.6336955 0.36228144 -0.2827518 0.120098986 -0.2379656 -0.54253423 0.28155336 0.32247466 0.17817894 -0.065598674 -0.39989156 0.19166741 -0.7200401 0.0771377 -0.5670092 -0.5625244 -0.7951226 1.2034098 -0.06932281 0.28138757 0.6940948 0.569518 -0.16239308 -0.37431672 0.19538526 0.1885095 -0.674908 -0.0028479947 0.64656925 0.9956634 -0.32686213 -1.1894329 0.23844928 -0.47586083
junior 0.6723102 0.15180086 0.34359318 -0.54274434 -0.4572516 -0.35739997 -0.48938996 0.36699823 -0.6676776 -0.4776971 0.039105233 -0.42603475 0.034890637 -0.048251033 0.01618664 -0.11883036 -0.31837136 -0.35610148 0.27494416 -0.7784129 -0.27167636 -0.5142079 0.18234341 0.47235662 0.9263503 -0.17713614 -0.27195284 -0.1350295 -0.5058189 -0.05184658 0.8987544 -0.1764709 0.25029722 -0.01681784 -0.50040156 0.19051553 0.2390819 -0.40064356 -0.63513607 0.09922513 -0.22697467 0.4209276 -1.0479041 -0.6548397 -0.45480493 -0.1341914 -1.5095307 0.5682986 0.03271897 -0.5312795 -0.27268302 -0.42664143 0.33169174 0.13964012 -0.013503699 0.046752956 0.042548064 -0.586226 0.052664213 0.40794042 -0.1911767 -0.001393191 -1.4892309 -0.14432092 -0.24138118 1.1167127 0.09387974 -0.68937504 0.13828842 0.4576094 -0.6260101 0.77345365 0.29893234 1.2988844 1.3871423 0.48028767 -0.13893445 0.33175215 -0.11188821 -0.10227712 -0.13869011 -0.50344825 0.5666298 0.1048153 0.12428775 0.27254668 -0.08724298 0.15267202 0.74816453 0.3605726 0.6740379 0.5858057 0.9106188 0.4694909 0.611206 -0.53437275 1.5901835 0.7514783 0.012737175 0.6864557
hiring -0.2619931 0.05663992 -0.11251122 0.2643414 0.71060014 -1.1878681 0.70120484 0.09532758 -0.4428677 -0.7108678 0.4717552 -1.0226178 -0.81355584 -0.46598208 0.06629992 0.5786779 -0.61623204 -0.8011472 -0.44343057 -0.70507306 0.38421586 0.3862845 1.1526922 -0.5593934 1.5478272 -0.071194865 0.23098558 -0.257865 0.07038848 -0.2693051 1.0939528 -0.33435464 -0.14847164 -0.18441628 -0.5905928 0.08092533 -0.12712717 0.33133763 -0.87656534 0.18070944 0.6933137 0.002872167 -0.7353946 -0.19786397 -0.3777424 -0.25136814 0.13661817 -0.13112259 1.081872 -0.41420794 -0.054655768 -1.0600072 -0.41788548 0.15507732 -0.19495465 0.01194186 1.0221076 0.11465535 0.092957206 0.12339236 -0.6553874 0.21562894 -0.18407644 -0.34524164 -0.61086774 -0.109490804 0.2742987 0.010878314 -0.23451631 0.23397018 -0.70006156 -0.8262521 -0.47662878 -0.48884645 0.4937257 0.3070205 0.62294036 -0.26468956 -0.6242153 -0.020304175 -0.21809994 -0.21841456 1.178448 0.75047016 -0.27167544 -0.77191067 0.30137527 1.1027856 -0.30898634 0.58042943 0.5217727 -1.4980401 0.4421068 0.10234553 0.07060433 0.05540835 0.36362153 0.4494886 0.3970482 0.34605289
technician -0.59392977 0.3878156 -1.1181277 0.2687043 0.2544437 -0.51097137 0.09493976 0.885077 0.9841639 0.4020213 0.18527433 0.09394331 -0.57467544 -0.28577662 0.83538973 -0.5098763 -0.0925873 -1.0133829 0.09442724 -0.071539976 0.9905747 1.0585995 -0.1741907 -1.3369309 -0.1254042 -0.26521018 -0.6560728 0.23301132 -0.78748465 -0.01722654 -0.36084312 -0.050558377 -0.61145157 0.6611927 0.333084 0.79656166 -0.3390588 -0.3969228 -0.5874808 -1.0323938 0.06245327 -0.83620733 -0.48494267 -1.5079713 0.8075377 -1.218766 -1.0154612 0.33158034 -0.5039385 -0.26682773 -0.40546378 0.42190927 -0.8500695 0.0493243 0.6898113 0.06160111 -0.3367372 0.76637876 -0.02613878 -0.5869869 -0.9640588 0.20648804 0.5578393 -0.68905115 -0.69442666 0.32151788 0.39339975 -0.027194323 -0.018557968 0.27154043 -0.350883 -0.8081997 0.7374873 0.9614111 0.9274474 0.4454481 -0.42315862 0.36495525 -0.36511168 0.63802415 0.12709661 -1.4065479 -0.058281176 -0.24201104 0.5563657 0.50877076 -0.21267743 0.6207192 1.3344171 -0.57252353 0.40081275 0.2880962 0.69324553 0.68510634 -0.6299517 0.055789854 0.60587496 0.07164058 0.04620739 -0.97688675
new -0.35886267 0.62488455 0.7928814 -0.54340845 -0.41190737 -0.12818351 -0.27049842 1.0347297 -0.33142573 0.088747054 -0.3610862 0.15423009 -0.0666318 -0.5468625 0.032514837 -0.27589402 -1.0401921 -0.7691272 -0.67043436 -0.1501438 0.16624318 0.44913214 0.29871795 0.023312189 -0.3047482 0.49391642 -0.28212616 0.14980517 -0.4887991 0.06018602 0.21625793 -0.009677675 -0.6206402 -0.19219069 -0.060677707 -0.2571511 -0.06021886 0.3079247 0.345611 -0.715876 0.21745709 0.37809289 -0.2299317 -0.26633474 -0.47408977 0.16997772 -0.6338702 -0.08937248 0.58616203 -0.91119653 -0.8424665 0.31570217 0.4329445 -0.2355828 0.75175977 0.5486078 0.44071713 0.28087613 -0.021761544 0.46060395 -1.4512686 0.14896181 0.5831299 0.47404802 -1.0217445 0.41046894 0.18712619 0.6911 -0.99728733 0.003109107 1.0571175 0.6155033 -0.12981553 0.023105402 0.69652176 0.8327552 0.024337405 -0.8148114 0.09112093 0.1813047 0.21813263 -0.55814034 0.255356 0.9078855 0.15851752 -0.53766495 0.33295938 0.07442745 0.24195184 -0.6750712 -0.87309694 0.10692507 -0.20111002 -0.32978874 0.18891801 0.5976857 -0.24008922 -0.31485537 -0.26129982 0.014452935
working 0.3922472 0.8829624 -0.7651268 0.13322209 -0.22876987 -0.0031898231 0.7164101 0.810256 -0.28142864 -0.015131777 0.52913815 -0.09236484 0.13864607 0.0016459896 0.53691685 0.32154164 -0.1966908 0.0005503621 -0.72083795 -1.4943975 -1.0938314 -0.51559305 -0.027059108 0.18554501 -0.7803027 0.44034052 0.9356956 -0.31701335 -0.029648932 -0.350445 0.68930686 -0.1349485 -0.6573695 -0.22556342 -0.4389798 -0.053080782 -0.07784677 -0.15052179 0.26124367 -1.1049132 0.7596964 -0.36919394 -0.62824667 -0.10057375 -0.16043484 -0.29860863 -0.18808098 -0.036090825 -0.16241252 0.5667408 -0.6456314 0.052615784 -0.5512598 0.6960378 -0.08282434 -0.11341874 -0.37746137 0.5494588 -0.28659612 -0.31157693 -0.23416041 -1.6587951 -0.4504434 -0.09513294 0.07244194 0.783186 -0.19389287 0.0653941 -0.13954933 -0.22027977 -0.011030686 -0.4887597 0.2832086 -0.3685049 0.44059426 -0.0985102 -0.43762314 0.28545785 -0.89882505 0.8483531 0.26451668 -0.021069184 0.0058689294 -0.341295 -0.46114892 -0.55023974 -0.18160078 1.0531197 0.45632333 -0.26043263 0.31613144 -0.15729849 0.39237148 0.44371903 0.63751847 0.9125389 -0.38203457 -0.96648276 -0.25961122 0.50236064
labour 1.1910931 0.9308089 -0.057785887 -0.7958846 -0.61756307 -0.39243835 -0.31300923 -0.35975263 -0.99656737 -0.1797186 0.25000072 -0.55913544 -0.06916022 -0.12300884 -0.27916354 -0.3534342 -0.3269383 -0.24792892 -0.09883496 -0.15575854 -0.107681625 0.2014405 -0.1619444 -0.88636875 -0.37907687 -0.32605568 -0.22845082 -0.14571369 -0.29065585 0.6181524 0.35009548 -0.3799808 0.3732954 -0.74145794 -0.35604283 -0.19092499 0.5236092 0.3188932 0.010888797 -0.73329663 0.6164714 -0.03304105 -0.5871099 -0.32187334 0.39142013 -0.3814075 0.5854616 -0.11540556 0.24946828 0.44928965 -0.2484867 0.49511045 -0.5615244 0.48437482 -0.255793 -0.7206079 0.6051266 0.9126481 -0.4964154 0.72818613 0.007975878 0.031927634 -0.13813451 0.6962411 0.6442829 -0.466105 1.1787916 1.21268 -0.40044835 1.2246917 -0.23344754 -0.38402513 0.96877855 -0.49499893 0.53541744 1.0468234 0.46043193 0.40064627 0.44181475 -0.80001014 -0.21084318 1.692956 -1.0992396 0.70528024 -0.21672913 -0.85285294 -0.039288856 -0.051023964 0.81121296 0.8775028 0.7668509 0.21380225 0.7428237 0.18845798 -0.11426471 -0.16311418 -0.50670826 -0.5122384 -0.5724505 -0.011830539
urgent -0.05063756 -0.18588996 -0.10612001 -0.35057694 -0.28509742 0.22246784 0.8458913 0.28976202 -0.02163172 0.801467 -0.13691455 -0.016633928 -0.5228621 -0.0004775956 0.26506492 0.46427009 -0.307623 0.17194532 -0.21488571 -1.2170862 0.009190112 -0.07272781 0.54330504 -0.3755887 -0.5826964 1.0822146 0.7166653 0.06092613 -0.14207484 0.06695471 0.2500033 -0.34502026 0.45501465 0.64168787 -0.28528002 0.84813046 0.6704078 -0.30333865 -0.48414612 -0.9756651 0.35005173 -0.5886348 0.60016215 -0.82081425 1.0159483 -0.62001 -0.35199973 0.061673872 -0.19553933 -0.25678763 0.696536 -0.4464265 1.0684943 0.04852516 0.24122795 -0.27897996 -0.81712633 -0.34651536 0.34046715 0.977005 0.42562416 -0.41968566 -0.11535039 -0.21912585 -0.6041446 0.4498762 0.5314795 -0.09503277 -0.9245148 -0.6676687 1.0022507 -0.013819646 -0.011427487 0.5965323 1.1942728 0.69572246 -0.3485654 0.3131284 0.457151 -0.0006432509 0.73349845 0.027473891 0.29734114 0.67532414 0.09764016 -0.036709398 1.0347832 0.2145701 -0.02912183 0.5568704 0.1759853 0.3764164 0.20318565 -0.5498693 0.48047754 -0.07962596 -0.6639941 -0.2957089 0.87519217 1.1920762
business -0.49906313 0.47107717 1.051767 -0.06729001 -0.036571328 -0.011164531 -0.5403652 0.21047528 -0.41606128 -0.6125258 -0.2744884 -0.54337394 -0.916939 0.615047 0.086956345 -0.2668606 -0.3717011 0.7172621 0.58843255 -0.4373957 0.0118520055 -0.5946814 -0.0874878 -0.76389486 0.75838494 -0.17266276 0.009763739 -0.4280424 -0.79498315 -0.6312454 0.13738634 -0.18048097 -0.7380773 -0.09902866 -0.47753146 0.51668704 -0.08214601 -0.21180284 -0.98621136 0.15530233 -0.411053 -0.49044582 -4.3225496e-05 -1.589484 -0.36734557 -0.5724707 0.9180286 0.5255912 0.30086097 -0.47936225 0.278769 -1.2792363 0.115019605 -0.57788736 0.8515967 0.11037746 0.75607806 -0.16972004 0.15195715 -0.50986433 -0.3976708 0.12217502 -0.36184773 -0.93515396 0.16872434 -0.20138623 0.07924404 0.15759315 -1.7598276 0.8828148 0.46076086 -0.33175611 -0.36564228 0.4791821 0.65590847 -0.09426468 0.057837866 1.9838552 -0.8488207 0.38321736 1.0365183 0.10345365 -1.3202736 0.3357605 -0.24075997 0.07665636 -0.7102165 0.8586809 -0.12609792 1.0623875 0.59662604 0.27109206 -0.23034236 -0.3678978 -0.34116182 -0.28716916 0.65855664 -0.29265758 0.72747636 0.11672629
team -0.7569263 0.26158598 -0.340145 0.06956347 -0.5691235 -1.4306175 0.16484018 0.7617709 0.12738481 -0.036592215 0.20558894 -0.4356562 -0.4328076 0.20608811 0.54796046 -0.01695624 0.7617863 0.28440332 0.9586393 -1.2021047 1.4305725 -0.15385239 0.21119119 0.800989 -0.25296998 0.97939223 -0.3753093 0.10262026 -0.56242555 0.6505459 -1.1501017 -0.03928034 -0.12213047 -0.1294358 0.10973235 -0.03367093 0.82903993 0.41615394 -0.21043387 -0.30155 -0.2911092 0.4682082 0.039091308 0.3912874 -1.0382754 0.44029787 -0.4482006 -0.23613456 0.87351185 0.718212 0.26065052 -0.11584213 0.31839275 -0.14526837 0.0047500664 0.6443445 0.5607155 0.8541714 -0.8475709 0.36547616 0.6791273 -0.66553813 -0.051897563 -0.6419825 -0.8245397 0.11210505 -0.26410156 0.0019301185 -0.94167817 0.7316476 -0.9415124 0.87385994 0.72336787 0.21206582 0.23729847 -0.6154363 0.1708314 0.8585668 -0.5511403 1.3357 0.10806187 0.94593424 0.82356757 0.23016647 -0.4220267 -0.2734678 0.051580265 -0.12616003 -0.015567655 -0.45680082 0.5982919 0.38568687 0.38642716 -0.30301356 -0.21980466 0.4234507 0.6982238 0.14937548 -0.12559828 -0.31531665
mr -0.5018602 0.20564647 0.5967654 -0.05465494 -0.1386616 -0.14664213 0.6534284 0.41001603 -0.5163903 0.24431548 -0.3788139 0.19385114 -0.04544261 -0.3887376 0.630045 -0.26799786 0.28034484 -0.17092587 0.138585 -0.3769992 0.53206235 -0.85322195 -0.36485642 -0.6998985 0.18281533 0.093084104 -0.09388724 -1.4389057 0.5101622 0.14974631 -0.9318038 -0.44025087 -1.5231616 -0.6347299 -0.15691008 1.4011891 0.06410992 0.41251466 0.66520035 -0.29848713 0.15135592 0.23311295 0.1567419 0.39922076 0.97941214 0.78700864 -0.9029975 -0.30412692 0.75406027 0.02248824 -0.01156185 -0.4217501 0.4962144 0.34758675 -0.7261545 -0.46643266 0.5953872 -0.38508317 -0.40220344 0.8031839 -1.1704577 -0.40894115 0.7441631 -0.21244133 -0.19864345 0.68025535 -0.018520918 0.41430914 -0.35758 0.8208872 -0.72279364 0.21072048 0.1694786 -1.1513689 0.22004463 0.6895489 0.31820008 0.20173353 -0.04267834 0.7626089 -0.37909642 0.11258539 -1.0052105 -0.3019614 -0.67848766 -0.41655427 0.5855374 0.32200906 0.5946256 -0.025469856 0.5166082 1.1204169 -0.43053374 -0.5045087 0.6870606 -0.44629392 -1.0459363 0.1577882 -0.15169637 -1.1173468
home -0.05472835 0.041361183 0.84635395 -0.07734538 0.3547585 -0.032215856 0.94989717 0.27455708 0.16403301 -0.13465194 0.41077438 -0.40083283 0.10462324 -0.3324617 -0.52164304 -0.7095255 0.11539585 -0.5572671 -0.68745255 -0.938134 0.90261966 0.10672518 -0.5339249 -0.09882664 0.48327813 0.03650282 0.061819572 0.7891258 -0.30479753 0.16335504 -0.5717962 0.6929511 0.015269347 -0.5356256 -0.059055183 0.11738151 -0.89283526 -0.55272764 0.14522283 -0.24840063 0.75774974 -0.44904664 0.010864411 -0.43742535 -0.73517376 -0.15766904 0.26605767 0.35003963 1.1829174 0.11813344 0.109561004 -1.256958 -0.3333593 0.9886523 0.13188565 0.7242544 -0.030430382 1.6419597 -0.079700135 -0.15216099 0.34400427 0.15052736 0.2191456 -1.2069657 0.16531026 0.5439817 -0.7547065 1.3496921 -0.2333501 1.0421158 0.4388038 0.75428253 -0.38467187 0.18813032 0.18610369 0.42126223 -0.07569347 0.29665667 0.24318762 -0.40989178 -0.4770239 -0.12946476 -0.22331394 0.5023425 -0.8820804 -0.53646505 0.35910624 -0.24561173 0.37604055 0.38283673 1.169494 0.53941447 0.50890577 -0.34963304 0.49788144 -0.4063274 0.6822737 -0.26025656 -0.27128398 -0.85491765
electrician 0.37359816 0.17028625 -0.047861475 0.794493 1.1527199 -0.99845564 0.39260215 0.97737545 -0.5763838 0.315992 0.44391972 0.016925512 0.5763883 0.6553159 1.0791216 -0.49779236 -0.37592152 -0.32295388 -0.26186725 -0.5201025 0.44829655 0.5094799 -0.09085606 -0.26858816 -0.14191122 0.6613452 0.05055011 0.005008147 0.18327606 -0.09261138 -0.033344522 0.64204097 -0.69555306 0.1897304 -0.52393657 0.25703257 -1.5516264 0.34230292 -0.2398092 0.24880259 0.0011042347 -0.42577237 0.57746994 -0.7042679 2.5509505 -0.44380382 -1.438146 -0.2035622 0.4447529 0.498457 -0.10634164 0.6380993 -1.1566268 -0.004763274 -0.3085267 -0.47954518 -0.32626283 -0.1078944 -0.70911086 0.78928196 0.10927768 -1.1087259 -0.14524736 -0.9052231 -0.69555753 -0.015942836 0.3364211 0.12581941 -1.0897926 1.4541765 -0.32005653 -0.11556458 0.48944256 0.08206799 -0.08920445 -0.79662657 -0.17426407 0.6180152 -0.98214424 0.34455082 -0.761569 0.02697336 -0.11511602 0.1408269 0.5677325 -0.18509518 -0.6009594 0.64419854 1.129417 -0.48851714 -0.76817906 0.17560521 -0.78169006 0.056786597 0.064166434 0.18261431 -0.345422 -0.175951 -0.09078703 -1.0219661
melbourne 0.23999457 0.86286473 0.40766573 -0.85205567 0.30213603 0.008212881 -0.27522978 0.5221945 -0.4496856 0.42679393 -0.7157792 -0.15900376 0.30996394 -0.5327857 -1.0487416 0.026584355 -0.35118854 -0.3015813 0.458897 -0.6370586 1.0816852 -0.14759488 0.20774503 -0.5573031 -0.7215933 0.6188699 0.55307376 0.4514695 -0.02041593 -0.14351998 -0.10947803 -0.6507886 0.03578211 -0.1702805 -0.30247492 0.9723181 -0.8472247 -0.2722125 -0.23276004 -1.1051656 0.62495255 0.7129074 0.4570001 -0.15500951 -0.19232805 -0.4675742 -0.16763718 -0.5456966 -0.18042763 0.51086897 0.115410075 -0.03966872 0.08748288 0.84375244 0.98365253 -0.36907792 -0.13549525 -0.3109025 -0.29110792 0.5489924 0.2982345 0.19020371 0.19348682 0.031770006 0.60635096 0.71683586 1.0056667 -0.38177443 0.7061172 -0.0004949099 -0.07399279 1.2532846 -0.23308161 0.0033240335 -0.054652918 0.24391946 0.23386717 0.29153198 -1.0155401 1.2171019 -0.09346182 -0.40599424 -0.27146572 0.04885201 0.15969673 -0.4562999 0.8222066 0.20811501 0.49340355 -0.6617708 0.023744378 0.17214967 0.1884139 0.64891213 0.10670519 0.36695048 -0.2614219 -0.5926229 0.79969007 0.54340094
teacher 0.17216422 0.0676029 0.20010464 -0.19249144 -0.81097734 -1.5238249 0.477185 0.1752148 0.27010462 0.94214857 1.2772136 -0.5065943 -0.336263 -0.39792925 0.15369952 -0.30815357 -0.5021419 0.21477905 -0.27132204 -1.025032 0.3501546 -0.4007714 -0.11070877 -0.062919125 0.025433173 0.03372783 0.026883032 -0.67594784 -1.4028262 -0.45616645 0.26299402 0.5330781 -0.9996882 0.4522055 -0.3427998 0.22483812 0.06453541 -1.1755939 0.37987316 0.6954803 0.2096478 -0.6109979 -0.5079684 0.5411201 0.98808944 0.14071685 1.5219377 0.32347107 0.16382676 -0.22609445 -0.6261698 -0.8123176 0.43602127 -0.18551593 0.20565744 0.68874514 0.021238472 -0.23249982 -0.093419105 0.012594988 -0.038709857 0.73134804 -0.29693112 0.4304546 -0.5115104 0.5194854 0.3652813 -0.19656615 0.30436796 -0.070592895 0.6499009 -0.15068555 0.8788732 -0.055226147 -0.22035089 -1.2134327 -0.93519044 -1.2968472 -0.41468564 0.14874312 -0.53143144 -0.9792685 -1.2479501 0.86558026 0.31804138 0.44330388 0.21688299 -0.58295196 1.4151067 1.160562 -0.040309593 1.1561397 -0.5369076 0.40530732 1.7895085 0.4556547 0.16316217 -1.2075185 1.3305956 -0.9577749
couple 0.24834983 -0.13041158 0.3415791 0.20485461 0.068285786 -0.7427575 -0.35065997 0.4937251 -0.2890979 0.48912972 1.0850186 -0.427184 -0.7995673 0.45865798 0.6331941 -0.051839214 0.5875315 -0.95250547 -0.08959941 -0.42125922 -0.5569999 -0.18200643 -0.43507096 -1.232135 0.50511026 1.2092301 0.24520865 -0.24978186 -0.84346235 -0.6537543 0.5889674 -0.36754453 0.4258642 0.5839435 -0.15950537 0.61966187 -0.37794608 0.15148899 0.44246823 -0.42325154 -0.043266796 -1.0707028 0.0366689 1.037115 0.39593184 0.45957372 -0.26061407 0.14075941 -0.12567857 0.4958146 0.14680506 -0.037821315 -0.08084856 0.027482284 0.016355908 0.13372336 0.2569071 0.92280674 0.5749533 0.62183964 1.3841965 -0.7873069 -0.3874264 -0.617555 -0.39403644 0.037638385 -0.34095687 0.19371772 -0.9594779 0.42105097 -0.0056683985 0.70067084 1.0005668 -0.27221912 -0.55823594 0.64649403 0.406723 -0.31878716 -0.24625641 -0.35336554 -0.2912768 -0.1171333 0.5431979 0.075553864 -0.5097642 0.2551077 -0.13120739 -0.2957442 1.0019878 0.9215309 0.14321303 -0.36142313 0.0728224 0.30659384 1.0516876 0.60186267 -0.2531605 -1.2936212 0.35747787 -0.8248383
